-1.061242073774337769e-02
-2.399855665862560272e-02
2.358497977256774902e-01
-1.251110881567001343e-01
-1.474414467811584473e-01
-1.551778148859739304e-02
-1.664347946643829346e-01
9.501586854457855225e-02
4.284553229808807373e-03
1.986666470766067505e-01
-3.165262192487716675e-02
-1.199675425887107849e-01
1.193720623850822449e-01
-1.443956792354583740e-01
7.343636453151702881e-02
4.283707216382026672e-02
-4.984141793102025986e-03
6.140552833676338196e-02
6.017691642045974731e-02
9.071625769138336182e-03
1.261347979307174683e-01
6.339348852634429932e-02
1.487663984298706055e-01
5.728760734200477600e-02
-9.601453691720962524e-02
-3.868728876113891602e-01
-3.103660345077514648e-01
4.420871846377849579e-03
-2.963072434067726135e-02
1.219830885529518127e-01
-2.815276980400085449e-01
5.035669892095029354e-04
3.961059451103210449e-02
1.761070340871810913e-01
1.286498177796602249e-02
-7.176297903060913086e-02
-2.031612396240234375e-01
2.329850196838378906e-02
1.450504362583160400e-02
1.354195177555084229e-02
2.607561945915222168e-01
9.564259089529514313e-03
-2.395272105932235718e-01
-8.906823396682739258e-02
-1.946821995079517365e-02
2.295042574405670166e-01
8.477409183979034424e-02
-2.129019796848297119e-01
-1.470538526773452759e-01
1.750813573598861694e-01
1.475293189287185669e-01
3.510195389389991760e-02
-6.428814679384231567e-02
-3.026127442717552185e-02
-1.045644097030162811e-02
-5.629840493202209473e-02
7.127690315246582031e-02
-2.505255490541458130e-02
5.345808714628219604e-02
6.267237942665815353e-03
4.786952212452888489e-02
1.226608678698539734e-01
7.202990353107452393e-02
-2.931061899289488792e-03
4.778604581952095032e-02
-2.494701184332370758e-02
-2.118364349007606506e-02
3.897489048540592194e-03
-6.634165346622467041e-02
2.617430500686168671e-02
-1.369122695177793503e-02
-1.330626606941223145e-01
-1.085168942809104919e-01
-1.242755502462387085e-01
-1.480076760053634644e-01
8.146035671234130859e-02
1.554336696863174438e-01
7.526607811450958252e-02
-3.185932757332921028e-03
3.734709322452545166e-01
9.211742877960205078e-02
-3.429973497986793518e-02
-3.041920997202396393e-02
-1.170278862118721008e-01
-2.919367551803588867e-01
1.575392633676528931e-01
-2.967223152518272400e-02
-1.491281837224960327e-01
-5.206124857068061829e-02
-2.143458575010299683e-01
-1.269555836915969849e-01
-1.081897243857383728e-01
-6.032485514879226685e-02
9.991492331027984619e-02
-1.255155354738235474e-01
-3.312646150588989258e-01
-1.047020927071571350e-01
2.275348454713821411e-01
-2.249922044575214386e-02
8.365225046873092651e-02
2.537135481834411621e-01
3.960035368800163269e-02
-2.550563216209411621e-01
-1.267906725406646729e-01
-1.576689779758453369e-01
-8.428440988063812256e-02
-2.862844765186309814e-01
-3.088564872741699219e-01
-1.232126653194427490e-01
-7.157461345195770264e-02
1.359716057777404785e-01
-5.044626072049140930e-02
-2.136423736810684204e-01
1.911388486623764038e-01
7.969730347394943237e-02
2.168788909912109375e-01
2.457261681556701660e-01
2.880817055702209473e-01
2.361326944082975388e-03
-5.839269235730171204e-02
6.130409836769104004e-01
6.342811584472656250e-01
2.412107437849044800e-01
-1.909267604351043701e-01
-5.294194072484970093e-02
-7.601626217365264893e-02
6.741560529917478561e-03
-1.775912046432495117e-01
1.225361749529838562e-01
1.019591912627220154e-01
-3.991301730275154114e-02
-6.177479773759841919e-02
-2.247256785631179810e-01
-2.300339788198471069e-01
1.498939283192157745e-02
-1.515938043594360352e-01
9.298451244831085205e-02
9.438231587409973145e-02
6.069467589259147644e-02
5.019624531269073486e-02
-1.953205913305282593e-01
-1.241177394986152649e-01
-9.596513956785202026e-02
6.707033514976501465e-02
8.373440057039260864e-02
1.067941933870315552e-01
1.248873993754386902e-01
1.012171208858489990e-01
1.084751449525356293e-02
1.257167309522628784e-01
-1.985168159008026123e-01
-1.235882714390754700e-01
-4.491728171706199646e-02
-1.834605783224105835e-01
-2.698347158730030060e-02
2.993373898789286613e-03
1.260514277964830399e-02
-6.325371563434600830e-02
3.752986341714859009e-02
5.248670279979705811e-02
1.020681932568550110e-01
4.038275405764579773e-02
3.119864314794540405e-02
-8.887779712677001953e-02
9.147971868515014648e-02
8.320676535367965698e-02
-6.079796236008405685e-03
1.222170069813728333e-01
1.305186897516250610e-01
8.050138503313064575e-02
4.600697755813598633e-02
-3.359203459694981575e-03
-1.615287922322750092e-02
4.735616967082023621e-02
9.938779473304748535e-02
-2.458335012197494507e-01
-2.786714136600494385e-01
-1.898804157972335815e-01
-5.679528415203094482e-02
-6.485805497504770756e-04
-1.258933097124099731e-01
7.758238911628723145e-02
1.380016058683395386e-01
1.650925129652023315e-01
4.351812973618507385e-02
-7.792123407125473022e-02
8.666856586933135986e-02
2.418358027935028076e-01
1.168317571282386780e-01
2.096955776214599609e-01
1.003289967775344849e-01
1.267144381999969482e-01
8.098112046718597412e-02
2.700802497565746307e-02
5.863212794065475464e-02
5.574515834450721741e-02
-9.658689796924591064e-02
-6.509218364953994751e-02
6.431778520345687866e-02
-8.698956668376922607e-02
-1.069469973444938660e-01
-2.995247244834899902e-01
-5.867278948426246643e-02
-5.025072768330574036e-02
-6.881539523601531982e-02
6.887563318014144897e-02
1.480586640536785126e-02
-3.867261856794357300e-02
3.484713658690452576e-02
-9.756399085745215416e-04
-1.764038950204849243e-02
5.545730143785476685e-02
5.455391108989715576e-02
-1.257764734327793121e-02
-8.456543087959289551e-02
-5.065038055181503296e-02
-4.159628227353096008e-02
5.515609681606292725e-02
1.131068691611289978e-01
5.518462136387825012e-02
-4.398528859019279480e-02
-1.073479373008012772e-02
1.474167453125119209e-03
6.010896340012550354e-02
-4.902803525328636169e-02
-2.114680260419845581e-01
3.164368569850921631e-01
3.260580897331237793e-01
2.573044002056121826e-01
3.842797577381134033e-01
-2.899373173713684082e-01
-1.153590977191925049e-01
1.992236450314521790e-02
-1.748053543269634247e-02
-5.336205661296844482e-02
-4.261936619877815247e-02
-2.878915518522262573e-02
-1.240097731351852417e-01
5.304067581892013550e-02
-1.143196970224380493e-02
-1.804910600185394287e-02
-9.871187806129455566e-02
-2.728361785411834717e-01
1.173845082521438599e-01
1.621331721544265747e-01
-1.813082695007324219e-01
-1.145493388175964355e-01
1.542975753545761108e-02
2.044906169176101685e-01
1.153285428881645203e-01
-2.978112399578094482e-01
-5.035725980997085571e-02
-1.770571619272232056e-01
-2.145689725875854492e-02
9.375663101673126221e-02
-2.373253703117370605e-01
-2.781586050987243652e-01
2.623829431831836700e-02
3.291765451431274414e-01
1.238050684332847595e-01
-1.859179884195327759e-01
-1.683603376150131226e-01
6.492738425731658936e-02
1.794081926345825195e-01
1.075350120663642883e-01
-4.133574068546295166e-01
-1.168604195117950439e-01
4.453392233699560165e-03
3.820020705461502075e-02
-1.363697946071624756e-01
3.050325438380241394e-03
4.487429559230804443e-02
1.009110808372497559e-01
-3.357708826661109924e-02
-1.115372553467750549e-01
1.117457449436187744e-01
4.002153873443603516e-01
8.205756545066833496e-02
-2.000565230846405029e-01
-2.041066288948059082e-01
-2.647444605827331543e-01
2.192891947925090790e-02
-2.873521447181701660e-01
-9.838341176509857178e-02
-2.142473906278610229e-01
-5.626882985234260559e-02
-1.876036077737808228e-01
-1.132498309016227722e-01
-7.109946571290493011e-03
-1.205410286784172058e-01
-4.073408246040344238e-02
-1.042985245585441589e-01
4.079363495111465454e-02
1.814378052949905396e-01
2.278847992420196533e-01
-2.772009000182151794e-02
9.277606755495071411e-02
2.734281420707702637e-01
1.025581136345863342e-01
2.229741811752319336e-01
2.596894502639770508e-01
1.738593727350234985e-01
-7.334359735250473022e-02
-5.868528038263320923e-03
-1.374094784259796143e-01
-1.925825141370296478e-02
2.647399529814720154e-02
9.687219746410846710e-03
1.574936062097549438e-01
2.469940334558486938e-01
1.516163200139999390e-01
-9.420823305845260620e-02
-4.230344295501708984e-02
-9.314531087875366211e-02
-1.269133388996124268e-02
7.898531109094619751e-02
2.003525383770465851e-02
-1.519755646586418152e-02
-5.083061754703521729e-02
-4.603168368339538574e-02
1.737010031938552856e-01
1.500244587659835815e-01
-6.264522671699523926e-02
-6.452408432960510254e-02
1.380069088190793991e-02
6.946217268705368042e-02
-1.733420230448246002e-02
2.448404878377914429e-01
2.780936956405639648e-01
2.392884343862533569e-01
-2.931572198867797852e-01
-1.264479849487543106e-02
-1.342361569404602051e-01
-4.877263680100440979e-02
1.248995289206504822e-01
-1.579626500606536865e-01
8.905734121799468994e-02
-2.290868461132049561e-01
5.553726851940155029e-02
-5.561075359582901001e-02
2.857105731964111328e-01
8.418688923120498657e-02
-1.018677577376365662e-01
8.866781368851661682e-03
-8.529185503721237183e-02
8.759717643260955811e-02
3.465078771114349365e-01
2.487230300903320312e-01
-2.141574211418628693e-02
-1.293996125459671021e-01
-1.302968561649322510e-01
1.878389269113540649e-01
-1.238066796213388443e-02
-1.142237335443496704e-01
5.354033038020133972e-02
-4.101326316595077515e-02
1.198228597640991211e-01
-1.582301221787929535e-02
1.008748933672904968e-01
1.378746181726455688e-01
-1.249101310968399048e-01
7.001718133687973022e-02
-3.966741636395454407e-02
9.386574849486351013e-03
7.472626864910125732e-02
-1.077616885304450989e-01
-2.414572983980178833e-02
1.046242490410804749e-01
3.691404312849044800e-02
-4.328908398747444153e-02
-1.036197170615196228e-01
7.502627093344926834e-03
-6.318718194961547852e-02
-1.854403689503669739e-02
-1.355759799480438232e-01
9.304203093051910400e-02
4.136019200086593628e-02
-1.462085992097854614e-01
-2.349986694753170013e-02
3.448030352592468262e-01
-1.580708473920822144e-01
-8.704622834920883179e-02
6.836192216724157333e-03
2.240574685856699944e-03
-1.106328219175338745e-01
1.429141033440828323e-02
1.123314257711172104e-02
-1.593236997723579407e-02
6.425151228904724121e-02
-4.844323173165321350e-02
6.615194678306579590e-02
4.221291467547416687e-02
9.531255811452865601e-02
-4.841155186295509338e-02
-1.655267626047134399e-01
2.406536787748336792e-02
-6.491636484861373901e-02
1.456317454576492310e-01
1.001843810081481934e-01
-2.043700665235519409e-01
-7.174589484930038452e-02
2.171545028686523438e-01
-7.038227468729019165e-02
-2.050323486328125000e-01
-1.217857077717781067e-01
-5.403444916009902954e-02
1.842934936285018921e-01
1.464722156524658203e-01
-2.471478469669818878e-02
-5.649467185139656067e-02
-2.890344560146331787e-01
1.597820222377777100e-02
3.240338340401649475e-02
4.201434552669525146e-02
4.301153868436813354e-02
-4.013540446758270264e-01
2.565263211727142334e-02
1.937880925834178925e-02
1.285675019025802612e-01
6.024141982197761536e-02
-4.697826206684112549e-01
-8.798779547214508057e-02
-5.801813304424285889e-02
-1.135033555328845978e-02
3.597280755639076233e-02
-1.213458031415939331e-01
3.056153655052185059e-02
5.667991563677787781e-02
3.562833368778228760e-01
5.359908938407897949e-02
3.613118082284927368e-03
1.156641766428947449e-01
5.796406790614128113e-02
-2.255331538617610931e-02
-2.972975373268127441e-01
1.815722137689590454e-01
4.981095716357231140e-02
-7.410313934087753296e-02
1.104964613914489746e-01
4.970255866646766663e-02
-1.985884155146777630e-04
-9.879667311906814575e-02
-6.971316784620285034e-02
-2.293076552450656891e-02
-1.161245070397853851e-02
-9.383999556303024292e-02
-5.605807155370712280e-02
-3.642243333160877228e-03
-8.582346141338348389e-02
5.776401981711387634e-02
1.501499563455581665e-01
7.505693286657333374e-02
-1.268369704484939575e-01
-9.093294292688369751e-02
2.520955204963684082e-01
2.346337400376796722e-02
2.768124938011169434e-01
1.734354496002197266e-01
1.053826883435249329e-01
6.888651102781295776e-02
-7.440383732318878174e-02
-2.157624065876007080e-01
3.832496330142021179e-02
-5.536660552024841309e-02
1.313950493931770325e-02
-9.589209407567977905e-02
-1.882388889789581299e-01
-9.221211075782775879e-02
-2.496126480400562286e-02
-4.107428342103958130e-02
-1.306858211755752563e-01
-2.581341564655303955e-02
1.798343211412429810e-01
5.428973119705915451e-03
-2.938283383846282959e-01
-3.364968299865722656e-02
2.768093347549438477e-01
2.254831790924072266e-01
-4.370068013668060303e-02
1.705277860164642334e-01
-3.684885501861572266e-01
-5.758862942457199097e-03
-8.514134213328361511e-03
-2.656356096267700195e-01
-1.319061070680618286e-01
-2.503761947154998779e-01
-1.761471182107925415e-01
-4.322444275021553040e-02
6.665991246700286865e-02
-5.221735313534736633e-02
-4.159644842147827148e-01
-1.469386965036392212e-01
3.118173219263553619e-02
2.748123742640018463e-02
4.253872204571962357e-03
-2.751338481903076172e-01
-1.545612663030624390e-01
1.161286011338233948e-01
1.478435695171356201e-01
-8.484453707933425903e-02
-1.260519325733184814e-01
1.165385544300079346e-01
2.252487465739250183e-02
9.376664459705352783e-02
2.073208540678024292e-01
-4.504665732383728027e-02
1.214896589517593384e-01
-1.082660630345344543e-01
6.049980968236923218e-02
1.314658373594284058e-01
-3.454854711890220642e-02
2.110163681209087372e-02
-7.348180562257766724e-02
-1.331506371498107910e-01
2.661436237394809723e-02
-7.204828411340713501e-02
-8.185597136616706848e-03
1.979530043900012970e-02
-7.097509503364562988e-02
-9.830746054649353027e-02
5.899514071643352509e-03
1.085015535354614258e-01
-8.575624227523803711e-02
-2.777061052620410919e-02
-7.808037847280502319e-02
-1.281756628304719925e-02
1.685537546873092651e-01
2.941774427890777588e-01
1.647146344184875488e-01
-3.869547545909881592e-01
3.167715370655059814e-01
1.694219112396240234e-01
1.698411554098129272e-01
1.345771104097366333e-01
1.563136577606201172e-01
3.761759027838706970e-02
-2.757212333381175995e-02
-2.063768915832042694e-02
-2.361330203711986542e-02
2.074781507253646851e-01
-1.254888772964477539e-01
1.036250777542591095e-02
-1.869016885757446289e-02
8.581180125474929810e-02
9.443813562393188477e-02
-1.384516954421997070e-01
8.593170344829559326e-02
-2.163443267345428467e-01
9.818132221698760986e-02
-2.172908559441566467e-02
-1.307289898395538330e-01
-2.674251198768615723e-01
2.106237262487411499e-01
-1.130246222019195557e-01
-3.776068091392517090e-01
-1.477745175361633301e-01
1.945501118898391724e-01
2.233631163835525513e-01
8.545263111591339111e-02
-2.689868398010730743e-02
1.055941209197044373e-01
2.155313827097415924e-02
9.967942535877227783e-02
-1.360256671905517578e-01
5.954664573073387146e-02
6.241383403539657593e-02
2.452974440529942513e-03
1.657231450080871582e-01
-4.269106686115264893e-02
-4.221562668681144714e-02
-7.358770817518234253e-02
-2.492686659097671509e-01
-3.203045576810836792e-02
8.644394576549530029e-02
7.902260124683380127e-02
3.291277289390563965e-01
7.666475721634924412e-04
-4.738875851035118103e-02
-1.582656353712081909e-01
-2.961105108261108398e-01
2.646551430225372314e-01
-1.115585789084434509e-01
1.068624779582023621e-01
-2.337099313735961914e-01
-4.293583035469055176e-01
1.187225580215454102e-01
4.782141745090484619e-02
6.648525595664978027e-02
7.227119058370590210e-02
-4.565897956490516663e-02
2.609717845916748047e-01
9.085380285978317261e-02
1.176587343215942383e-01
1.290343850851058960e-01
5.936264619231224060e-02
2.124367505311965942e-01
-4.203220829367637634e-02
-1.372800320386886597e-01
2.051853537559509277e-01
2.817632816731929779e-02
-1.334755569696426392e-01
-2.411984652280807495e-01
5.141423083841800690e-03
5.133325606584548950e-02
1.359153687953948975e-01
8.557791262865066528e-02
-3.923289477825164795e-02
-6.537130475044250488e-02
5.944990552961826324e-04
-1.414405405521392822e-01
1.452099159359931946e-02
-1.956477910280227661e-01
-1.750868111848831177e-01
-1.160585805773735046e-01
3.807677421718835831e-03
-8.048586547374725342e-02
-7.533149421215057373e-02
-4.459048435091972351e-02
-1.170297339558601379e-01
-1.000376138836145401e-02
1.055913046002388000e-01
7.702399790287017822e-02
-1.447111666202545166e-01
3.691208735108375549e-02
7.239502668380737305e-02
9.672784805297851562e-02
-1.926072090864181519e-01
1.567291021347045898e-01
2.708741426467895508e-01
3.928417712450027466e-02
2.225228957831859589e-02
8.408620953559875488e-03
-5.381155386567115784e-02
3.892034292221069336e-02
-1.519495397806167603e-01
-7.807232439517974854e-02
8.202578872442245483e-02
-3.285263665020465851e-04
-3.330212458968162537e-02
-1.312085986137390137e-01
-4.895894974470138550e-02
-5.197883769869804382e-02
-1.386388018727302551e-02
-7.196587044745683670e-03
5.702530965209007263e-02
3.011029362678527832e-01
1.218931823968887329e-01
6.940432637929916382e-02
2.211534418165683746e-02
1.689395308494567871e-01
-2.235456854104995728e-01
-2.197213917970657349e-01
-1.798743754625320435e-01
-8.955625444650650024e-02
-6.677988171577453613e-02
-2.846413291990756989e-02
-3.621390089392662048e-02
-5.922859907150268555e-02
-4.722154140472412109e-02
5.028813611716032028e-03
-5.044419318437576294e-02
-1.060728803277015686e-01
-7.212942093610763550e-02
3.275547176599502563e-02
-7.860026508569717407e-02
4.226569831371307373e-02
9.630863368511199951e-02
-3.399206697940826416e-02
1.331351697444915771e-01
1.456446945667266846e-01
1.211547702550888062e-01
1.717240214347839355e-01
1.781644374132156372e-01
6.849673390388488770e-02
1.110316738486289978e-01
-9.206764400005340576e-02
1.582138389348983765e-01
4.274166822433471680e-01
2.883660495281219482e-01
1.609027534723281860e-01
7.498521357774734497e-02
-1.118177026510238647e-01
-2.037672102451324463e-01
-3.301959857344627380e-02
9.424132853746414185e-02
5.209647119045257568e-02
-5.642461031675338745e-02
1.760387122631072998e-01
3.770090267062187195e-02
2.094885520637035370e-02
1.252240836620330811e-01
1.214980483055114746e-01
-1.335824746638536453e-02
-4.439895227551460266e-02
-2.015693485736846924e-02
9.387338906526565552e-02
9.270834922790527344e-02
-1.571757644414901733e-01
-6.342157721519470215e-02
-6.607554107904434204e-02
3.402679041028022766e-02
-9.739802777767181396e-02
3.417649492621421814e-02
1.005068793892860413e-01
1.530257910490036011e-01
-1.158780902624130249e-01
-4.596636071801185608e-02
-1.350774019956588745e-01
1.945983991026878357e-02
8.508449047803878784e-02
-2.201107591390609741e-01
-1.344626992940902710e-01
-1.301288902759552002e-01
-1.685112267732620239e-01
-1.822571009397506714e-01
-1.481081452220678329e-02
-1.883047819137573242e-01
-4.805966839194297791e-02
-1.264656782150268555e-01
-1.114130392670631409e-01
8.233946561813354492e-02
-2.631342411041259766e-01
-6.878552958369255066e-03
-2.840834110975265503e-02
-7.980756461620330811e-03
1.803365051746368408e-01
4.461163878440856934e-01
1.816661208868026733e-01
7.955615222454071045e-02
-7.839287817478179932e-02
-5.929623171687126160e-02
-1.792475767433643341e-02
-6.758163217455148697e-03
2.243376076221466064e-01
2.052406221628189087e-01
6.155769340693950653e-03
-6.245537474751472473e-02
-1.694505102932453156e-02
2.033735066652297974e-01
2.159992903470993042e-01
-1.554907113313674927e-01
-1.185062155127525330e-01
-1.475747674703598022e-01
-4.771719872951507568e-02
-4.409913346171379089e-02
-2.244035899639129639e-01
-2.295263558626174927e-01
-3.252000510692596436e-01
-1.869043558835983276e-01
-7.924608141183853149e-02
-1.234834268689155579e-01
1.795357652008533478e-02
2.958382368087768555e-01
-2.116319723427295685e-02
-2.398725003004074097e-01
-1.618905663490295410e-01
5.837391316890716553e-02
1.273176521062850952e-01
-1.275229305028915405e-01
-2.993429899215698242e-01
1.466834098100662231e-01
1.767621785402297974e-01
-2.990860305726528168e-02
3.936384618282318115e-02
1.088089719414710999e-01
8.493076264858245850e-02
2.506226599216461182e-01
-8.573701977729797363e-02
-1.071320250630378723e-01
1.511631347239017487e-02
6.568310409784317017e-02
1.483221054077148438e-01
-2.124243080615997314e-01
2.023516297340393066e-01
3.187439590692520142e-02
-9.341371059417724609e-02
-1.615962535142898560e-01
1.304604411125183105e-01
2.187853008508682251e-01
-2.008734792470932007e-01
-1.459070146083831787e-01
-5.406708642840385437e-02
-6.862533092498779297e-02
-4.132691770792007446e-03
1.625968329608440399e-02
-8.484709262847900391e-02
-1.012357324361801147e-02
-1.059548929333686829e-01
-1.670810878276824951e-01
1.533445715904235840e-01
-2.492546662688255310e-02
3.422366455197334290e-02
-3.839657828211784363e-02
-4.363499581813812256e-03
2.627506852149963379e-01
-1.365496031939983368e-02
2.110977023839950562e-01
-1.261940896511077881e-01
1.816757209599018097e-02
2.494440227746963501e-01
1.881123036146163940e-01
1.115839704871177673e-01
1.750088036060333252e-01
-2.258920297026634216e-02
-2.793756127357482910e-02
-2.410350926220417023e-02
-1.803487986326217651e-01
-8.341582864522933960e-02
-4.104404523968696594e-02
1.602338813245296478e-02
1.836802694015204906e-03
-4.312315583229064941e-02
-9.783373028039932251e-02
-1.239224970340728760e-01
-2.077301591634750366e-02
-2.229893393814563751e-02
3.669862449169158936e-02
3.272623941302299500e-02
3.457256406545639038e-02
-8.042766712605953217e-03
2.863984182476997375e-02
-2.698136866092681885e-02
6.748501956462860107e-02
-5.639998614788055420e-02
-1.185758039355278015e-02
-8.153222501277923584e-02
9.000025689601898193e-02
-3.162622079253196716e-02
-2.721283435821533203e-01
-8.035942912101745605e-02
1.005558744072914124e-01
3.882741928100585938e-01
2.878903448581695557e-01
2.895033173263072968e-02
-2.768900711089372635e-03
2.081680856645107269e-02
1.897572726011276245e-01
1.019771844148635864e-01
-2.527500391006469727e-01
-1.598594188690185547e-01
1.722550392150878906e-02
8.994654566049575806e-02
-1.294630914926528931e-01
-6.724034994840621948e-02
-1.517202556133270264e-01
-3.752348572015762329e-02
-1.140184118412435055e-03
4.876586422324180603e-02
-7.692721486091613770e-02
-6.514547765254974365e-02
2.418594360351562500e-01
-2.739426493644714355e-02
-8.429314196109771729e-02
4.178053140640258789e-02
1.735278218984603882e-01
-2.451227456331253052e-01
-1.602493599057197571e-02
-2.596629597246646881e-02
-1.268837004899978638e-01
-6.589702516794204712e-02
-2.350125834345817566e-02
4.396482929587364197e-02
-2.363592535257339478e-01
-1.846921890974044800e-01
8.544132113456726074e-02
8.629070222377777100e-02
7.951883226633071899e-02
-1.777041554450988770e-01
-1.044191271066665649e-01
-8.226863108575344086e-03
6.605619192123413086e-02
-9.724301099777221680e-02
-3.581782877445220947e-01
-3.212922215461730957e-01
-2.163343578577041626e-01
6.342599540948867798e-02
-1.188644319772720337e-01
-1.303930580615997314e-01
3.116827458143234253e-03
1.326460689306259155e-01
3.585689365863800049e-01
1.777256838977336884e-02
-3.085171058773994446e-02
9.284329414367675781e-02
2.960475385189056396e-01
1.896968483924865723e-01
-2.242171019315719604e-01
-1.192277222871780396e-01
-6.165772303938865662e-02
1.216931343078613281e-01
3.217621445655822754e-01
-5.080214468762278557e-04
-2.524326741695404053e-01
-9.700578451156616211e-02
6.225048005580902100e-02
1.920389682054519653e-01
-1.228116601705551147e-01
-3.412258028984069824e-01
-2.783011496067047119e-01
6.775975227355957031e-02
-6.170866638422012329e-02
-8.139178901910781860e-02
-1.013555675745010376e-01
-9.146699681878089905e-03
3.194368630647659302e-02
-2.175134606659412384e-03
1.225040555000305176e-01
9.707231819629669189e-02
-1.020005717873573303e-01
2.808620594441890717e-02
2.352887541055679321e-01
4.271343350410461426e-02
-8.855032920837402344e-02
-7.396038621664047241e-02
1.783031225204467773e-02
-1.287323236465454102e-01
2.937167882919311523e-02
-4.049742594361305237e-02
-5.699646659195423126e-03
-1.254045516252517700e-01
-1.768001019954681396e-01
-2.868859097361564636e-02
1.452309489250183105e-01
-9.018891304731369019e-02
-1.278764754533767700e-01
4.350442066788673401e-02
-1.342745777219533920e-02
9.088733792304992676e-02
9.627719223499298096e-02
2.884264290332794189e-01
1.542718857526779175e-01
1.687104552984237671e-01
7.389856129884719849e-02
1.287498138844966888e-02
1.016486361622810364e-01
2.288914099335670471e-02
-5.834083259105682373e-02
-7.439003884792327881e-02
4.208964854478836060e-02
-2.762119770050048828e-01
6.265953183174133301e-02
-2.875088155269622803e-01
8.243048191070556641e-02
8.060698956251144409e-02
-1.643172055482864380e-01
1.307327747344970703e-01
2.194928079843521118e-01
3.658902943134307861e-01
2.049578130245208740e-01
-2.726775035262107849e-02
-6.781727075576782227e-02
2.741029858589172363e-02
4.486042633652687073e-02
-5.531205981969833374e-02
-7.746221125125885010e-02
-6.121594831347465515e-02
9.137614071369171143e-02
4.725541546940803528e-02
-3.342226892709732056e-02
1.634470932185649872e-02
2.551955543458461761e-02
1.077315136790275574e-01
3.848202526569366455e-02
-9.915669262409210205e-02
1.112957298755645752e-01
6.477221101522445679e-02
1.700672507286071777e-01
-8.619689941406250000e-02
-1.933301538228988647e-01
-2.606217004358768463e-02
1.222500056028366089e-01
2.434519231319427490e-01
-6.210421677678823471e-03
-1.541951298713684082e-01
-1.751224100589752197e-01
6.531774252653121948e-02
-9.044885635375976562e-02
-1.984454244375228882e-01
-4.569597914814949036e-02
-8.195851743221282959e-02
1.346450001001358032e-01
4.425793513655662537e-02
9.634672105312347412e-02
-6.991095095872879028e-02
-2.346783429384231567e-01
9.682022035121917725e-02
-9.159775823354721069e-02
1.042620837688446045e-01
-1.518699228763580322e-01
-1.625212579965591431e-01
3.308096528053283691e-02
-7.277008891105651855e-02
-3.469204604625701904e-01
-9.489471465349197388e-02
-8.299556374549865723e-02
2.805536426603794098e-02
-1.314181089401245117e-01
-6.243285536766052246e-01
-3.722398877143859863e-01
-2.061333060264587402e-01
6.303029507398605347e-02
2.911055088043212891e-01
-1.096763238310813904e-01
1.483305916190147400e-02
-7.643551379442214966e-02
-3.103554993867874146e-02
-5.149383470416069031e-02
2.866515330970287323e-02
1.929943077266216278e-02
-4.324331879615783691e-01
-1.253249198198318481e-01
-3.041206113994121552e-02
3.115450590848922729e-02
1.852051317691802979e-01
3.869120031595230103e-02
-2.533246949315071106e-02
5.547546222805976868e-02
-5.242856964468955994e-02
1.167213916778564453e-01
6.716624647378921509e-02
-2.033114582300186157e-01
-1.765705496072769165e-01
2.398781776428222656e-01
1.188129335641860962e-01
1.542663425207138062e-01
-1.106963306665420532e-02
-1.141421794891357422e-01
-8.886716514825820923e-02
5.741084367036819458e-02
2.243027836084365845e-01
2.535533010959625244e-01
-1.369013041257858276e-01
-1.499657779932022095e-01
-6.010190397500991821e-02
1.908265352249145508e-01
1.211289763450622559e-01
-1.640424132347106934e-01
-1.845984011888504028e-01
-1.654545366764068604e-01
8.063074201345443726e-02
-4.498914778232574463e-01
-2.958333194255828857e-01
6.320752203464508057e-03
2.630418241024017334e-01
-9.260383993387222290e-02
-3.387387990951538086e-01
-4.158050287514925003e-03
2.979235537350177765e-02
2.657577395439147949e-01
1.784546226263046265e-01
1.195708587765693665e-01
5.083197355270385742e-02
-1.476195305585861206e-01
6.095367670059204102e-02
5.764736980199813843e-02
2.115882374346256256e-02
6.117100361734628677e-03
-3.466266766190528870e-02
1.548367887735366821e-01
4.829953610897064209e-02
4.956908151507377625e-02
1.400211155414581299e-01
-1.711318045854568481e-01
-8.563981950283050537e-02
4.618412349373102188e-03
1.826601922512054443e-01
1.020971909165382385e-01
-9.395942836999893188e-02
-9.739054739475250244e-02
6.709881871938705444e-02
3.022986352443695068e-01
1.545651853084564209e-01
-5.007143318653106689e-02
-1.690918058156967163e-01
-1.212241351604461670e-01
-3.587329983711242676e-01
1.175412014126777649e-01
8.196505159139633179e-02
1.450445801019668579e-01
1.601160168647766113e-01
-3.778083026409149170e-01
-8.585833758115768433e-02
-8.857379108667373657e-02
-1.099316701292991638e-01
1.458667870610952377e-02
-3.647819161415100098e-02
2.075092792510986328e-01
1.567555516958236694e-01
-1.112650483846664429e-01
-9.010405838489532471e-02
2.477103024721145630e-01
2.533227205276489258e-01
6.585130840539932251e-02
-1.019234396517276764e-02
-2.214686572551727295e-02
7.394556403160095215e-01
5.110370516777038574e-01
7.572219520807266235e-02
-5.955585092306137085e-02
-9.995740652084350586e-02
-6.697659939527511597e-02
5.088490620255470276e-02
-4.991931840777397156e-02
2.857768163084983826e-02
-6.564991921186447144e-02
1.018267124891281128e-02
4.828096181154251099e-02
6.851059198379516602e-02
3.206896036863327026e-02
2.032643370330333710e-02
-5.391389131546020508e-02
-5.708132684230804443e-02
-6.548162084072828293e-03
3.007596125826239586e-03
1.913542114198207855e-02
-5.982766300439834595e-02
8.441048860549926758e-02
1.617392897605895996e-02
2.751469053328037262e-02
4.495062679052352905e-02
3.102913498878479004e-02
8.572467416524887085e-02
1.846848754212260246e-04
1.805411726236343384e-01
-5.668985098600387573e-02
4.981031268835067749e-02
3.811037912964820862e-02
-7.503867894411087036e-02
-2.866523265838623047e-01
-6.729555130004882812e-02
-9.483595192432403564e-02
1.239539161324501038e-01
1.262926012277603149e-01
-1.357078645378351212e-02
-6.489643827080726624e-03
-1.753592789173126221e-01
2.101858705282211304e-01
5.590198189020156860e-02
7.358282804489135742e-03
1.297985482960939407e-02
-1.363945305347442627e-01
3.154241442680358887e-01
1.272467076778411865e-01
-5.163168534636497498e-02
1.466735452413558960e-01
-1.407327353954315186e-01
3.455048501491546631e-01
1.210004612803459167e-01
5.128393322229385376e-02
1.704254536889493465e-03
-5.531226471066474915e-02
3.323734924197196960e-02
-1.898923814296722412e-01
7.776003330945968628e-02
-1.728013972751796246e-03
-7.952380925416946411e-02
-6.918839365243911743e-02
-5.239341408014297485e-02
-1.468620728701353073e-03
3.268364816904067993e-02
-5.713209882378578186e-02
-9.768208116292953491e-02
-4.835511371493339539e-02
-8.432924747467041016e-02
-6.352638453245162964e-02
6.585938390344381332e-03
7.871090620756149292e-02
-1.168390363454818726e-01
-7.683118432760238647e-02
-9.930633753538131714e-02
-4.110889136791229248e-02
7.959078252315521240e-02
-1.394070386886596680e-01
3.352316096425056458e-02
-1.414544042199850082e-02
1.597481667995452881e-01
-1.576389968395233154e-01
-8.656822890043258667e-02
-1.588991433382034302e-01
1.172049865126609802e-01
3.329854905605316162e-01
6.706283241510391235e-02
-1.847742795944213867e-01
-3.163101375102996826e-01
-6.342528015375137329e-02
-9.317769110202789307e-02
4.546573013067245483e-02
-9.964092820882797241e-02
-3.574172258377075195e-01
-1.208701580762863159e-01
1.907144188880920410e-01
2.179519385099411011e-01
9.981451928615570068e-02
-6.298377364873886108e-02
-1.791657209396362305e-01
1.794510483741760254e-01
2.325326502323150635e-01
5.066698044538497925e-02
-1.963828504085540771e-02
-6.314136087894439697e-02
9.118450805544853210e-03
2.502459883689880371e-01
6.709242612123489380e-02
-1.324571669101715088e-01
8.549508452415466309e-02
-1.035804003477096558e-01
5.084262415766716003e-02
3.073596768081188202e-02
1.342232376337051392e-01
-3.506845980882644653e-02
-2.247577160596847534e-01
-1.749705225229263306e-01
7.751166820526123047e-02
2.986763790249824524e-02
1.590183563530445099e-02
-2.477550059556961060e-01
-4.582390934228897095e-02
-1.044891960918903351e-02
-5.176141858100891113e-02
-2.011743038892745972e-01
-5.748405680060386658e-02
-6.736908853054046631e-02
-7.007284462451934814e-02
2.333622984588146210e-02
-1.888226531445980072e-02
2.424329519271850586e-01
1.287598162889480591e-01
3.880737721920013428e-01
2.802817523479461670e-01
2.185731381177902222e-01
1.606399938464164734e-02
-1.411392986774444580e-01
1.967863179743289948e-03
3.750985488295555115e-02
1.000805199146270752e-01
-1.759650409221649170e-01
-1.126218512654304504e-01
-5.980565771460533142e-02
1.273791939020156860e-01
-6.232640892267227173e-02
-1.985769867897033691e-01
4.538416862487792969e-02
1.921558827161788940e-01
2.328378856182098389e-01
-4.197556897997856140e-02
-8.630712516605854034e-03
-1.486898511648178101e-01
-3.179859817028045654e-01
7.741499692201614380e-02
1.978613138198852539e-01
-9.174896776676177979e-02
7.064133882522583008e-02
1.618423312902450562e-01
2.210871502757072449e-02
1.215576678514480591e-01
-7.199609279632568359e-02
-1.028723865747451782e-01
8.113505691289901733e-02
5.225207656621932983e-02
-1.625141687691211700e-02
3.688747063279151917e-02
-1.241459697484970093e-02
4.376857727766036987e-02
5.545207858085632324e-02
1.342359483242034912e-01
3.704673051834106445e-02
-2.361899055540561676e-02
-2.674459666013717651e-02
-5.646497756242752075e-02
-1.790360175073146820e-02
8.872579783201217651e-02
-4.607517272233963013e-02
1.174784544855356216e-02
4.646428301930427551e-02
8.365619927644729614e-02
-3.382571637630462646e-01
1.137035340070724487e-01
1.982287317514419556e-01
-1.328377723693847656e-01
-1.152445897459983826e-01
-2.276521325111389160e-01
2.239337563514709473e-01
3.304606974124908447e-01
1.697430312633514404e-01
2.407743968069553375e-02
-2.458449453115463257e-01
5.451663956046104431e-02
1.006692200899124146e-01
-1.411118805408477783e-01
-1.209810301661491394e-01
-1.191909834742546082e-01
-3.371092304587364197e-02
-5.581634864211082458e-02
7.367316167801618576e-03
1.301350295543670654e-01
-2.914009094238281250e-01
-1.428717225790023804e-01
1.927843317389488220e-02
7.929719239473342896e-02
-9.004764258861541748e-02
1.049813115969300270e-03
-1.611523032188415527e-01
-1.854375451803207397e-01
-3.757734000682830811e-01
-2.096741199493408203e-01
-1.133783385157585144e-01
-8.748008310794830322e-02
7.708303630352020264e-02
-6.978435069322586060e-02
-5.793768912553787231e-02
-1.106247454881668091e-01
-5.162257235497236252e-03
8.196084201335906982e-02
4.558895528316497803e-02
-7.084234058856964111e-02
-9.380401670932769775e-02
2.121751196682453156e-02
-1.834257543087005615e-01
1.236969046294689178e-02
-1.143172532320022583e-01
1.784603856503963470e-02
2.173041999340057373e-01
-6.694441288709640503e-02
-6.272576004266738892e-02
-8.001486957073211670e-02
7.960255444049835205e-02
-1.549281179904937744e-02
1.041603758931159973e-01
1.512725353240966797e-01
5.851000919938087463e-02
2.234105616807937622e-01
2.454828172922134399e-01
-8.575810492038726807e-02
-1.441718172281980515e-02
9.581379592418670654e-02
2.268576920032501221e-01
1.235546991229057312e-01
1.007151044905185699e-02
-1.355691533535718918e-02
-3.514450415968894958e-02
1.523561477661132812e-01
1.769445091485977173e-01
7.768041640520095825e-02
-2.808544039726257324e-02
-1.154818087816238403e-01
-6.775947287678718567e-03
1.040560454130172729e-01
7.127230521291494370e-03
6.908321380615234375e-02
-3.168983617797493935e-03
2.111460119485855103e-01
-5.681408569216728210e-02
-1.164179071784019470e-01
-2.339990586042404175e-01
-3.545393049716949463e-01
-1.398491114377975464e-01
2.179441004991531372e-01
5.213160067796707153e-03
-1.529601681977510452e-02
4.488141089677810669e-02
7.237027585506439209e-02
2.115165442228317261e-01
6.016322970390319824e-02
-1.537180244922637939e-01
1.252888590097427368e-01
5.636151507496833801e-02
-9.596049785614013672e-02
8.895134180784225464e-02
4.774526879191398621e-02
6.101540476083755493e-02
5.504296859726309776e-04
-1.325066983699798584e-01
-7.432548701763153076e-02
-9.506270289421081543e-02
3.467687591910362244e-02
-3.020069897174835205e-01
2.096636444330215454e-01
6.434403359889984131e-02
-2.770249545574188232e-01
-3.953066766262054443e-01
-4.620448127388954163e-02
2.650169134140014648e-01
1.526539772748947144e-01
2.433818392455577850e-02
-1.968201845884323120e-01
-9.356225281953811646e-02
1.770457774400711060e-01
6.792839616537094116e-02
-2.853029780089855194e-02
-5.868563428521156311e-02
6.439861655235290527e-02
6.489650160074234009e-02
-1.299937516450881958e-01
-1.064401194453239441e-01
1.237762942910194397e-01
-1.273068040609359741e-01
6.103141233325004578e-02
-5.043393746018409729e-02
1.649648249149322510e-01
4.945180937647819519e-02
-2.436122298240661621e-01
7.131943129934370518e-04
1.341503113508224487e-01
5.502512305974960327e-02
-2.334148436784744263e-01
-1.449429690837860107e-01
5.616956204175949097e-02
5.628364533185958862e-02
-4.590268805623054504e-02
1.346045583486557007e-01
-1.014834791421890259e-01
8.939644694328308105e-02
1.398787647485733032e-02
-4.642011225223541260e-02
-7.055046036839485168e-03
-7.315635681152343750e-02
2.080020960420370102e-03
8.470515906810760498e-02
6.961722671985626221e-02
1.728542298078536987e-01
-6.569515913724899292e-02
3.133879229426383972e-02
1.316787451505661011e-01
-1.218699291348457336e-01
-8.579201996326446533e-02
4.229024052619934082e-01
3.190910518169403076e-01
2.078031003475189209e-02
-1.002586036920547485e-01
4.139319360256195068e-01
-3.968089446425437927e-02
8.306796848773956299e-02
-8.155832439661026001e-02
-3.834549486637115479e-01
-1.716067828238010406e-02
1.875066757202148438e-01
2.794512808322906494e-01
-1.711410433053970337e-01
-2.460638135671615601e-01
1.744029819965362549e-01
-1.695858091115951538e-01
3.471589833498001099e-02
-1.553726047277450562e-01
-5.660030990839004517e-02
1.358059197664260864e-01
-3.191240504384040833e-02
-4.254874959588050842e-02
-1.266223564743995667e-02
3.252800088375806808e-03
1.896887719631195068e-01
-1.132610999047756195e-02
-1.073078718036413193e-02
6.693497300148010254e-02
1.241257763467729092e-03
-4.461352713406085968e-03
-2.949195727705955505e-02
-5.103237554430961609e-02
-1.539234668016433716e-01
-2.775787711143493652e-01
-1.168697029352188110e-01
-5.944078415632247925e-02
-1.547902971506118774e-01
-3.706455603241920471e-02
6.464909296482801437e-03
-2.206857055425643921e-01
-1.825065165758132935e-01
1.660550534725189209e-01
-2.792818471789360046e-02
-5.271790921688079834e-02
9.577690809965133667e-02
4.574941471219062805e-02
6.595081090927124023e-02
-2.367235161364078522e-02
-8.096828311681747437e-02
-5.003259703516960144e-02
3.438231050968170166e-01
-3.040641173720359802e-02
3.133455663919448853e-02
2.005839794874191284e-01
1.327410340309143066e-01
2.812424600124359131e-01
4.274582117795944214e-02
3.960522823035717010e-03
5.430549010634422302e-02
-1.848701089620590210e-01
1.835294514894485474e-01
-1.683447510004043579e-02
-2.744394913315773010e-02
2.321440167725086212e-02
2.238287776708602905e-02
7.522618770599365234e-02
-2.072710543870925903e-01
-2.316985577344894409e-01
-6.709401309490203857e-02
-2.606666088104248047e-01
2.341182976961135864e-01
2.334626019001007080e-02
-1.176034063100814819e-01
3.440516069531440735e-02
-3.831781446933746338e-01
-1.098771020770072937e-01
6.858690083026885986e-02
3.758588433265686035e-02
1.313264667987823486e-02
2.834634482860565186e-01
1.099860668182373047e-01
-1.554505378007888794e-01
-1.995325386524200439e-01
-1.802622973918914795e-01
1.156391724944114685e-01
5.013108626008033752e-02
-1.148454099893569946e-01
-9.155645221471786499e-02
-2.987180054187774658e-01
-2.249329686164855957e-01
-1.476270854473114014e-01
-4.227960482239723206e-02
-1.650376617908477783e-01
-2.246770858764648438e-01
-6.989941745996475220e-02
-7.059141993522644043e-02
-1.087964251637458801e-01
-1.830112040042877197e-01
1.020772457122802734e-01
-5.884322151541709900e-02
2.653222978115081787e-01
9.045731276273727417e-02
-1.776890158653259277e-01
-1.129266694188117981e-01
1.129048243165016174e-01
3.831114247441291809e-02
-2.817325294017791748e-01
1.334462687373161316e-02
-6.805707514286041260e-02
4.162944108247756958e-02
-4.203362017869949341e-02
-4.023468866944313049e-02
4.187293723225593567e-02
6.089038288337178528e-05
-7.590270042419433594e-02
4.970587044954299927e-02
5.586580932140350342e-02
-2.008064687252044678e-01
-1.438030228018760681e-02
-9.889149665832519531e-02
-1.111474484205245972e-01
1.926113665103912354e-01
-1.192213445901870728e-01
-2.033170312643051147e-02
-1.113804653286933899e-01
2.031361907720565796e-01
1.729413121938705444e-01
8.672311156988143921e-02
-3.094595111906528473e-02
-1.080107688903808594e-01
1.230287179350852966e-01
7.059229910373687744e-02
7.388351112604141235e-02
2.080934196710586548e-01
1.444793045520782471e-01
1.005573719739913940e-01
7.350254058837890625e-02
-1.791889518499374390e-01
-2.350399829447269440e-02
-1.054625213146209717e-01
1.128843724727630615e-01
2.734682150185108185e-02
-5.898881703615188599e-02
-4.345268383622169495e-02
-2.311931736767292023e-02
6.755699869245290756e-03
5.342777445912361145e-02
-2.141936421394348145e-01
-9.022948332130908966e-03
-2.518141455948352814e-02
5.621441602706909180e-01
4.105069637298583984e-01
-1.296032406389713287e-02
1.064067780971527100e-01
2.813363075256347656e-01
7.372332364320755005e-02
3.545270860195159912e-02
-1.104696914553642273e-01
-1.905758976936340332e-01
-1.971419155597686768e-01
1.459194123744964600e-01
1.965115815401077271e-01
-6.145134940743446350e-02
-3.249229192733764648e-01
1.201975159347057343e-02
1.620998233556747437e-01
8.502296358346939087e-02
1.406372040510177612e-01
9.160861372947692871e-03
1.594027429819107056e-01
3.820576369762420654e-01
2.400547862052917480e-01
1.783837378025054932e-01
-4.908451065421104431e-02
8.627977967262268066e-02
6.613490637391805649e-03
1.625622250139713287e-02
5.769601091742515564e-02
5.648390948772430420e-02
-8.812186121940612793e-02
1.604337394237518311e-01
3.055467456579208374e-02
-6.843529641628265381e-02
1.056337431073188782e-01
-1.801116764545440674e-02
3.601974621415138245e-02
-2.407035976648330688e-02
-1.564462482929229736e-01
3.261912986636161804e-02
-1.177651286125183105e-01
-2.444663345813751221e-01
2.966395765542984009e-02
-2.090567955747246742e-03
1.574934870004653931e-01
-7.797326147556304932e-02
-2.300955057144165039e-01
-7.661056518554687500e-02
1.732855290174484253e-01
1.153280809521675110e-01
-2.204169519245624542e-02
1.234824657440185547e-01
-2.261512726545333862e-01
4.939662665128707886e-02
7.765417546033859253e-02
-3.330590203404426575e-02
5.685595422983169556e-02
-2.016472816467285156e-01
-1.778167784214019775e-01
-1.702415347099304199e-01
-1.866493523120880127e-01
7.196898758411407471e-02
-9.633198380470275879e-02
-6.772340834140777588e-02
-7.250952068716287613e-03
3.593020141124725342e-02
2.868865616619586945e-02
-9.657526761293411255e-02
8.179012686014175415e-02
4.722500964999198914e-02
4.356360435485839844e-02
-4.847209900617599487e-02
-1.154177039861679077e-01
1.725567877292633057e-02
2.534134685993194580e-02
-8.244353532791137695e-02
-6.585545092821121216e-02
-2.176733165979385376e-01
-8.583030104637145996e-02
1.388556212186813354e-01
8.499596267938613892e-02
-1.648424565792083740e-01
-6.351676303893327713e-03
1.585115939378738403e-01
-5.284418538212776184e-02
5.899102985858917236e-02
-5.228452682495117188e-01
-9.472323209047317505e-02
-1.019761785864830017e-01
5.804531276226043701e-02
3.774277493357658386e-02
-5.979183912277221680e-01
-3.691687285900115967e-01
-2.580443620681762695e-01
6.144180893898010254e-02
5.294367671012878418e-02
-5.129286646842956543e-01
-2.260859757661819458e-01
4.916679486632347107e-02
-5.615558847784996033e-02
4.427704215049743652e-02
3.179790973663330078e-01
4.863894078880548477e-03
2.882482707500457764e-01
-5.837228149175643921e-02
-2.016386017203330994e-02
9.921673685312271118e-02
5.959387123584747314e-02
7.082722336053848267e-02
2.447321452200412750e-02
1.291619334369897842e-02
1.153300888836383820e-02
-3.517311215400695801e-01
-1.965454071760177612e-01
3.193694725632667542e-02
-5.018495954573154449e-03
-7.277872413396835327e-02
-1.752791553735733032e-01
9.078198345378041267e-04
1.463018953800201416e-01
1.289641559123992920e-01
2.042141854763031006e-01
-5.465241149067878723e-03
2.222035974264144897e-01
-2.740263938903808594e-01
-4.075136408209800720e-02
4.786989837884902954e-02
3.894823417067527771e-02
1.007690206170082092e-01
-3.983186092227697372e-03
-2.185558080673217773e-01
-5.763636156916618347e-02
7.079611718654632568e-02
7.897246628999710083e-02
-5.831700935959815979e-02
-1.239319592714309692e-01
-2.915996871888637543e-02
5.541670322418212891e-02
1.791806221008300781e-01
3.925161063671112061e-02
2.681872062385082245e-02
-3.610813617706298828e-02
5.388110876083374023e-02
1.588517874479293823e-01
7.046271115541458130e-02
-1.024535223841667175e-01
-9.212479740381240845e-02
-1.419638544321060181e-01
4.128928110003471375e-02
5.651539564132690430e-02
1.295177042484283447e-01
2.274782508611679077e-01
-9.906920790672302246e-02
-4.712827876210212708e-02
-1.131005957722663879e-01
1.858767308294773102e-02
9.791359305381774902e-02
-7.046651095151901245e-02
-6.316030770540237427e-02
7.918512821197509766e-02
9.491644799709320068e-02
1.505648940801620483e-01
-2.524544000625610352e-01
1.882731541991233826e-02
5.806473549455404282e-03
-1.226337403059005737e-01
-2.959666401147842407e-02
-1.528316270560026169e-02
5.106146633625030518e-02
-1.238939911127090454e-01
-9.514035284519195557e-02
1.528501361608505249e-01
1.397108584642410278e-01
5.753545835614204407e-02
1.616093516349792480e-01
1.492728888988494873e-01
-3.943404257297515869e-01
1.078219190239906311e-01
2.209932655096054077e-01
-4.594784229993820190e-02
1.209232881665229797e-01
-4.336827695369720459e-01
3.984617590904235840e-01
2.954699993133544922e-01
5.577075295150279999e-03
-9.290406852960586548e-02
-2.748457193374633789e-01
-2.217365354299545288e-01
-8.472760021686553955e-02
-3.860967755317687988e-01
-1.072515398263931274e-01
-3.270263671875000000e-01
-1.286587417125701904e-01
-1.045027598738670349e-01
9.365023113787174225e-03
6.549835950136184692e-02
-1.150912567973136902e-01
2.639868855476379395e-01
3.177448809146881104e-01
2.372555583715438843e-01
-3.665461540222167969e-01
-6.073274835944175720e-02
1.287887990474700928e-01
6.019441783428192139e-02
-2.713596522808074951e-01
-4.336449503898620605e-02
1.035082712769508362e-01
1.429599225521087646e-01
-2.663209438323974609e-01
-1.259697526693344116e-01
-9.619018435478210449e-02
-3.281598687171936035e-01
-8.711643517017364502e-02
7.940450310707092285e-02
-3.776404559612274170e-01
-1.004606485366821289e-01
-5.651348829269409180e-02
1.301121115684509277e-01
-1.807852089405059814e-01
-5.472416281700134277e-01
-7.702589780092239380e-02
-1.147244647145271301e-01
-1.417814008891582489e-02
1.223495528101921082e-01
-9.957692772150039673e-02
-2.912072837352752686e-01
3.646724224090576172e-01
2.112227231264114380e-01
-9.389861486852169037e-03
-3.761837258934974670e-02
-1.470184624195098877e-01
2.839163243770599365e-01
-6.056711822748184204e-02
-6.581293046474456787e-02
6.912499666213989258e-02
1.441443860530853271e-01
2.102712541818618774e-01
-1.249758526682853699e-01
-1.376339327543973923e-02
2.957170270383358002e-02
4.482540115714073181e-02
-2.690923167392611504e-03
-1.169625762850046158e-02
-1.208381876349449158e-01
-2.686338685452938080e-02
8.332382142543792725e-02
3.199592605233192444e-02
-1.931403726339340210e-01
-3.889989852905273438e-02
1.545729488134384155e-02
-1.783464998006820679e-01
4.067484140396118164e-01
3.510476350784301758e-01
9.899070486426353455e-03
9.865436702966690063e-02
1.495741158723831177e-01
1.440049260854721069e-01
5.308351665735244751e-02
-1.107574161142110825e-02
-4.719552583992481232e-03
1.342398077249526978e-01
-1.010269448161125183e-01
-5.542365834116935730e-02
-1.705008558928966522e-02
-4.666545242071151733e-02
2.446921728551387787e-02
-7.733449339866638184e-02
-1.909099072217941284e-01
6.755012273788452148e-02
1.022710353136062622e-01
-3.213820978999137878e-02
-1.441928148269653320e-01
-3.241273462772369385e-01
-1.504033952951431274e-01
-1.501484662294387817e-01
-8.018898963928222656e-02
5.981445685029029846e-02
3.017446957528591156e-02
8.274734951555728912e-03
-3.858778625726699829e-02
-5.152639746665954590e-02
9.740709327161312103e-03
6.817518174648284912e-02
-1.701509347185492516e-03
-1.288707405328750610e-01
-4.866661131381988525e-02
-5.830471217632293701e-02
-1.933131739497184753e-02
-8.402512222528457642e-02
3.281924501061439514e-02
-1.347306929528713226e-02
4.911197721958160400e-02
9.938596934080123901e-02
-4.744399711489677429e-02
-6.255318224430084229e-02
-3.471435606479644775e-02
4.420602321624755859e-02
8.032940328121185303e-02
3.281862288713455200e-02
1.282879561185836792e-01
9.676264226436614990e-02
-1.311165988445281982e-01
2.662124671041965485e-02
-2.416987121105194092e-01
-6.423557549715042114e-02
2.208339422941207886e-01
6.721002608537673950e-02
1.228645816445350647e-01
3.854340314865112305e-02
6.716897338628768921e-02
1.766309142112731934e-01
1.547462074086070061e-03
-7.986767217516899109e-03
8.407174050807952881e-02
6.903558969497680664e-02
-4.120584949851036072e-02
2.157928422093391418e-02
1.399916857481002808e-01
-7.210551295429468155e-03
3.724585473537445068e-02
-7.880845665931701660e-02
5.707119405269622803e-02
1.856511384248733521e-01
8.430756628513336182e-03
1.027813479304313660e-01
-1.209600176662206650e-02
6.492863595485687256e-02
-3.526708856225013733e-02
-2.643138915300369263e-02
-2.116006761789321899e-01
-7.298381626605987549e-02
-9.235071390867233276e-02
2.436922043561935425e-01
-3.746506944298744202e-02
1.201176494359970093e-01
-1.878755539655685425e-02
-1.337389498949050903e-01
-1.170374304056167603e-01
1.449012756347656250e-01
1.171054169535636902e-01
1.471963375806808472e-01
-8.277254551649093628e-02
-2.268688082695007324e-01
7.392203062772750854e-02
1.250689923763275146e-01
1.809824109077453613e-01
9.813783317804336548e-02
-1.754339337348937988e-01
-1.399937719106674194e-01
-2.624246180057525635e-01
-1.664841622114181519e-01
-9.207526221871376038e-03
-1.614516600966453552e-02
2.223594039678573608e-01
3.161178827285766602e-01
7.860402017831802368e-02
9.169070422649383545e-02
2.378970533609390259e-01
3.124880194664001465e-01
3.938183188438415527e-02
-4.091568291187286377e-02
-9.239465743303298950e-02
1.433568447828292847e-01
1.761290617287158966e-02
-7.461685687303543091e-02
-1.275807712227106094e-02
-1.600010842084884644e-01
2.031067945063114166e-02
-1.475623100996017456e-01
-2.144697159528732300e-01
-4.739397764205932617e-02
-3.430429399013519287e-01
-1.890834569931030273e-01
-2.236816734075546265e-01
-2.751421332359313965e-01
-2.819563448429107666e-01
-6.600628793239593506e-02
-4.050719738006591797e-01
-6.659575104713439941e-01
-2.697761952877044678e-01
-6.582625210285186768e-02
3.814551979303359985e-03
1.118118837475776672e-01
-4.744579643011093140e-02
2.114755660295486450e-02
6.650754064321517944e-02
-2.418461889028549194e-01
-1.347778439521789551e-01
-3.437171876430511475e-01
-8.976697176694869995e-02
1.134796217083930969e-01
1.071108207106590271e-01
-1.159523054957389832e-01
1.423441525548696518e-02
-7.510622590780258179e-02
5.375191196799278259e-02
4.642057791352272034e-02
-4.688782244920730591e-02
-8.217234909534454346e-02
-1.740186102688312531e-02
3.403948992490768433e-02
-4.446978867053985596e-02
-1.241744607686996460e-01
-1.342970728874206543e-01
6.031822040677070618e-02
7.237432152032852173e-02
-3.282117471098899841e-02
-2.811302244663238525e-02
-2.802546918392181396e-01
-1.640866547822952271e-01
-3.794442489743232727e-02
-4.097905755043029785e-02
3.505517030134797096e-03
-1.051019281148910522e-01
-1.451613754034042358e-01
-6.357070058584213257e-02
1.810543984174728394e-02
8.779272437095642090e-02
5.434596538543701172e-02
-6.793664395809173584e-02
-3.315092995762825012e-02
1.590047478675842285e-01
-1.063431426882743835e-01
1.196308434009552002e-02
1.537868473678827286e-02
4.153629392385482788e-02
2.940953522920608521e-02
-2.547595202922821045e-01
-1.592660546302795410e-01
-4.385104030370712280e-02
9.755422174930572510e-02
1.836410015821456909e-01
4.582252725958824158e-02
8.863890543580055237e-03
1.650982536375522614e-02
2.347388863563537598e-02
2.088557779788970947e-01
5.553493648767471313e-02
9.282156080007553101e-02
1.003621444106101990e-01
-7.052501663565635681e-03
7.252714037895202637e-02
-8.582805842161178589e-02
-5.928348004817962646e-02
-3.889686241745948792e-02
-1.084013283252716064e-01
6.988354772329330444e-02
3.093191981315612793e-02
1.275427788496017456e-01
-2.922001481056213379e-02
-7.651938498020172119e-02
-2.537901699542999268e-01
-3.047582507133483887e-01
2.032512724399566650e-01
2.025030553340911865e-01
5.580182075500488281e-01
-2.778922789730131626e-04
-2.023780196905136108e-01
-2.874087542295455933e-02
-3.666182234883308411e-02
-9.793911129236221313e-03
6.583645194768905640e-02
-7.457961887121200562e-02
-1.967445462942123413e-01
-2.060140371322631836e-01
-2.372321337461471558e-01
-1.672932505607604980e-01
1.323020756244659424e-01
4.352195654064416885e-03
-2.425882220268249512e-01
-1.006402522325515747e-01
-1.177602931857109070e-01
2.028487473726272583e-01
-6.463006883859634399e-02
-2.452149838209152222e-01
-3.247748911380767822e-01
1.679422110319137573e-01
-1.648385077714920044e-01
-3.844819962978363037e-01
-3.935823142528533936e-01
-6.341403722763061523e-02
1.298694610595703125e-01
2.976261377334594727e-01
2.768888473510742188e-01
2.332978397607803345e-01
2.308713942766189575e-01
-7.522025704383850098e-02
1.475012600421905518e-01
-1.965327560901641846e-02
-5.998048558831214905e-02
-2.552833640947937965e-03
-5.624577403068542480e-02
1.539735049009323120e-01
-1.431975066661834717e-01
1.262099891901016235e-01
1.980895400047302246e-01
-1.545815318822860718e-01
-2.405358850955963135e-01
-6.109475344419479370e-02
-4.713219404220581055e-02
9.959781169891357422e-02
1.507842391729354858e-01
3.361391723155975342e-01
5.498056411743164062e-01
2.750216126441955566e-01
1.600997708737850189e-02
1.574333757162094116e-01
1.609884649515151978e-01
-1.851592361927032471e-01
-1.364095415920019150e-02
-1.159374322742223740e-02
8.275698125362396240e-02
3.840212151408195496e-02
-5.234763398766517639e-02
-1.353113502264022827e-01
-1.679909601807594299e-02
-2.619227021932601929e-02
-4.867644049227237701e-03
-1.159645337611436844e-02
-9.581343084573745728e-02
9.178597480058670044e-02
-6.002697721123695374e-02
-1.091214083135128021e-02
-2.976012229919433594e-01
-1.565587371587753296e-01
5.693878978490829468e-02
-5.659015104174613953e-02
-2.561381459236145020e-01
-3.276012539863586426e-01
5.034236237406730652e-03
2.224516570568084717e-01
6.306964904069900513e-03
-1.163479983806610107e-01
-2.896934561431407928e-02
2.480415105819702148e-01
-1.436247378587722778e-01
1.656647473573684692e-01
1.170967668294906616e-01
-2.784276008605957031e-01
6.479936093091964722e-02
-8.780670166015625000e-02
-6.626714766025543213e-02
1.214854326099157333e-02
-5.511504784226417542e-02
1.018142029643058777e-01
-1.077907234430313110e-01
-1.473869383335113525e-01
8.141960203647613525e-02
-6.148289144039154053e-02
2.007905989885330200e-01
-2.664176002144813538e-02
-2.594561278820037842e-01
-1.354309767484664917e-01
-3.625947237014770508e-01
6.168235093355178833e-02
2.140200883150100708e-01
8.332113921642303467e-02
-1.830625981092453003e-01
3.145158588886260986e-01
6.522254552692174911e-03
1.191127225756645203e-01
1.529794037342071533e-01
8.185118436813354492e-02
-7.977943122386932373e-02
-9.137604385614395142e-02
5.223252624273300171e-02
3.526873115333728492e-05
1.205601766705513000e-01
-8.294521272182464600e-02
-1.091289296746253967e-01
4.403626546263694763e-02
-1.617331802845001221e-01
1.040475592017173767e-01
4.687776789069175720e-02
8.677050471305847168e-02
2.632877528667449951e-01
2.004202604293823242e-01
-1.279752403497695923e-01
-4.781999811530113220e-02
1.332707405090332031e-01
7.769574224948883057e-02
1.517056138254702091e-03
1.534148156642913818e-01
1.881851106882095337e-01
2.276501245796680450e-02
-1.665036976337432861e-01
-6.788065284490585327e-02
7.030514627695083618e-02
-4.741087555885314941e-02
-5.247482284903526306e-02
-1.092086136341094971e-01
-4.884628579020500183e-02
1.679818890988826752e-02
-2.516835741698741913e-02
-1.886037141084671021e-01
-5.300331488251686096e-02
-2.562005259096622467e-02
-7.732488214969635010e-02
7.116927951574325562e-02
-1.135616302490234375e-01
-5.002035200595855713e-02
-1.029908508062362671e-01
-4.741653800010681152e-02
3.731835782527923584e-01
2.045652717351913452e-01
-5.259222984313964844e-01
-5.066454038023948669e-02
2.740590274333953857e-02
3.750090301036834717e-02
-7.340506417676806450e-04
1.216514930129051208e-01
3.829308552667498589e-03
-6.776288896799087524e-02
8.645459264516830444e-02
4.153642430901527405e-02
-5.330003332346677780e-03
1.050463244318962097e-01
3.567206487059593201e-02
-1.547258943319320679e-01
1.103632077574729919e-01
4.495073482394218445e-02
6.608881801366806030e-02
6.441350281238555908e-02
8.136834204196929932e-02
7.469042390584945679e-02
-5.399609729647636414e-02
-2.937513776123523712e-02
-2.608971595764160156e-01
-3.542063832283020020e-01
-4.659819900989532471e-01
5.166517943143844604e-02
1.019694749265909195e-02
-8.879781514406204224e-02
-1.546329110860824585e-01
-2.629605531692504883e-01
2.354502826929092407e-01
-1.351286657154560089e-02
-3.900552392005920410e-01
-1.966103017330169678e-01
-2.776651084423065186e-01
2.829978168010711670e-01
-1.335830986499786377e-01
2.769384160637855530e-02
-1.253556758165359497e-01
-1.687021106481552124e-01
2.139143198728561401e-01
9.973962604999542236e-02
-1.187350451946258545e-01
-4.262758791446685791e-01
-1.874879151582717896e-01
-1.818684041500091553e-01
3.130362033843994141e-01
6.495499610900878906e-01
1.298841671086847782e-03
-1.613780260086059570e-01
-2.655994296073913574e-01
-6.443718075752258301e-02
7.679608464241027832e-02
-5.854692775756120682e-03
-1.001119986176490784e-01
-4.283457994461059570e-02
-3.579884022474288940e-02
4.719829559326171875e-02
5.449671298265457153e-02
-2.427995800971984863e-01
5.328430328518152237e-03
-1.152411475777626038e-02
1.049450226128101349e-02
-9.007940441370010376e-02
-9.542527794837951660e-02
1.739096939563751221e-01
-2.200354784727096558e-01
-5.182434991002082825e-02
-6.064926832914352417e-02
-3.451616466045379639e-01
2.068466842174530029e-01
-2.260955870151519775e-01
-1.783002614974975586e-01
-9.776505827903747559e-02
2.517881095409393311e-01
3.448712453246116638e-02
-7.149111479520797729e-02
1.944416575133800507e-02
-1.268095076084136963e-01
-7.518438994884490967e-02
-1.484190374612808228e-01
3.815033286809921265e-02
1.009149625897407532e-01
-5.621410533785820007e-02
-9.992239996790885925e-03
2.409550733864307404e-02
-8.620178699493408203e-02
-1.277454644441604614e-01
1.077883760444819927e-03
-1.422415375709533691e-01
-1.416122615337371826e-01
6.344081368297338486e-03
-2.538079861551523209e-03
-9.243305772542953491e-03
-3.657213598489761353e-02
-2.115709632635116577e-01
-2.493833005428314209e-01
-2.033011615276336670e-02
-1.647831201553344727e-01
8.704683929681777954e-02
2.149049639701843262e-01
-2.612514197826385498e-01
1.940712630748748779e-01
-3.057196736335754395e-01
-1.540373116731643677e-01
8.383140712976455688e-02
-1.147354245185852051e-01
4.640327021479606628e-02
-1.106405258178710938e-01
-9.922735393047332764e-02
8.756247162818908691e-02
2.104986645281314850e-02
-1.457142531871795654e-01
-1.985976397991180420e-01
2.608120255172252655e-02
1.044372767210006714e-01
2.598382532596588135e-01
1.822988986968994141e-01
-4.422796890139579773e-03
-8.373724669218063354e-02
-4.858441650867462158e-01
7.884783297777175903e-02
1.100902184844017029e-01
5.733035504817962646e-02
9.429172426462173462e-02
-5.922773480415344238e-02
-7.511933147907257080e-02
1.326720789074897766e-02
3.270003572106361389e-02
4.597225040197372437e-02
-3.795114532113075256e-02
7.045101374387741089e-02
7.157085090875625610e-02
-4.024265706539154053e-02
2.805052092298865318e-03
-3.916748613119125366e-02
8.074785768985748291e-02
9.448641911149024963e-03
1.162719260901212692e-02
7.887329906225204468e-02
8.554746955633163452e-02
-2.306395955383777618e-02
-1.412548720836639404e-01
-1.852902621030807495e-01
-2.113485336303710938e-01
-4.277424514293670654e-02
9.372468292713165283e-02
-5.523850023746490479e-02
-2.324297726154327393e-01
-1.130678132176399231e-01
-4.131739139556884766e-01
1.999938674271106720e-02
8.191078901290893555e-02
1.359839458018541336e-02
3.396369889378547668e-02
-1.538046598434448242e-01
3.402434661984443665e-02
1.064712852239608765e-01
1.725344918668270111e-02
2.784039452672004700e-02
-8.952146023511886597e-02
6.685806065797805786e-02
1.878834664821624756e-01
1.522275507450103760e-01
5.859486386179924011e-02
2.567184269428253174e-01
-2.694455906748771667e-02
1.084419861435890198e-01
-6.729053705930709839e-02
-1.818133145570755005e-01
9.461673349142074585e-02
1.487126573920249939e-02
4.030038788914680481e-02
1.770168542861938477e-01
2.206377834081649780e-01
2.657907605171203613e-01
8.587535470724105835e-02
-7.761872559785842896e-02
-2.303274571895599365e-01
2.181373909115791321e-02
3.621162846684455872e-02
2.169506847858428955e-01
1.553747206926345825e-01
-3.590871021151542664e-02
3.474327325820922852e-01
4.920722246170043945e-01
1.327357371337711811e-03
-6.690919399261474609e-02
-2.429647445678710938e-01
2.452958226203918457e-01
2.699768841266632080e-01
-1.078072190284729004e-02
-5.821981001645326614e-03
1.135331485420465469e-02
3.417342007160186768e-01
1.127806827425956726e-01
5.051058903336524963e-02
8.225207775831222534e-02
1.674342900514602661e-01
-1.251227222383022308e-02
1.475553363561630249e-01
1.800020635128021240e-01
5.957623198628425598e-02
5.296043306589126587e-02
-3.170427167788147926e-03
2.617217600345611572e-01
-5.150125920772552490e-02
-2.858695341274142265e-03
8.224087953567504883e-02
-1.106247585266828537e-02
-1.728000193834304810e-01
6.409923732280731201e-02
3.729378432035446167e-02
1.792867779731750488e-01
1.101637184619903564e-01
-1.320033892989158630e-02
2.128724381327629089e-02
4.274226375855505466e-05
-6.141901388764381409e-02
1.166086122393608093e-01
2.679981589317321777e-01
