1.318226307630538940e-01
1.763626486063003540e-01
2.283942550420761108e-01
4.099340140819549561e-01
-4.345663189888000488e-01
2.313816845417022705e-01
1.956959813833236694e-01
1.413986086845397949e-01
2.996692061424255371e-01
-4.734611809253692627e-01
-2.199529856443405151e-01
-1.492525488138198853e-01
1.809409409761428833e-01
9.757768362760543823e-02
-5.568516850471496582e-01
-5.880755558609962463e-02
-1.362291127443313599e-01
1.578998565673828125e-01
2.316829711198806763e-01
-3.988456130027770996e-01
4.075587727129459381e-03
4.135246947407722473e-02
1.068835929036140442e-01
2.775512337684631348e-01
-4.319664835929870605e-01
-2.295461669564247131e-02
1.153918057680130005e-01
-5.042124073952436447e-03
-3.988099843263626099e-02
1.214439515024423599e-02
-9.259307384490966797e-02
-5.677540972828865051e-02
2.059298306703567505e-01
1.481086295098066330e-02
-1.158293932676315308e-01
-6.455191224813461304e-02
1.728445589542388916e-01
4.207298457622528076e-01
-2.403518706560134888e-01
-3.035957217216491699e-01
6.629845499992370605e-02
3.818680346012115479e-01
3.520303368568420410e-01
-4.792107939720153809e-01
-3.039723038673400879e-01
3.748628869652748108e-02
3.689120709896087646e-01
1.730212420225143433e-01
-3.807889819145202637e-01
-3.514281809329986572e-01
3.325409889221191406e-01
1.235334128141403198e-01
1.690378189086914062e-01
2.156649976968765259e-01
1.484775990247726440e-01
-4.439631011337041855e-03
1.267828345298767090e-01
-1.598614007234573364e-01
1.930153518915176392e-01
8.202607184648513794e-02
-2.933671176433563232e-01
2.947992272675037384e-02
-2.829031944274902344e-01
3.304141759872436523e-01
1.456288099288940430e-01
-1.926667690277099609e-01
6.259632762521505356e-03
1.383575797080993652e-01
2.005909830331802368e-01
-1.589022949337959290e-02
1.514852046966552734e-01
5.598073601722717285e-01
1.411669403314590454e-01
1.523376256227493286e-01
4.975560009479522705e-01
-4.282337129116058350e-01
-3.679028451442718506e-01
-2.925331890583038330e-01
2.089778482913970947e-01
2.182469069957733154e-01
3.344258293509483337e-02
-4.114416539669036865e-01
-7.116240262985229492e-02
1.391443908214569092e-01
2.756417989730834961e-01
-3.282120078802108765e-02
-4.778992757201194763e-02
1.269797384738922119e-01
6.528566032648086548e-02
2.329206317663192749e-01
-1.225717291235923767e-01
-3.510058224201202393e-01
1.215911284089088440e-01
2.345533072948455811e-01
8.650840073823928833e-02
-6.003470346331596375e-02
-3.481345772743225098e-01
2.631056606769561768e-01
2.403691262006759644e-01
2.292520701885223389e-01
2.525921761989593506e-01
2.114523202180862427e-01
2.458020746707916260e-01
3.582364022731781006e-01
3.346664309501647949e-01
6.763807684183120728e-02
2.046251147985458374e-01
5.382635593414306641e-01
2.190133929252624512e-01
2.083941847085952759e-01
-4.154374450445175171e-02
7.215695828199386597e-02
-6.561805307865142822e-02
-9.772162884473800659e-02
-1.642504185438156128e-01
1.121467910706996918e-02
-3.151513636112213135e-02
-2.498896569013595581e-01
-2.459778636693954468e-01
-1.962300240993499756e-01
-1.411631107330322266e-01
-3.998005092144012451e-01
-3.800666630268096924e-01
-5.950513482093811035e-01
-3.692197203636169434e-01
1.656931638717651367e-02
2.447430975735187531e-02
-2.541723102331161499e-02
-4.688352644443511963e-01
-2.855839431285858154e-01
2.715826034545898438e-01
-2.649291157722473145e-01
-4.640360474586486816e-01
-7.445693016052246094e-01
-3.863349258899688721e-01
-9.634615480899810791e-02
-4.228907823562622070e-02
-1.571205556392669678e-01
-1.027054786682128906e-01
3.392759477719664574e-03
1.069515291601419449e-02
-5.647836625576019287e-02
7.848095148801803589e-02
9.505410492420196533e-02
-1.912775635719299316e-02
5.697866529226303101e-02
-1.073590591549873352e-01
7.562046870589256287e-03
4.364442825317382812e-02
7.696160674095153809e-02
