2.879589498043060303e-01
9.663604199886322021e-02
1.515365839004516602e-01
1.816656589508056641e-01
1.742949783802032471e-01
1.815774887800216675e-01
-7.365498691797256470e-02
1.934393122792243958e-02
2.210680842399597168e-01
-5.112458951771259308e-03
-1.270799338817596436e-01
1.131340935826301575e-01
2.795267403125762939e-01
1.722309142351150513e-01
-8.560310304164886475e-02
1.077597290277481079e-01
4.240930452942848206e-02
4.333247989416122437e-02
2.585569322109222412e-01
9.539650380611419678e-02
6.730271875858306885e-02
-7.192952185869216919e-02
4.440720975399017334e-01
2.072190195322036743e-01
1.381707489490509033e-01
-9.447892755270004272e-02
4.874097928404808044e-02
9.268638491630554199e-02
-5.961646512150764465e-02
-2.283060997724533081e-01
3.973893448710441589e-02
2.832197211682796478e-02
6.047261133790016174e-02
8.272225409746170044e-02
1.310394555330276489e-01
-1.503561735153198242e-01
3.616868751123547554e-03
6.182209402322769165e-02
-4.091312363743782043e-02
8.907230198383331299e-02
-1.115387901663780212e-01
2.791979014873504639e-01
-1.555994059890508652e-02
4.916809126734733582e-02
-6.191804260015487671e-02
-9.386663883924484253e-02
-1.282884627580642700e-01
-6.870696693658828735e-02
-7.835828512907028198e-02
5.144134163856506348e-02
-2.166958749294281006e-01
-1.385917663574218750e-01
1.999733224511146545e-02
-3.065636381506919861e-02
3.648695647716522217e-01
-5.855885893106460571e-02
5.755591019988059998e-02
-7.085034251213073730e-02
3.082417249679565430e-01
-8.846800774335861206e-02
1.549786701798439026e-02
-4.411088675260543823e-02
3.300596773624420166e-02
2.081701904535293579e-01
-4.890919104218482971e-02
9.798993915319442749e-02
1.461993064731359482e-02
2.414562404155731201e-01
-2.014658004045486450e-01
-5.610620602965354919e-02
4.088522866368293762e-02
-3.116133213043212891e-01
-2.253245562314987183e-02
5.813812091946601868e-02
2.744318544864654541e-01
9.198431670665740967e-02
-1.274982094764709473e-02
-1.651125028729438782e-03
1.645040214061737061e-01
-1.032594442367553711e-01
-1.557501405477523804e-01
-7.469772361218929291e-03
-2.287533693015575409e-02
-1.569395512342453003e-01
-6.120356265455484390e-03
8.860266953706741333e-02
-3.963904827833175659e-02
4.858293011784553528e-02
7.188847661018371582e-02
1.228709220886230469e-01
-6.263779103755950928e-02
7.093833293765783310e-03
-1.680819988250732422e-01
9.436985850334167480e-02
-2.109344154596328735e-01
6.710706651210784912e-02
4.085049927234649658e-01
3.707778081297874451e-02
7.541549950838088989e-02
-8.024653047323226929e-02
1.373835653066635132e-01
-1.418803539127111435e-02
9.285127371549606323e-02
-2.446251921355724335e-02
-7.762382924556732178e-02
1.683476716279983521e-01
-1.049811113625764847e-02
2.818271890282630920e-02
-1.606781780719757080e-01
2.237471938133239746e-02
1.309832744300365448e-02
-2.193635702133178711e-02
-1.356674879789352417e-01
-6.397765874862670898e-02
-2.668202295899391174e-02
1.569934040307998657e-01
3.630996495485305786e-02
7.161560934036970139e-03
-1.059648022055625916e-01
4.795975610613822937e-02
6.008101254701614380e-02
-2.973105385899543762e-02
1.218724101781845093e-01
7.267782092094421387e-02
6.385115534067153931e-02
-1.827529631555080414e-02
-1.272157132625579834e-01
1.516354233026504517e-01
6.263206154108047485e-02
-1.764327287673950195e-02
1.769018024206161499e-01
-1.299821287393569946e-01
1.165345087647438049e-01
-2.447975613176822662e-02
-3.311076387763023376e-02
-2.826311439275741577e-02
-8.111437782645225525e-03
1.419720500707626343e-01
3.676579892635345459e-02
-7.321755588054656982e-02
-5.634491518139839172e-02
1.923245610669255257e-03
-9.879153221845626831e-02
-9.439633786678314209e-02
9.161123633384704590e-02
-4.283960908651351929e-02
1.503880918025970459e-01
-1.571832895278930664e-01
1.645582355558872223e-02
1.453451812267303467e-01
3.208411633968353271e-01
-2.944086790084838867e-01
-3.027678467333316803e-02
5.258411169052124023e-02
2.538211941719055176e-01
-2.049272060394287109e-01
-2.171141095459461212e-02
-1.079890802502632141e-01
8.099802583456039429e-02
6.149410828948020935e-02
1.255993247032165527e-01
-9.279414266347885132e-02
1.733323782682418823e-01
2.127229003235697746e-03
1.084681674838066101e-01
1.209811680018901825e-02
-1.143558621406555176e-01
3.312923759222030640e-02
6.492201238870620728e-02
1.179378926753997803e-01
1.303214579820632935e-01
2.167997658252716064e-01
1.630078852176666260e-01
1.674326062202453613e-01
-6.406229734420776367e-02
-2.355103567242622375e-02
9.064683318138122559e-02
4.867104813456535339e-02
-9.493253380060195923e-02
1.548536717891693115e-01
1.049532666802406311e-01
-5.790585279464721680e-02
-6.689621508121490479e-02
3.062829971313476562e-01
-1.281096786260604858e-01
-3.415823215618729591e-03
1.415903419256210327e-01
4.715591967105865479e-01
4.799984768033027649e-02
-3.027203381061553955e-01
-1.930902898311614990e-01
-8.018290996551513672e-02
-3.275495395064353943e-02
7.206327468156814575e-02
5.960985273122787476e-02
1.229005903005599976e-01
-3.220232427120208740e-01
6.928069889545440674e-02
6.982785463333129883e-02
4.373565688729286194e-02
3.818176686763763428e-02
5.910938978195190430e-02
1.258507668972015381e-01
2.078790776431560516e-02
1.303586065769195557e-01
2.932180166244506836e-01
1.417327374219894409e-01
-8.392375707626342773e-02
1.755523085594177246e-01
8.856333047151565552e-02
1.349556148052215576e-01
1.988720521330833435e-02
-1.976718157529830933e-01
-4.911489039659500122e-02
1.158287189900875092e-02
-1.726897507905960083e-01
-3.685929626226425171e-02
-8.075286448001861572e-02
-5.086563527584075928e-02
-1.939592361450195312e-01
-1.174728646874427795e-01
2.880828678607940674e-01
-1.602510511875152588e-01
-2.191612869501113892e-01
-1.977969110012054443e-01
-5.336671695113182068e-02
-1.074735000729560852e-01
-2.163957357406616211e-01
-7.979879528284072876e-02
-2.725414931774139404e-02
-4.378505051136016846e-02
1.136102378368377686e-01
-3.045341931283473969e-02
2.184458076953887939e-02
-1.518361456692218781e-02
1.563492789864540100e-02
-2.442797273397445679e-01
1.333881765604019165e-01
-2.523236870765686035e-01
-2.705708146095275879e-01
-1.056066900491714478e-01
9.733208268880844116e-02
2.319054901599884033e-01
9.821616858243942261e-02
-9.843081235885620117e-02
-9.894239157438278198e-02
-2.889308705925941467e-02
1.417295187711715698e-01
-6.429977715015411377e-02
1.456464827060699463e-02
-7.334858179092407227e-02
1.990669593214988708e-02
1.386766582727432251e-01
2.038436476141214371e-03
1.744185835123062134e-01
3.515574336051940918e-02
-1.055546253919601440e-01
-1.080663651227951050e-01
-4.659573361277580261e-02
1.264615636318922043e-02
-9.401381015777587891e-02
-1.077007055282592773e-01
-2.312818765640258789e-01
-8.884745091199874878e-02
2.719336189329624176e-02
8.627384901046752930e-02
-1.772582158446311951e-02
-2.226486615836620331e-02
-8.786489814519882202e-02
5.579541623592376709e-02
-1.119931191205978394e-01
-8.652504533529281616e-03
-1.713659800589084625e-02
4.687763378024101257e-02
5.763927474617958069e-02
1.557380259037017822e-01
1.289852242916822433e-02
-2.428103089332580566e-01
1.044388860464096069e-01
-9.780123084783554077e-02
-1.768055409193038940e-01
-1.720804721117019653e-01
8.333905041217803955e-02
6.563170999288558960e-02
-1.221948340535163879e-01
-2.579847117885947227e-03
1.353904604911804199e-01
2.731515839695930481e-02
1.450214255601167679e-02
-9.211307018995285034e-02
-4.318930208683013916e-02
1.853451319038867950e-02
4.460244998335838318e-02
6.950589269399642944e-02
-7.353325933218002319e-02
1.393636614084243774e-01
9.464294463396072388e-02
1.156136542558670044e-01
4.345121234655380249e-02
1.689987257122993469e-02
-1.409270614385604858e-01
-1.700684428215026855e-01
3.722861409187316895e-02
5.321382358670234680e-02
2.157898433506488800e-02
-4.875517264008522034e-02
-1.322609782218933105e-01
-1.805224828422069550e-02
-2.587241586297750473e-03
8.309426158666610718e-02
1.420103609561920166e-01
1.270747184753417969e-01
-7.397802919149398804e-02
-9.938935935497283936e-02
1.107794791460037231e-01
-9.061911702156066895e-02
-3.249137103557586670e-02
-9.675415605306625366e-02
9.242854081094264984e-03
-1.399559527635574341e-01
2.399783134460449219e-01
-1.264317519962787628e-02
3.128083050251007080e-02
-1.330818235874176025e-02
6.140570342540740967e-02
-1.526772743090987206e-03
1.319321542978286743e-01
1.680983006954193115e-01
1.218374744057655334e-01
1.021498627960681915e-02
-2.950620278716087341e-02
-7.941452413797378540e-02
4.705345630645751953e-02
9.855855256319046021e-02
6.473071873188018799e-02
3.420389816164970398e-02
1.177968010306358337e-01
6.529143865918740630e-05
3.517875447869300842e-02
1.550783365964889526e-01
6.241305172443389893e-02
2.038661949336528778e-02
2.294364571571350098e-02
1.078468561172485352e-01
9.851864725351333618e-02
-2.041456848382949829e-02
7.656999863684177399e-03
-1.690432615578174591e-02
1.270368546247482300e-01
-1.373782306909561157e-01
-1.498935818672180176e-01
3.112081438302993774e-02
-1.367731243371963501e-01
-1.709425151348114014e-01
-4.264499992132186890e-02
8.963146060705184937e-02
-1.842262223362922668e-02
5.319958180189132690e-02
-1.875063404440879822e-02
1.460350900888442993e-01
1.437498182058334351e-01
-2.844254113733768463e-02
-1.667748540639877319e-01
1.265536546707153320e-01
8.600342087447643280e-03
-1.111997142434120178e-01
-8.087466657161712646e-02
-8.319375105202198029e-03
6.628730148077011108e-02
8.180397562682628632e-03
5.276889726519584656e-02
-4.056019335985183716e-02
-5.339473951607942581e-03
5.538097396492958069e-02
4.071641713380813599e-02
-9.660341590642929077e-02
4.549077898263931274e-02
-6.015408411622047424e-02
1.400187425315380096e-02
-1.487742662429809570e-01
3.508201614022254944e-02
-3.926641121506690979e-02
-6.983054429292678833e-02
-1.600325703620910645e-01
1.122447922825813293e-01
-4.961353167891502380e-02
1.350653767585754395e-01
-2.013928489759564400e-03
4.113211855292320251e-02
1.053289473056793213e-01
4.936803504824638367e-02
6.464106589555740356e-02
-1.328495889902114868e-01
4.515917971730232239e-02
-6.534118205308914185e-02
2.297603152692317963e-02
-1.012995988130569458e-01
-1.586429625749588013e-01
-3.211361914873123169e-02
-6.742309778928756714e-03
-7.768651936203241348e-03
9.000919759273529053e-02
-4.097858071327209473e-02
9.444096940569579601e-04
6.794004142284393311e-02
1.122590852901339531e-03
5.099050328135490417e-02
4.824433848261833191e-02
5.302051454782485962e-02
-4.614925384521484375e-02
-9.513073600828647614e-04
-8.618098683655261993e-03
1.184733584523200989e-02
-1.732032448053359985e-01
7.403996586799621582e-02
-4.383599460124969482e-01
1.046014353632926941e-01
1.982567273080348969e-02
-1.247517913579940796e-01
-3.050520420074462891e-01
1.212236955761909485e-01
-8.932501077651977539e-03
6.695520132780075073e-02
4.831752553582191467e-02
1.450014263391494751e-01
-8.107507973909378052e-02
1.523299813270568848e-01
3.785925731062889099e-02
2.165105342864990234e-01
-1.883664954220876098e-04
5.220658332109451294e-02
-5.788362026214599609e-02
-2.176474630832672119e-01
-1.181936711072921753e-01
-8.582209050655364990e-02
-2.710953354835510254e-01
6.720121484249830246e-03
1.396825537085533142e-02
-2.665959484875202179e-02
-6.082559749484062195e-02
1.081559434533119202e-01
-2.890946902334690094e-02
-3.365495055913925171e-02
1.276093125343322754e-01
5.986643582582473755e-02
-8.738844841718673706e-02
-4.370056837797164917e-02
3.943632543087005615e-01
-5.460955202579498291e-02
-3.759547322988510132e-02
1.530752032995223999e-01
7.413132488727569580e-02
-6.102041807025671005e-03
1.567383110523223877e-01
3.775800578296184540e-03
6.495609879493713379e-02
1.682378351688385010e-01
2.892365120351314545e-02
-3.138384968042373657e-02
4.195155575871467590e-02
-1.354329437017440796e-01
4.992149397730827332e-02
-9.244783222675323486e-02
1.066887229681015015e-01
2.113517671823501587e-01
-3.981972113251686096e-02
-1.504524648189544678e-01
-7.478626817464828491e-02
-7.665756344795227051e-02
-3.576333820819854736e-02
-4.059730470180511475e-02
3.169168159365653992e-02
-8.611779659986495972e-02
-1.507776379585266113e-01
-1.048555076122283936e-01
-1.765859499573707581e-02
-1.370398253202438354e-01
-1.319181174039840698e-01
-9.923423081636428833e-02
-4.160875976085662842e-01
8.649849891662597656e-02
9.949874877929687500e-02
4.847038164734840393e-02
-3.376547992229461670e-02
8.789736032485961914e-02
-9.558767080307006836e-03
4.340272024273872375e-02
8.097363263368606567e-02
-1.552442461252212524e-01
1.478640269488096237e-02
-4.428948462009429932e-02
-1.485168561339378357e-02
-1.418488621711730957e-01
8.341328799724578857e-02
7.776435930281877518e-03
2.398315519094467163e-01
5.013309791684150696e-02
-7.195595651865005493e-02
-4.879454150795936584e-02
1.037713661789894104e-01
-1.483285129070281982e-01
-5.621151998639106750e-02
-2.680343575775623322e-02
1.356320679187774658e-01
-1.407811790704727173e-01
-1.679423749446868896e-01
-3.773467987775802612e-02
-1.403053011745214462e-02
-1.021269708871841431e-01
-8.016796410083770752e-02
2.303736750036478043e-03
-7.520473003387451172e-02
8.838143944740295410e-02
-2.505725622177124023e-02
7.587619125843048096e-02
-6.278074532747268677e-02
2.481116205453872681e-01
5.904731526970863342e-02
-3.599126636981964111e-02
-4.299182444810867310e-02
-3.153477609157562256e-02
6.782571971416473389e-02
2.450673282146453857e-02
4.838398098945617676e-02
4.536927863955497742e-02
4.075559228658676147e-02
-8.665237575769424438e-03
4.053170979022979736e-02
-9.208568185567855835e-02
-4.669860005378723145e-03
-9.599084407091140747e-02
3.884832262992858887e-01
-3.876359388232231140e-02
1.057847514748573303e-01
3.881938382983207703e-02
9.693484753370285034e-02
-4.133017733693122864e-02
-5.163013562560081482e-02
-4.227712377905845642e-02
1.694062501192092896e-01
-3.774474933743476868e-02
-1.581304334104061127e-02
-1.401500254869461060e-01
-3.698453679680824280e-02
1.188164427876472473e-01
-1.225570738315582275e-01
-8.386354893445968628e-03
-6.374273449182510376e-02
-3.789562359452247620e-02
3.890591114759445190e-02
-9.143678843975067139e-02
-2.098188363015651703e-02
-1.105429157614707947e-01
5.239157751202583313e-02
1.527794897556304932e-01
8.215523511171340942e-02
-8.109172806143760681e-03
1.226187795400619507e-01
2.911545634269714355e-01
-2.141574583947658539e-02
-1.314139086753129959e-02
-6.124233454465866089e-02
2.248597331345081329e-02
-1.748783737421035767e-01
-9.331781417131423950e-03
-9.742923825979232788e-02
-6.378066539764404297e-02
-2.035555429756641388e-02
2.206144854426383972e-02
-2.013994380831718445e-02
-1.429651379585266113e-01
1.310840547084808350e-01
1.781264552846550941e-03
-8.206466445699334145e-04
-2.402856051921844482e-01
-2.207985073328018188e-01
8.612195402383804321e-02
-7.210977841168642044e-03
4.611872509121894836e-02
6.698076426982879639e-02
-4.003677517175674438e-03
1.242566928267478943e-01
6.934352219104766846e-02
-7.127237319946289062e-02
3.499782830476760864e-02
-5.829655379056930542e-02
1.269121170043945312e-01
-7.801050320267677307e-03
-3.114927113056182861e-01
-3.231137618422508240e-02
-1.186702102422714233e-01
2.681984007358551025e-02
6.642272323369979858e-02
-3.291762992739677429e-02
-1.887443363666534424e-01
-4.671067371964454651e-02
1.783720999956130981e-01
4.964851960539817810e-02
-7.315210532397031784e-03
-4.206568002700805664e-02
6.426475942134857178e-02
-2.090058848261833191e-02
1.066851243376731873e-01
-3.787560015916824341e-02
-1.389777660369873047e-01
-2.981929108500480652e-02
-7.133866101503372192e-02
-2.717012166976928711e-02
3.613384813070297241e-02
-9.002520889043807983e-02
-2.252928465604782104e-01
8.067027479410171509e-02
7.317898422479629517e-02
7.313815504312515259e-02
-1.348713934421539307e-01
6.877387408167123795e-03
-9.560874849557876587e-02
-1.080594584345817566e-01
8.448696136474609375e-02
1.095999702811241150e-01
-1.814913153648376465e-01
-1.002079695463180542e-01
1.647737622261047363e-01
-3.256928548216819763e-02
2.182762175798416138e-01
-1.312988158315420151e-02
4.046553000807762146e-02
8.599463850259780884e-02
4.205089062452316284e-02
-1.248143333941698074e-02
-1.179915852844715118e-03
-1.177082806825637817e-01
3.284341841936111450e-02
-5.532463639974594116e-02
6.482427567243576050e-02
-2.793990075588226318e-02
-1.731531620025634766e-01
1.782730221748352051e-02
1.737602651119232178e-01
1.373639144003391266e-02
1.487586945295333862e-01
-2.959428727626800537e-02
5.291470512747764587e-02
5.424059554934501648e-02
1.232432797551155090e-01
3.397744148969650269e-02
-1.258298195898532867e-02
-1.414600480347871780e-02
1.305292453616857529e-02
-3.661534190177917480e-02
-1.787721067667007446e-01
6.733159720897674561e-02
8.849187940359115601e-02
9.251814335584640503e-02
-1.326590031385421753e-02
-1.220874581485986710e-02
-1.719674095511436462e-02
4.334317892789840698e-02
2.378506585955619812e-02
1.252438724040985107e-01
3.088595345616340637e-02
-5.277730152010917664e-02
-9.092390537261962891e-02
-3.398133069276809692e-02
-5.477040633559226990e-02
-1.122487522661685944e-02
-1.405649036169052124e-01
-1.377221047878265381e-01
-9.048459678888320923e-02
5.309881642460823059e-02
-4.427058622241020203e-02
-1.421494036912918091e-01
-7.161682099103927612e-02
9.842229634523391724e-02
-1.591254770755767822e-01
-3.285320997238159180e-01
-1.295556873083114624e-02
5.545653775334358215e-02
6.916043162345886230e-02
2.872205339372158051e-02
8.396872878074645996e-02
-3.300960408523678780e-03
1.018432155251502991e-01
7.195163052529096603e-04
2.062352746725082397e-02
-8.336042053997516632e-03
1.071703955531120300e-01
8.992297202348709106e-02
-7.992435246706008911e-02
-1.135711371898651123e-01
4.488572478294372559e-02
4.315567389130592346e-02
-1.054271087050437927e-01
2.981939725577831268e-02
-1.055712997913360596e-01
-1.357557028532028198e-01
-1.666290313005447388e-01
1.611090451478958130e-02
2.998438104987144470e-02
-1.785840392112731934e-01
9.652655571699142456e-02
4.218712914735078812e-03
-8.771993964910507202e-02
6.257674843072891235e-02
2.513097040355205536e-02
1.276969164609909058e-01
1.639960259199142456e-01
-9.945481270551681519e-02
2.056299149990081787e-01
-3.219126909971237183e-02
-5.866106227040290833e-02
-1.039124652743339539e-01
-6.480695307254791260e-02
1.977684907615184784e-02
-1.105228215456008911e-01
5.224410071969032288e-02
-2.085274308919906616e-01
-1.315153241157531738e-01
-3.315822035074234009e-02
1.437074691057205200e-01
-3.900045529007911682e-02
-6.966999918222427368e-02
4.842655733227729797e-02
8.549633435904979706e-03
-1.029673665761947632e-01
1.432616710662841797e-01
7.277484983205795288e-03
1.444291044026613235e-02
-1.528743803501129150e-01
9.421127289533615112e-02
1.767762601375579834e-01
-7.566656172275543213e-02
-3.904142975807189941e-01
7.835250347852706909e-02
-4.459558427333831787e-02
-1.121339797973632812e-01
5.499128252267837524e-02
5.975393578410148621e-02
1.395216435194015503e-01
1.813600659370422363e-01
-4.577202722430229187e-03
-5.513414368033409119e-02
1.183849573135375977e-01
-4.086690396070480347e-02
4.459173232316970825e-02
-2.729723602533340454e-02
6.009567156434059143e-02
-2.772792801260948181e-02
1.005411148071289062e-01
9.219281375408172607e-02
9.090152382850646973e-02
1.192977800965309143e-01
1.516736112534999847e-02
-5.467769876122474670e-02
-7.195056229829788208e-02
8.412400633096694946e-02
4.164372757077217102e-02
-5.433747079223394394e-03
-9.726454736664891243e-04
3.139702603220939636e-02
-3.788966685533523560e-02
-6.521239876747131348e-02
5.982072651386260986e-02
-1.124637387692928314e-02
1.072340458631515503e-02
8.647861331701278687e-02
1.075521558523178101e-01
-2.658671699464321136e-02
-5.656235665082931519e-02
-1.628425568342208862e-01
-6.120338663458824158e-02
2.508534863591194153e-02
1.441460996866226196e-01
1.447099149227142334e-01
-2.554093860089778900e-02
6.468072067946195602e-03
1.079331040382385254e-01
-5.809969827532768250e-02
-6.095965579152107239e-02
7.982483506202697754e-02
9.368778765201568604e-02
-2.346310392022132874e-02
-2.194265089929103851e-02
-3.228926798328757286e-03
-1.473991870880126953e-01
-5.189257115125656128e-02
1.486061513423919678e-01
3.402534127235412598e-01
3.896677494049072266e-02
1.088543832302093506e-01
1.105829551815986633e-01
1.847926974296569824e-01
9.062678366899490356e-02
1.675891280174255371e-01
4.787189885973930359e-02
2.298629730939865112e-01
5.283787101507186890e-02
8.448711782693862915e-02
1.436818018555641174e-02
1.775582134723663330e-01
1.659963130950927734e-01
4.783057048916816711e-02
-7.056619226932525635e-02
-2.955912426114082336e-02
-7.650083396583795547e-03
1.445427983999252319e-01
-3.078059479594230652e-02
-2.870785817503929138e-02
-1.945450901985168457e-02
3.338709846138954163e-02
3.599160164594650269e-02
4.003390669822692871e-02
1.424481719732284546e-01
2.157872915267944336e-01
-1.546099185943603516e-01
-2.840889245271682739e-02
-1.528326272964477539e-01
-8.223564922809600830e-02
3.210719525814056396e-01
5.653047561645507812e-01
-1.726269274950027466e-01
-1.200964525341987610e-01
6.279894709587097168e-02
-2.248852141201496124e-02
-2.666617035865783691e-01
-1.303597725927829742e-02
5.216861143708229065e-02
1.428697556257247925e-01
-7.516365498304367065e-02
-2.850074693560600281e-02
-1.205502897500991821e-01
8.228375762701034546e-02
1.009956821799278259e-01
7.709502428770065308e-02
1.963018327951431274e-01
-5.522986501455307007e-02
-1.787343434989452362e-02
-3.968549892306327820e-02
1.349176745861768723e-02
1.185317989438772202e-02
-1.727799698710441589e-02
-7.001174241304397583e-02
-1.477643996477127075e-01
-1.923199929296970367e-02
1.015130653977394104e-01
4.974219202995300293e-02
-5.899936705827713013e-02
-1.073937211185693741e-02
9.309627115726470947e-02
-6.537210196256637573e-02
-4.414550960063934326e-02
6.458862125873565674e-02
-2.423563413321971893e-02
6.244548130780458450e-03
-2.567360177636146545e-02
1.487729996442794800e-01
-8.890472352504730225e-02
1.875198259949684143e-02
3.724499791860580444e-02
-5.974576994776725769e-02
-6.465603411197662354e-02
1.459698099642992020e-02
-2.795260585844516754e-02
1.159803643822669983e-01
6.762040406465530396e-02
-1.208685785531997681e-01
-1.919008493423461914e-01
-5.929097533226013184e-03
-4.374403879046440125e-02
-3.696765750646591187e-02
-6.345671415328979492e-02
-1.158147007226943970e-01
3.340832516551017761e-02
9.772460162639617920e-02
-1.343684345483779907e-01
-9.250582754611968994e-02
-1.260363608598709106e-01
2.135005891323089600e-01
-7.259982172399759293e-03
-1.479204148054122925e-01
1.641074419021606445e-01
-8.467686362564563751e-03
-2.195379137992858887e-02
5.488050170242786407e-03
8.821635507047176361e-03
-4.467445611953735352e-02
-1.816062256693840027e-02
1.756229251623153687e-01
6.393930315971374512e-02
-1.188382133841514587e-01
-8.115895092487335205e-02
8.223297446966171265e-02
-1.616275683045387268e-02
2.519766800105571747e-02
-3.378428146243095398e-02
1.530404575169086456e-02
4.728132858872413635e-02
-1.414251923561096191e-01
3.434484079480171204e-02
1.236147955060005188e-01
-9.124327450990676880e-02
-2.008002549409866333e-01
-8.080199360847473145e-02
-7.219255715608596802e-02
-1.314788311719894409e-01
-1.013682931661605835e-01
2.647131681442260742e-02
8.423459529876708984e-02
-1.198794618248939514e-01
-9.773308411240577698e-03
8.138138055801391602e-02
-7.316500693559646606e-02
1.170338615775108337e-01
2.187377773225307465e-02
-6.715824455022811890e-02
2.805308811366558075e-02
6.012745201587677002e-02
-1.074088588356971741e-01
1.377164721488952637e-01
-4.899009317159652710e-02
-9.898413717746734619e-02
1.276153791695833206e-02
8.406154066324234009e-02
1.056946218013763428e-01
-1.155923381447792053e-01
-6.799093633890151978e-02
-8.916226029396057129e-02
-2.809698507189750671e-02
1.819412410259246826e-01
1.209670156240463257e-01
-1.284048706293106079e-01
-4.052899032831192017e-02
1.199397891759872437e-01
3.232161700725555420e-02
3.116139583289623260e-02
2.612057700753211975e-02
1.443736702203750610e-01
6.337408721446990967e-02
-5.832083150744438171e-02
5.783990025520324707e-03
4.225558135658502579e-03
9.124349802732467651e-03
5.112947151064872742e-02
1.502083800733089447e-02
-6.496537476778030396e-03
4.342822358012199402e-02
8.853346854448318481e-02
-7.936564087867736816e-02
1.968432813882827759e-01
-9.534474811516702175e-04
-5.867649242281913757e-02
-1.318475604057312012e-01
-8.345162868499755859e-02
-6.472045928239822388e-02
1.146141588687896729e-01
-9.115184843540191650e-02
6.628410518169403076e-02
-2.227725647389888763e-02
-8.259201049804687500e-02
-7.246930897235870361e-02
-7.804245501756668091e-02
-6.797089707106351852e-03
-7.134787272661924362e-03
-3.873405978083610535e-02
4.805187508463859558e-02
7.869331538677215576e-02
-2.856485359370708466e-02
-1.480108052492141724e-01
4.674208536744117737e-02
7.637256383895874023e-02
-1.083337664604187012e-01
2.186744473874568939e-02
2.226999402046203613e-01
3.341383039951324463e-01
-7.227055728435516357e-02
1.630281656980514526e-01
-1.498378664255142212e-01
5.345870554447174072e-02
3.612710162997245789e-02
-4.100819528102874756e-01
-1.883907765150070190e-01
1.652339398860931396e-01
-1.326247602701187134e-01
-7.821346074342727661e-02
-1.880300492048263550e-01
3.556833565235137939e-01
1.349621117115020752e-01
1.329017728567123413e-01
-1.816959232091903687e-01
-1.457933634519577026e-01
-1.200312823057174683e-01
-3.041508607566356659e-02
9.069941192865371704e-02
-2.267444431781768799e-01
4.640280082821846008e-02
3.860606253147125244e-02
-1.655592396855354309e-02
-7.391481101512908936e-02
8.075603097677230835e-02
1.485929638147354126e-01
-1.910965773276984692e-03
-3.928156197071075439e-02
-1.646687835454940796e-02
1.405158340930938721e-01
6.564982980489730835e-02
-1.690893024206161499e-01
6.447175145149230957e-02
1.606729775667190552e-01
8.686747401952743530e-02
-9.340446442365646362e-02
-1.031062826514244080e-01
2.283536083996295929e-02
-1.297957599163055420e-01
-3.002339974045753479e-02
-4.822387918829917908e-02
-4.973591491580009460e-02
1.585742342285811901e-03
-8.806134760379791260e-02
2.280658669769763947e-02
1.964855380356311798e-02
-1.164593454450368881e-02
4.240325465798377991e-02
-7.349794358015060425e-02
-5.986971408128738403e-02
-6.765754520893096924e-02
2.236491627991199493e-02
5.824314430356025696e-02
-6.922364234924316406e-02
-2.561732381582260132e-02
-8.438968658447265625e-02
-9.365093708038330078e-02
4.341010469943284988e-03
-9.463666006922721863e-03
-1.290846467018127441e-01
-5.002939701080322266e-02
7.876425981521606445e-03
-3.121407516300678253e-02
1.149815768003463745e-01
-1.479844748973846436e-02
1.014203280210494995e-01
-8.844125270843505859e-02
6.600861251354217529e-02
3.510500490665435791e-02
4.269305616617202759e-02
-1.566194444894790649e-01
3.607765957713127136e-02
-5.549199879169464111e-02
-1.393169760704040527e-01
5.038897320628166199e-02
3.265364095568656921e-02
2.880103327333927155e-02
5.034114420413970947e-02
-2.343761771917343140e-01
1.805548928678035736e-02
-9.006322920322418213e-02
3.866064548492431641e-02
1.402088552713394165e-01
7.110931724309921265e-02
6.404350697994232178e-02
1.102423761039972305e-02
-1.086065396666526794e-01
1.570931449532508850e-02
2.888803929090499878e-02
-1.484215166419744492e-02
-1.167021989822387695e-01
1.679823733866214752e-02
6.002251431345939636e-02
3.626229241490364075e-02
4.464088007807731628e-02
-3.073099069297313690e-02
-5.877632647752761841e-02
3.695652261376380920e-02
-5.166783928871154785e-02
1.029000133275985718e-01
-1.129175499081611633e-01
-5.652493610978126526e-02
-1.076616793870925903e-01
-1.850934326648712158e-02
-2.207821011543273926e-01
-2.700089514255523682e-01
-1.443648636341094971e-01
-1.199841946363449097e-01
-2.243677712976932526e-02
-1.704737395048141479e-01
-2.665593102574348450e-02
-5.202103406190872192e-02
-1.287054419517517090e-01
-1.219357177615165710e-01
-2.257644012570381165e-02
3.815921768546104431e-02
-3.721398115158081055e-02
7.114543765783309937e-02
6.930216401815414429e-02
-5.168779566884040833e-02
-1.612057983875274658e-01
-2.312360517680644989e-02
6.927035003900527954e-02
-3.856603056192398071e-02
1.263765245676040649e-01
8.259414881467819214e-02
3.212902545928955078e-01
5.261212587356567383e-02
2.389769107103347778e-01
2.103226259350776672e-02
8.166013285517692566e-03
-4.006420448422431946e-02
-3.132043033838272095e-02
-6.880336254835128784e-02
-1.465604361146688461e-02
-1.072975099086761475e-01
-9.325399249792098999e-02
-1.844736747443675995e-02
1.733550429344177246e-02
2.643494866788387299e-03
1.140122115612030029e-01
1.489220857620239258e-01
1.020756643265485764e-02
-1.776570267975330353e-02
7.016455382108688354e-02
1.674147993326187134e-01
-5.580499395728111267e-02
-5.950365960597991943e-02
-8.744964003562927246e-02
-4.185563698410987854e-02
-8.206138014793395996e-02
-1.340003609657287598e-01
-7.412112504243850708e-02
3.337937220931053162e-02
-8.071382343769073486e-02
-1.045996248722076416e-01
2.356806583702564240e-02
1.117711737751960754e-01
-4.037547111511230469e-02
2.686808258295059204e-02
-1.418788135051727295e-01
4.972128942608833313e-02
-4.452915117144584656e-02
4.334235936403274536e-02
-4.212662950158119202e-02
-7.879505306482315063e-02
-2.717210724949836731e-02
4.989165440201759338e-02
-1.310604903846979141e-02
-1.728184968233108521e-01
-1.302688568830490112e-02
-4.241343960165977478e-02
3.291991651058197021e-01
-6.056690588593482971e-02
-2.493289858102798462e-01
-2.408416718244552612e-01
1.253674477338790894e-01
-3.191927969455718994e-01
-7.652264833450317383e-02
7.542717270553112030e-03
5.851063132286071777e-02
2.399071305990219116e-02
6.485867500305175781e-02
-1.992470920085906982e-01
5.407143384218215942e-02
3.716437891125679016e-02
8.506875485181808472e-02
-1.219291705638170242e-02
9.468189626932144165e-02
1.224854215979576111e-02
-9.832654893398284912e-02
1.105671189725399017e-02
4.803552851080894470e-02
7.278731465339660645e-02
2.791884541511535645e-02
1.463123559951782227e-01
2.872703410685062408e-02
8.486718684434890747e-02
-1.274624653160572052e-02
6.277407705783843994e-02
5.548954755067825317e-02
5.652092862874269485e-03
5.083853378891944885e-02
7.526013255119323730e-02
-4.816212505102157593e-02
1.367710977792739868e-01
4.092667251825332642e-03
3.433338180184364319e-02
-6.211210414767265320e-02
1.100034713745117188e-01
-7.846057415008544922e-02
6.841828674077987671e-02
2.008898742496967316e-02
-7.252416573464870453e-03
5.228694528341293335e-02
5.646887002512812614e-04
-1.745930314064025879e-01
-1.623279973864555359e-02
-3.961556404829025269e-02
8.083771914243698120e-03
5.794324725866317749e-02
-6.187254190444946289e-02
2.699903026223182678e-02
-6.894722580909729004e-02
1.071337908506393433e-01
-1.723641902208328247e-02
-2.094717174768447876e-01
-1.130161359906196594e-01
3.437270969152450562e-02
3.734252601861953735e-02
7.876276969909667969e-02
5.621443968266248703e-03
4.799460247159004211e-02
-1.011829227209091187e-01
1.073410958051681519e-01
-8.049464225769042969e-02
-3.044872917234897614e-02
1.112620928324759007e-03
3.035063743591308594e-01
8.495429903268814087e-02
3.560692071914672852e-02
1.585804373025894165e-01
1.013729572296142578e-01
-1.137192477472126484e-03
-9.585128724575042725e-02
8.311414718627929688e-02
2.329772338271141052e-02
9.584300220012664795e-03
2.971052937209606171e-02
-4.548483341932296753e-02
-1.702690310776233673e-02
-1.136529445648193359e-01
1.064271479845046997e-01
9.491930156946182251e-02
-5.217597261071205139e-02
-2.933683060109615326e-02
1.992621459066867828e-02
1.096552312374114990e-01
-2.442598901689052582e-02
5.902725830674171448e-02
2.129994630813598633e-01
1.078480407595634460e-01
1.463489681482315063e-01
1.575047522783279419e-02
4.018706083297729492e-02
8.700099587440490723e-02
-2.096369490027427673e-02
5.995871871709823608e-02
1.496050357818603516e-01
9.720305353403091431e-02
-3.565157949924468994e-02
-5.910382047295570374e-02
9.578580409288406372e-02
2.157793007791042328e-02
-4.761030524969100952e-02
-1.937326788902282715e-02
-5.600456520915031433e-02
-3.407693281769752502e-02
1.015173941850662231e-01
-2.998523116111755371e-01
3.691203519701957703e-02
-1.374554336071014404e-01
-5.086595937609672546e-02
-5.036068335175514221e-02
-1.065977755934000015e-02
-2.052734233438968658e-02
-1.247142180800437927e-01
-2.228799760341644287e-01
-1.347547620534896851e-01
2.865122556686401367e-01
1.285609900951385498e-01
1.624862551689147949e-01
7.302184402942657471e-02
7.243482023477554321e-02
7.562935817986726761e-03
-3.794498369097709656e-02
2.337755821645259857e-02
7.925870269536972046e-02
-6.744726747274398804e-02
-8.018986135721206665e-02
-3.123759292066097260e-03
2.644413337111473083e-02
-4.564488679170608521e-02
1.011209469288587570e-02
1.094936951994895935e-02
-6.182458600960671902e-04
-3.481453061103820801e-01
6.579590030014514923e-03
1.837786734104156494e-01
-1.094276458024978638e-01
8.517279475927352905e-02
3.726307675242424011e-02
1.403092741966247559e-01
-5.890033394098281860e-02
1.826858520507812500e-01
-3.717622533440589905e-02
1.235257163643836975e-01
-6.035829707980155945e-02
1.941691525280475616e-02
2.905299663543701172e-01
2.752834856510162354e-01
1.734869927167892456e-02
-3.119049370288848877e-01
-6.595765054225921631e-02
5.891507863998413086e-02
4.536912590265274048e-02
1.094563305377960205e-01
-1.318697333335876465e-01
-1.854360103607177734e-01
-2.393109947443008423e-01
8.865355700254440308e-02
-1.392569243907928467e-01
-8.675856888294219971e-02
-1.383234858512878418e-01
-1.137887034565210342e-02
-1.760163307189941406e-01
-1.123913154006004333e-01
-6.391480565071105957e-02
2.537452615797519684e-02
1.734219938516616821e-01
-4.595104977488517761e-02
6.647875905036926270e-02
-1.309858411550521851e-01
-5.946962907910346985e-02
6.171914190053939819e-02
-1.834174152463674545e-03
-1.820279657840728760e-01
-1.591145247220993042e-01
9.813549928367137909e-03
-3.639094531536102295e-02
1.195523142814636230e-01
-9.417559206485748291e-02
4.539169743657112122e-02
-1.009811013936996460e-01
6.174479052424430847e-02
-4.818663373589515686e-02
-4.693853482604026794e-02
-6.137490645051002502e-02
4.476683959364891052e-02
-4.192979540675878525e-03
-1.166284456849098206e-01
-2.576222419738769531e-01
5.418641865253448486e-02
-7.608938496559858322e-03
-9.647234529256820679e-02
-9.031498432159423828e-02
-3.596670925617218018e-02
-1.573545038700103760e-01
-7.765801995992660522e-02
-1.524711586534976959e-02
-3.739856556057929993e-02
2.998208254575729370e-02
2.949550151824951172e-01
4.682735074311494827e-03
7.662053406238555908e-02
-1.859976798295974731e-01
1.944991201162338257e-02
-1.900018453598022461e-01
3.654853627085685730e-02
6.942620873451232910e-02
3.314698934555053711e-01
5.209294334053993225e-02
-6.276958435773849487e-02
-4.591121152043342590e-02
3.084905743598937988e-01
2.399546355009078979e-01
1.669758558273315430e-01
-1.078306436538696289e-01
-1.159367933869361877e-01
1.142250671982765198e-01
1.034990772604942322e-01
-2.164198830723762512e-02
5.375948548316955566e-02
1.322805285453796387e-01
-1.686353422701358795e-02
-3.472747281193733215e-03
1.186198592185974121e-01
-9.532219916582107544e-02
7.918892428278923035e-03
5.733571574091911316e-02
1.130023673176765442e-01
1.226894631981849670e-01
3.302869498729705811e-01
-2.352669090032577515e-01
1.327198296785354614e-01
1.627995818853378296e-02
9.919707477092742920e-02
-1.074679717421531677e-01
1.043917313218116760e-01
5.568130686879158020e-02
2.308578640222549438e-01
-2.209198921918869019e-01
-7.592436671257019043e-02
-6.617061048746109009e-02
9.485503658652305603e-03
-1.835058927536010742e-01
4.582108929753303528e-02
-3.348328173160552979e-01
-2.857355400919914246e-02
-1.117831394076347351e-01
1.792478561401367188e-02
-2.053926140069961548e-01
-7.122345268726348877e-02
-8.669164031744003296e-02
-1.643664389848709106e-02
-7.998447865247726440e-02
-1.391370147466659546e-01
1.312485188245773315e-01
1.235504224896430969e-01
9.094939567148685455e-03
-2.378343790769577026e-02
3.508135080337524414e-01
2.301190793514251709e-01
3.112983331084251404e-02
2.373785227537155151e-01
-9.176475554704666138e-02
2.122171521186828613e-01
1.312942057847976685e-01
2.565358579158782959e-01
2.857690118253231049e-02
1.711623370647430420e-01
2.687079310417175293e-01
-3.885235264897346497e-02
-2.110651135444641113e-01
-6.886264681816101074e-02
1.167265176773071289e-01
1.481576822698116302e-02
-6.739175319671630859e-02
-4.808035679161548615e-03
1.133147478103637695e-01
5.989875271916389465e-02
2.823883593082427979e-01
7.165782153606414795e-02
2.233394980430603027e-02
6.851735711097717285e-02
1.119200373068451881e-03
-1.750394254922866821e-01
-1.472018063068389893e-01
-5.238374322652816772e-02
-6.268467754125595093e-02
-7.275649905204772949e-02
1.181563287973403931e-01
1.308062970638275146e-01
-1.343727577477693558e-02
2.177140861749649048e-01
6.274120211601257324e-01
1.188075467944145203e-01
-2.978619933128356934e-02
8.772158995270729065e-03
1.616094559431076050e-01
3.624904528260231018e-02
1.737200841307640076e-02
-8.429280668497085571e-02
2.812577486038208008e-01
6.049990188330411911e-03
9.226099401712417603e-02
3.270846977829933167e-02
-7.766528427600860596e-02
1.381737589836120605e-01
2.287951111793518066e-02
2.496695518493652344e-01
6.803229451179504395e-02
-3.686790168285369873e-02
1.791179180145263672e-01
6.387794017791748047e-02
1.388543993234634399e-01
3.986465930938720703e-01
1.649946421384811401e-01
-1.969755440950393677e-01
-8.408018946647644043e-02
-1.936166435480117798e-01
-6.553733348846435547e-02
-1.619566977024078369e-01
-2.326525002717971802e-01
5.997300744056701660e-01
3.265794366598129272e-02
-9.019286185503005981e-02
3.039143383502960205e-01
-3.914889693260192871e-02
2.310084551572799683e-02
3.172892928123474121e-01
-8.186178654432296753e-02
6.042718514800071716e-02
6.956434994935989380e-02
2.243247181177139282e-01
2.281586080789566040e-01
-1.244512200355529785e-01
-9.576073288917541504e-02
7.481908053159713745e-02
-1.076293587684631348e-01
1.956866867840290070e-02
2.048866637051105499e-02
3.429941833019256592e-01
3.067276775836944580e-01
-1.095456629991531372e-01
1.953454613685607910e-01
3.528160154819488525e-01
-3.121670186519622803e-01
-2.473370134830474854e-01
-8.070852607488632202e-02
5.221420526504516602e-02
2.762262225151062012e-01
-3.359786048531532288e-02
1.329192668199539185e-01
6.601080298423767090e-02
8.297953754663467407e-02
-7.572863996028900146e-02
-8.643422275781631470e-02
7.953186333179473877e-02
1.444433778524398804e-01
-3.499842435121536255e-02
-1.732601225376129150e-02
8.371045440435409546e-02
-1.646201461553573608e-01
5.641570091247558594e-01
1.774803362786769867e-02
1.221105679869651794e-01
-1.061177030205726624e-01
1.102793067693710327e-01
-8.959599770605564117e-03
-2.469571493566036224e-02
5.106153339147567749e-02
-2.803714247420430183e-03
1.158853992819786072e-02
6.630376726388931274e-02
1.838332228362560272e-02
-3.384424373507499695e-02
5.616385862231254578e-02
1.661419495940208435e-02
-4.485172033309936523e-02
4.064217582345008850e-02
-2.287057973444461823e-02
1.371132284402847290e-01
1.147104948759078979e-01
1.482111960649490356e-02
-1.170320585370063782e-01
-1.024909541010856628e-01
4.166770726442337036e-03
-1.274304687976837158e-01
-1.217707246541976929e-01
-6.686583906412124634e-02
-1.727794855833053589e-01
6.669363379478454590e-02
-4.063029959797859192e-02
4.611523821949958801e-02
1.332485526800155640e-01
-1.126105263829231262e-01
-3.203191608190536499e-02
-6.098325923085212708e-02
1.879784092307090759e-02
-9.077649563550949097e-02
-4.383682087063789368e-02
-5.029850453138351440e-02
-2.795794792473316193e-02
2.475250698626041412e-02
-9.806780517101287842e-02
-1.237017735838890076e-01
4.794820770621299744e-02
1.543535292148590088e-01
1.541780531406402588e-01
-1.232376247644424438e-01
-7.913596183061599731e-02
-7.195580750703811646e-02
-1.262103170156478882e-01
-2.770827617496252060e-03
6.343951076269149780e-02
-7.064805924892425537e-02
-8.890236914157867432e-02
-3.431123122572898865e-02
3.916442394256591797e-02
-2.942362800240516663e-02
1.038119941949844360e-01
-6.202070787549018860e-02
-1.108139455318450928e-01
-6.934697274118661880e-03
1.922566443681716919e-02
2.727864682674407959e-01
7.534117996692657471e-02
-2.427037246525287628e-02
1.798639539629220963e-03
7.923139631748199463e-02
-3.397979214787483215e-02
-3.854809328913688660e-02
9.386222809553146362e-02
3.177702799439430237e-02
-1.200017705559730530e-01
-1.721042990684509277e-01
3.816252946853637695e-02
2.516619861125946045e-01
-2.230650186538696289e-02
1.510184109210968018e-01
2.354116737842559814e-01
4.662026092410087585e-02
1.457532495260238647e-01
1.693701893091201782e-01
2.590653002262115479e-01
6.496147811412811279e-02
3.236484155058860779e-02
-6.899024546146392822e-02
-2.701859176158905029e-02
-6.760760396718978882e-02
-2.507349550724029541e-01
-5.452166125178337097e-02
-5.293091386556625366e-02
1.396652013063430786e-01
1.528072804212570190e-01
2.282305620610713959e-02
-1.821303553879261017e-02
8.449781686067581177e-02
3.123722039163112640e-02
-6.556583195924758911e-02
-9.738841652870178223e-02
-2.700833044946193695e-02
-5.220902618020772934e-03
5.541037023067474365e-02
-3.215152025222778320e-02
3.514485061168670654e-02
4.460069164633750916e-02
5.912230163812637329e-02
2.546518109738826752e-02
4.850962385535240173e-02
-2.565528079867362976e-02
1.701275110244750977e-01
-2.684782259166240692e-02
1.658232649788260460e-03
-2.004283852875232697e-02
6.756381690502166748e-02
1.312826760113239288e-02
2.195012196898460388e-02
3.228751197457313538e-02
8.415018767118453979e-02
1.077230572700500488e-01
-1.161231920123100281e-01
1.762551367282867432e-01
7.360345125198364258e-02
-5.504840984940528870e-02
-1.195842176675796509e-01
-2.964520268142223358e-02
7.595402747392654419e-02
1.612656265497207642e-01
5.246116966009140015e-02
1.243623197078704834e-01
3.234887495636940002e-02
-1.993465721607208252e-01
4.611014388501644135e-03
1.329108178615570068e-01
2.543247640132904053e-01
4.190049692988395691e-02
1.462566852569580078e-02
4.778784140944480896e-02
-3.466637060046195984e-02
1.954502053558826447e-02
-2.579131424427032471e-01
-6.492175161838531494e-02
1.692259684205055237e-02
-3.536141291260719299e-02
-8.837351202964782715e-02
-8.771140873432159424e-02
-5.077718570828437805e-02
4.871829226613044739e-02
-6.546196341514587402e-02
-1.282226294279098511e-01
-8.881440758705139160e-02
-2.224847860634326935e-02
5.574994254857301712e-03
3.579022362828254700e-02
-1.092215776443481445e-01
-6.045962125062942505e-02
1.629374027252197266e-01
5.842661857604980469e-02
-2.150454372167587280e-02
-2.238918244838714600e-01
-2.420350313186645508e-01
-6.900633871555328369e-02
-1.502032130956649780e-01
-3.440582007169723511e-02
-1.222269833087921143e-01
-2.251147292554378510e-02
-9.375853091478347778e-02
-6.543765962123870850e-02
-1.447042226791381836e-01
3.781245788559317589e-03
-1.902998611330986023e-02
-2.529011666774749756e-01
-2.346697896718978882e-01
7.182063162326812744e-02
-2.005244605243206024e-02
-1.505235768854618073e-02
-3.563479334115982056e-02
1.332232076674699783e-02
2.432023733854293823e-02
5.811759084463119507e-02
-1.500221490859985352e-01
-8.346397429704666138e-02
7.453464716672897339e-02
-8.631391823291778564e-02
1.943031325936317444e-02
3.034877181053161621e-01
1.432081013917922974e-01
-8.068969100713729858e-02
-6.804828345775604248e-02
5.445965752005577087e-02
1.530857831239700317e-01
1.130597889423370361e-01
1.513710170984268188e-01
4.297081008553504944e-02
4.849237576127052307e-02
-6.070792675018310547e-02
-5.158751085400581360e-02
-1.027384400367736816e-01
3.492690250277519226e-02
2.548553422093391418e-02
-1.066037639975547791e-01
-1.251265406608581543e-01
-1.317138671875000000e-01
3.398034349083900452e-02
3.176749870181083679e-02
7.114240527153015137e-02
-3.418180048465728760e-01
-9.514914453029632568e-02
-1.077886670827865601e-01
-4.522472023963928223e-01
-1.674062758684158325e-01
-9.407787024974822998e-02
-1.952339112758636475e-01
-8.823172748088836670e-02
1.114649325609207153e-01
-1.617843061685562134e-01
-1.667393371462821960e-02
-6.375864148139953613e-02
-2.945436351001262665e-02
-1.526597887277603149e-01
-1.383659094572067261e-01
-3.292481601238250732e-02
-9.885603189468383789e-02
8.067022077739238739e-03
-2.198323234915733337e-02
1.546828895807266235e-01
-6.675387173891067505e-02
-4.916071891784667969e-02
1.454873234033584595e-01
1.193661987781524658e-01
-7.993774116039276123e-02
-1.017981022596359253e-01
1.982486061751842499e-02
-9.915079921483993530e-03
1.201970949769020081e-01
-1.005792692303657532e-01
-1.141014844179153442e-01
-1.703434884548187256e-01
1.480557173490524292e-01
-1.880810707807540894e-01
-4.316166788339614868e-02
5.390630662441253662e-02
-6.333087384700775146e-02
-2.749088406562805176e-01
-1.900518834590911865e-01
1.129636466503143311e-01
3.780886903405189514e-02
2.161627821624279022e-02
-4.926255717873573303e-02
5.689512938261032104e-02
1.499218046665191650e-01
-7.948208600282669067e-02
-1.210211142897605896e-01
1.425628513097763062e-01
-9.312984347343444824e-02
1.899299398064613342e-02
-8.142220228910446167e-02
-2.341802269220352173e-01
1.488085687160491943e-01
-8.499792777001857758e-03
1.413011848926544189e-01
-1.177564710378646851e-01
4.742408543825149536e-02
-1.291397362947463989e-01
-5.796324834227561951e-02
-2.709741517901420593e-02
-9.718144312500953674e-03
-1.626915484666824341e-02
1.941509195603430271e-03
-2.281011641025543213e-02
1.628662943840026855e-01
1.108956709504127502e-01
9.444286674261093140e-02
1.309100836515426636e-01
9.336438775062561035e-02
1.151348464190959930e-03
1.193371936678886414e-01
1.445673555135726929e-01
-1.112379059195518494e-01
2.621832489967346191e-02
-6.873413920402526855e-02
1.037768796086311340e-01
-2.370423078536987305e-02
-7.323740422725677490e-02
2.869488438591361046e-03
1.044415868818759918e-02
-1.220729500055313110e-01
9.479876607656478882e-03
4.585134610533714294e-02
-6.907564401626586914e-02
1.910988986492156982e-01
-5.772705376148223877e-02
4.812330007553100586e-02
7.088045030832290649e-02
2.300738990306854248e-01
1.144068464636802673e-01
1.815216988325119019e-01
5.746619403362274170e-02
2.445915490388870239e-01
2.091941535472869873e-01
1.276386380195617676e-01
1.428460031747817993e-01
-2.295749038457870483e-01
-4.866106808185577393e-02
1.254223752766847610e-03
-1.107201054692268372e-01
-2.061474919319152832e-01
1.008518263697624207e-01
3.459971398115158081e-02
-3.003259748220443726e-02
-3.469203365966677666e-03
-2.157345600426197052e-02
-1.123837660998106003e-02
-9.793168865144252777e-03
3.234623000025749207e-02
4.427772015333175659e-02
-1.090123355388641357e-01
-4.560948908329010010e-02
-8.331060409545898438e-02
2.727420926094055176e-01
-5.632452666759490967e-02
4.042663052678108215e-02
-1.753372251987457275e-01
-2.392560243606567383e-02
-3.573466464877128601e-02
3.697287291288375854e-02
-1.527051925659179688e-01
-7.390322536230087280e-02
1.739206910133361816e-02
-5.767263099551200867e-02
-1.151127293705940247e-01
2.195343971252441406e-01
3.473746776580810547e-01
-1.154492273926734924e-01
4.313550516963005066e-02
-1.718255728483200073e-01
1.759206503629684448e-01
-1.530174165964126587e-02
1.790035702288150787e-02
-2.553694844245910645e-01
-1.090517789125442505e-01
-2.361190468072891235e-01
-2.755660191178321838e-02
1.226712465286254883e-01
-9.439065307378768921e-02
-1.517503112554550171e-01
-9.365886449813842773e-03
-6.072715297341346741e-02
-2.193304747343063354e-01
-1.554265916347503662e-01
3.819357231259346008e-02
9.731530398130416870e-02
3.103671409189701080e-02
4.735628515481948853e-02
7.017005700618028641e-03
-3.277225419878959656e-02
6.242344155907630920e-02
1.813271194696426392e-01
-1.404723618179559708e-02
-5.578196421265602112e-02
-5.533841997385025024e-02
2.002998590469360352e-01
1.376638188958168030e-02
-2.626694738864898682e-01
-1.343721747398376465e-01
1.165793091058731079e-01
6.586749851703643799e-02
1.528044790029525757e-01
-1.083005890250205994e-01
-5.379668250679969788e-02
-1.077183801680803299e-02
1.415505353361368179e-02
-5.726660043001174927e-02
-1.633050292730331421e-02
2.073150500655174255e-02
8.023439347743988037e-02
2.259653061628341675e-01
1.789066195487976074e-02
4.205599799752235413e-02
1.486636549234390259e-01
1.140033230185508728e-01
5.262780934572219849e-02
-9.657815098762512207e-02
-4.715520516037940979e-02
8.204569667577743530e-02
-5.341405048966407776e-02
1.156707853078842163e-01
2.070850580930709839e-01
1.010471656918525696e-01
-1.324585732072591782e-02
-4.450959339737892151e-02
3.510714769363403320e-01
1.001932099461555481e-01
8.103330433368682861e-02
2.317974269390106201e-01
1.463125050067901611e-01
1.453466117382049561e-01
-1.125594004988670349e-01
-7.381355762481689453e-02
1.954293251037597656e-02
9.641495347023010254e-02
7.685337960720062256e-02
-6.343045271933078766e-03
4.651512578129768372e-02
1.440172195434570312e-01
3.807864710688591003e-02
7.120681554079055786e-02
8.129569888114929199e-02
2.904585897922515869e-01
-9.196161292493343353e-03
-2.803983911871910095e-02
9.754305332899093628e-02
5.223581194877624512e-01
1.050091981887817383e-01
1.225357726216316223e-01
4.147650897502899170e-01
2.594740092754364014e-01
3.215388208627700806e-02
6.296357512474060059e-02
2.272789627313613892e-01
2.505697309970855713e-02
1.248780563473701477e-01
-1.715871877968311310e-02
-3.888898715376853943e-02
-3.986587747931480408e-02
1.639906316995620728e-01
-6.258040666580200195e-03
2.053321599960327148e-01
-6.480822712182998657e-02
1.214433237910270691e-01
4.451312497258186340e-02
-1.378674209117889404e-01
3.659274056553840637e-02
-3.292434290051460266e-02
1.082087755203247070e-01
7.104025036096572876e-02
-3.739177063107490540e-02
2.459859251976013184e-01
1.915092952549457550e-02
4.224294424057006836e-02
2.619942277669906616e-02
1.563464403152465820e-01
-1.278387606143951416e-01
-4.156102985143661499e-02
2.150312997400760651e-02
-1.299443244934082031e-01
3.798986785113811493e-03
6.691633164882659912e-02
-4.208903014659881592e-02
-1.722325682640075684e-01
3.176406258717179298e-03
-2.315688505768775940e-02
-6.305402517318725586e-02
-3.429608047008514404e-02
-3.496778011322021484e-02
1.557899732142686844e-02
-1.029713675379753113e-01
-1.053182557225227356e-01
2.523158118128776550e-02
-1.010321918874979019e-02
-3.941698372364044189e-02
-1.885479539632797241e-01
1.116700656712055206e-02
-9.060934185981750488e-02
7.139795273542404175e-02
-1.422690451145172119e-01
-6.523665040731430054e-02
-6.528628617525100708e-02
-1.589091680943965912e-02
-4.239762946963310242e-02
-1.521086413413286209e-02
-4.958653822541236877e-02
-1.654981449246406555e-02
-2.171453386545181274e-01
-7.001910824328660965e-03
-1.938720047473907471e-01
-3.292670845985412598e-01
-1.195858642458915710e-01
4.765193164348602295e-02
9.875085204839706421e-02
4.128067940473556519e-02
-1.389723569154739380e-01
3.399764746427536011e-02
-4.229626059532165527e-02
4.051391780376434326e-02
-2.879338897764682770e-02
1.124396771192550659e-01
-8.461430668830871582e-02
4.648917913436889648e-02
-2.491445280611515045e-02
1.929186135530471802e-01
-8.703855425119400024e-02
5.548640340566635132e-02
1.611841768026351929e-01
1.002799272537231445e-01
3.865329921245574951e-01
4.089325666427612305e-01
1.438803877681493759e-02
-5.151205062866210938e-01
2.924202978610992432e-01
6.802537478506565094e-03
7.595048844814300537e-02
2.644272148609161377e-01
-1.049626693129539490e-01
-5.357166379690170288e-02
2.750178873538970947e-01
-8.001778274774551392e-03
-2.705995440483093262e-01
-2.302197366952896118e-01
8.100990206003189087e-02
-8.977554738521575928e-02
2.174075394868850708e-01
1.300209909677505493e-01
3.710753843188285828e-02
-1.836111210286617279e-02
3.047712743282318115e-01
-2.967713028192520142e-02
3.323481231927871704e-02
1.568376868963241577e-01
1.105206906795501709e-01
5.848393775522708893e-03
4.978300258517265320e-02
2.571853697299957275e-01
2.229937314987182617e-01
-1.369929611682891846e-01
-2.797795087099075317e-02
4.736226983368396759e-03
-1.981458626687526703e-02
9.091282635927200317e-02
1.355963647365570068e-01
-4.598474130034446716e-02
3.553013131022453308e-02
1.238008141517639160e-01
6.793690472841262817e-02
-5.014816764742136002e-03
-9.587064385414123535e-02
7.012521475553512573e-02
2.158157899975776672e-02
-2.304420433938503265e-02
1.140803173184394836e-01
7.376716285943984985e-02
9.793723933398723602e-03
2.177722156047821045e-01
1.983332633972167969e-01
-8.171520382165908813e-02
-1.571414470672607422e-01
2.283909022808074951e-01
-1.603021919727325439e-01
3.019645577296614647e-03
-6.434984505176544189e-02
-1.599375344812870026e-02
7.204084098339080811e-02
1.048798561096191406e-01
2.571818977594375610e-02
-9.740807861089706421e-02
-4.151025041937828064e-02
1.318424046039581299e-01
3.510900214314460754e-02
-1.518662124872207642e-01
-2.270693518221378326e-02
1.333774179220199585e-01
-1.015552878379821777e-01
-1.616923809051513672e-01
7.130283117294311523e-02
-2.276435643434524536e-01
-5.032400134950876236e-03
-2.187057584524154663e-01
1.301095336675643921e-01
-4.384833574295043945e-02
3.758606687188148499e-02
-1.997790783643722534e-01
5.454941838979721069e-02
-1.202248856425285339e-01
-1.681340336799621582e-01
-1.120329946279525757e-01
2.627722620964050293e-01
-6.733816117048263550e-02
-5.383750423789024353e-02
-1.773594468832015991e-01
-5.690692365169525146e-02
5.375511012971401215e-03
1.175060123205184937e-01
-1.257678680121898651e-02
-3.139736875891685486e-02
9.808578342199325562e-02
2.313976176083087921e-02
1.753013953566551208e-02
-1.960268914699554443e-01
-4.918551817536354065e-02
-2.363470941781997681e-01
-4.638728871941566467e-02
-1.689288020133972168e-02
-2.989597246050834656e-02
2.364307045936584473e-01
5.930614098906517029e-02
3.845452517271041870e-02
-1.126681547611951828e-02
1.159153645858168602e-03
2.816527783870697021e-01
1.031157001852989197e-01
-1.060359850525856018e-01
1.777681708335876465e-01
2.346214056015014648e-01
4.894305020570755005e-02
-7.974405586719512939e-02
-1.647123694419860840e-01
-7.845431566238403320e-02
-5.616558343172073364e-02
2.002281993627548218e-01
-9.985067695379257202e-02
-7.481660693883895874e-02
5.598978325724601746e-02
1.364176124334335327e-01
4.603133350610733032e-02
-1.290435642004013062e-01
9.676658362150192261e-02
1.566464602947235107e-01
8.194150030612945557e-02
-6.247187033295631409e-02
-6.120036542415618896e-02
-1.723822802305221558e-01
9.530290216207504272e-02
-1.764133423566818237e-01
1.254838705062866211e-01
-1.427521836012601852e-02
-8.051070570945739746e-02
-6.585898809134960175e-04
2.641188167035579681e-02
1.448083221912384033e-01
-7.420840114355087280e-02
2.494151704013347626e-02
7.763146609067916870e-02
9.347600489854812622e-02
-1.357793658971786499e-01
-1.919103972613811493e-02
-1.031589731574058533e-01
2.860309556126594543e-02
3.102665543556213379e-01
5.778057873249053955e-02
3.212270513176918030e-02
-6.422005593776702881e-02
-1.145452708005905151e-01
-2.455101460218429565e-01
-1.200169101357460022e-01
1.225911080837249756e-01
3.179404139518737793e-02
-5.520076677203178406e-02
-5.869556590914726257e-02
1.667812168598175049e-01
1.109639555215835571e-01
8.348710834980010986e-02
-2.351257354021072388e-01
-2.406050637364387512e-02
1.126764044165611267e-01
-6.464782357215881348e-02
-1.113822683691978455e-02
1.203321814537048340e-01
1.611503213644027710e-02
-2.980382554233074188e-02
6.227425113320350647e-02
2.031189352273941040e-01
-4.261301457881927490e-02
-1.364436652511358261e-02
3.508361056447029114e-03
-7.992103695869445801e-02
-8.921681344509124756e-02
7.219651341438293457e-02
-2.694205380976200104e-02
-1.297409236431121826e-01
-3.182242810726165771e-01
-1.927578896284103394e-01
1.377234756946563721e-01
-3.002722002565860748e-02
-1.718151383101940155e-02
-9.562200866639614105e-03
5.000131577253341675e-02
7.971626520156860352e-02
7.682403177022933960e-02
8.652061223983764648e-02
-8.864294737577438354e-02
2.550370618700981140e-02
-2.817032858729362488e-02
3.633519411087036133e-01
-8.525711297988891602e-02
-1.780131459236145020e-01
2.257061935961246490e-02
-1.070722118020057678e-01
2.179116569459438324e-02
-3.305082023143768311e-02
5.230514705181121826e-02
2.528558112680912018e-02
8.602790534496307373e-02
2.571396529674530029e-01
4.321712255477905273e-02
1.435387283563613892e-01
-2.241094224154949188e-02
1.510288566350936890e-01
-7.103434205055236816e-02
1.832737475633621216e-01
1.214477140456438065e-02
-1.357014756649732590e-02
1.994216591119766235e-01
-1.306083947420120239e-01
-4.409189522266387939e-02
9.298631548881530762e-02
7.179422676563262939e-02
-1.474558413028717041e-01
1.151886284351348877e-01
-2.136017195880413055e-03
-1.074316501617431641e-01
1.280951127409934998e-02
1.064491868019104004e-01
-1.793976128101348877e-02
-2.871748246252536774e-02
-3.542878478765487671e-02
1.266034413129091263e-02
6.062321830540895462e-03
-1.766086220741271973e-01
-3.261683508753776550e-02
2.411509305238723755e-01
-5.315299704670906067e-02
-8.178012073040008545e-02
-2.002364583313465118e-02
-3.646983578801155090e-02
-8.975251019001007080e-02
-4.761050269007682800e-02
-2.754880301654338837e-02
-1.048339009284973145e-01
1.254346966743469238e-01
9.833557158708572388e-02
2.868677079677581787e-01
2.078579040244221687e-03
-6.060451734811067581e-03
-1.734650284051895142e-01
-5.595266073942184448e-02
-3.750333189964294434e-02
2.305528614670038223e-03
7.511799689382314682e-03
1.236849129199981689e-01
-4.577964544296264648e-02
-1.803766004741191864e-02
1.343207359313964844e-01
-1.255157124251127243e-02
1.545140612870454788e-02
2.570762857794761658e-02
-5.399484559893608093e-02
-5.318368226289749146e-02
-1.071585342288017273e-01
2.133507728576660156e-01
-2.138383872807025909e-02
-2.960292100906372070e-01
8.169228583574295044e-02
3.713870793581008911e-02
-1.572410017251968384e-02
1.640686988830566406e-01
3.151644021272659302e-02
3.982096165418624878e-02
1.289053261280059814e-01
1.259733736515045166e-01
-7.465828955173492432e-02
-6.849548965692520142e-02
1.112595647573471069e-01
1.988583207130432129e-01
6.468895822763442993e-02
-5.104267597198486328e-02
7.644674926996231079e-02
-4.683703929185867310e-02
-8.028968423604965210e-02
2.649116702377796173e-02
-1.579994708299636841e-01
-7.149264216423034668e-02
2.567142546176910400e-01
-6.343583762645721436e-02
-7.150121033191680908e-02
4.847983643412590027e-02
1.522852033376693726e-01
-4.881975054740905762e-02
1.447480767965316772e-01
2.897716686129570007e-02
-1.365243196487426758e-01
-4.417468328028917313e-03
1.871026866137981415e-02
-3.156157210469245911e-02
8.827909082174301147e-02
7.309506088495254517e-02
-9.630189836025238037e-02
-6.036162842065095901e-03
8.951875567436218262e-02
-8.865512162446975708e-02
2.174164913594722748e-02
5.870799720287322998e-02
-1.844193553552031517e-03
2.131459914380684495e-04
1.874993592500686646e-01
2.058253996074199677e-02
-5.592538975179195404e-03
-1.170544102787971497e-01
-6.688201427459716797e-02
4.764141514897346497e-03
-1.157698780298233032e-01
8.681607246398925781e-02
1.454608440399169922e-01
-4.420120269060134888e-02
6.931924074888229370e-02
3.646975755691528320e-02
-4.481635615229606628e-02
-2.365214824676513672e-01
8.123959414660930634e-03
6.817847490310668945e-02
-4.609505832195281982e-02
-4.875949770212173462e-02
1.172503829002380371e-01
-7.920225709676742554e-02
7.978455722332000732e-02
-3.158527240157127380e-02
-2.950204312801361084e-01
3.573395311832427979e-01
3.296015262603759766e-01
7.914320565760135651e-03
-1.296999603509902954e-01
2.304937094449996948e-01
1.435920149087905884e-01
-5.338531732559204102e-02
-2.525318264961242676e-01
8.179764263331890106e-03
2.575707435607910156e-01
-1.721961498260498047e-01
-2.611794769763946533e-01
-1.046136915683746338e-01
1.395351886749267578e-01
4.101977124810218811e-02
1.848641782999038696e-02
-3.952702134847640991e-02
7.110543549060821533e-02
-1.218044236302375793e-01
-6.673104315996170044e-02
-7.569758594036102295e-02
-3.495418652892112732e-02
-6.723163276910781860e-02
3.480113297700881958e-02
-2.265199273824691772e-01
-2.226039208471775055e-02
-9.609080106019973755e-02
-5.650835111737251282e-02
8.420579880475997925e-02
-1.029077768325805664e-01
-1.561296135187149048e-01
-9.092342108488082886e-02
5.981203168630599976e-03
4.421286582946777344e-01
2.481652796268463135e-01
-9.057778120040893555e-02
2.785944044589996338e-01
2.057385593652725220e-01
3.894684463739395142e-02
-8.442185074090957642e-02
4.551431536674499512e-02
-9.941949974745512009e-04
8.752480149269104004e-02
-6.962595880031585693e-02
6.611122190952301025e-02
-3.519055992364883423e-02
1.056239008903503418e-01
1.144951134920120239e-01
9.539356082677841187e-02
3.531749173998832703e-02
-7.764256745576858521e-02
7.529572397470474243e-02
7.529679685831069946e-02
1.506359577178955078e-01
5.811108648777008057e-02
-3.012870848178863525e-01
-1.351195871829986572e-01
-2.232482284307479858e-02
4.644526839256286621e-01
1.407023370265960693e-01
-3.904686123132705688e-02
1.675640195608139038e-01
-1.059024557471275330e-01
1.540777683258056641e-01
-1.738621294498443604e-02
9.932165034115314484e-03
-1.215769723057746887e-01
2.786641241982579231e-03
-2.571972645819187164e-02
-1.854012906551361084e-01
4.048112407326698303e-02
-7.594765722751617432e-02
1.040950641036033630e-01
-2.368619199842214584e-03
5.962406843900680542e-02
4.055551812052726746e-02
2.261885106563568115e-01
-1.534428000450134277e-01
-1.964161992073059082e-01
4.560888186097145081e-02
2.173006832599639893e-01
-1.278136204928159714e-02
-2.421914935111999512e-01
2.942471802234649658e-01
7.238774746656417847e-02
-1.424853056669235229e-01
-1.791492998600006104e-01
-1.185808777809143066e-01
-2.143861725926399231e-02
-6.104044243693351746e-02
-1.666811406612396240e-01
-2.059483677148818970e-01
6.378835439682006836e-02
-1.753371655941009521e-01
-4.208387434482574463e-02
-1.418055966496467590e-02
4.617711529135704041e-02
-6.753674894571304321e-02
-1.269367039203643799e-01
-5.992695316672325134e-02
-1.376885771751403809e-01
-2.795498818159103394e-02
1.304617226123809814e-01
2.344079688191413879e-02
-1.551389247179031372e-01
-3.295592591166496277e-02
1.571699082851409912e-01
-1.691602319478988647e-01
-1.709475964307785034e-01
1.996733807027339935e-02
1.564108729362487793e-01
-2.456571534276008606e-02
1.012978777289390564e-01
-2.034628950059413910e-02
1.289008110761642456e-01
1.256799101829528809e-01
-9.592619538307189941e-02
1.702165976166725159e-02
1.129513978958129883e-01
-5.108020454645156860e-02
-1.251487340778112411e-02
3.554623201489448547e-02
-3.428702056407928467e-02
3.749027382582426071e-04
-6.197380274534225464e-02
7.128336280584335327e-02
-3.025105968117713928e-02
2.113303840160369873e-01
-3.156165033578872681e-02
1.778979152441024780e-01
2.738926745951175690e-02
1.604275777935981750e-02
-1.575234928168356419e-03
-1.172360107302665710e-01
5.550463870167732239e-02
-1.460529118776321411e-01
-1.240385696291923523e-01
-1.183385923504829407e-01
3.177945315837860107e-01
7.759441435337066650e-02
-4.065432399511337280e-02
-1.285883039236068726e-01
-1.034322157502174377e-01
7.472726702690124512e-02
-1.318061649799346924e-01
-8.761624991893768311e-02
-3.509632125496864319e-02
1.951780617237091064e-01
9.149702638387680054e-02
1.045982390642166138e-01
1.793948709964752197e-01
1.902762651443481445e-01
3.838859498500823975e-02
-1.139633208513259888e-01
2.486880719661712646e-01
-9.660443291068077087e-03
1.240130662918090820e-01
5.695139616727828979e-02
1.163937430828809738e-02
1.923974901437759399e-01
5.404710024595260620e-02
1.035384833812713623e-01
2.616266906261444092e-01
2.029105573892593384e-01
3.932638764381408691e-01
1.491684913635253906e-01
2.951185107231140137e-01
2.820189893245697021e-01
2.625640928745269775e-01
7.594829797744750977e-02
4.334872663021087646e-01
-2.516002394258975983e-02
2.194631099700927734e-01
-1.623494923114776611e-01
-2.593709528446197510e-02
-7.353835552930831909e-02
1.730751842260360718e-01
-9.422274306416511536e-03
-1.073138788342475891e-02
3.967726603150367737e-03
-9.134287387132644653e-02
1.249395757913589478e-01
1.475536972284317017e-01
-4.135711491107940674e-02
2.074818164110183716e-01
-1.091560255736112595e-02
1.552955806255340576e-01
1.794052422046661377e-01
2.499170005321502686e-01
-2.385568805038928986e-02
7.506631780415773392e-03
1.344312727451324463e-01
1.490079313516616821e-01
6.580286473035812378e-02
6.942924857139587402e-02
-1.491837203502655029e-02
1.707588732242584229e-01
-1.466714888811111450e-01
1.758625358343124390e-01
-1.417340040206909180e-01
-7.076161354780197144e-02
-8.169441670179367065e-02
-7.198151946067810059e-02
-1.301597505807876587e-01
-6.635291129350662231e-02
1.914180815219879150e-02
3.281018733978271484e-01
6.874337792396545410e-02
1.119495630264282227e-01
-1.111223548650741577e-01
1.374503225088119507e-01
7.683258503675460815e-03
1.033136323094367981e-01
1.120592951774597168e-01
-1.436080783605575562e-01
-4.459272325038909912e-02
1.304745823144912720e-01
2.164338976144790649e-01
-2.270962670445442200e-02
2.424481958150863647e-01
-8.301038295030593872e-02
-1.513206362724304199e-01
1.041343659162521362e-01
7.721425592899322510e-02
7.182545959949493408e-02
6.600972265005111694e-02
-1.443999260663986206e-01
-1.068854033946990967e-01
-9.728259593248367310e-02
-1.314463838934898376e-02
1.188145652413368225e-01
-1.199454069137573242e-01
1.822452759370207787e-03
2.639841847121715546e-02
1.229875534772872925e-01
-8.691482245922088623e-02
1.588534004986286163e-02
4.538254067301750183e-02
4.272564649581909180e-01
3.564094752073287964e-02
-2.928416058421134949e-02
1.642420142889022827e-01
7.440359890460968018e-02
3.217274844646453857e-01
7.007558643817901611e-02
-3.967734426259994507e-02
-6.076170504093170166e-02
2.771289646625518799e-01
-2.428731136023998260e-02
-4.531349986791610718e-02
1.649552769958972931e-02
2.939772009849548340e-01
-2.679884731769561768e-01
3.014162555336952209e-02
-9.268390946090221405e-03
-1.181215494871139526e-01
2.761633098125457764e-01
-1.309081818908452988e-02
-7.165643572807312012e-02
-1.666973228566348553e-03
8.259762078523635864e-02
1.358827110379934311e-02
-9.549779444932937622e-02
-1.275546997785568237e-01
3.169422447681427002e-01
3.014391064643859863e-01
-1.295661926269531250e-01
-2.225180901587009430e-02
7.255189865827560425e-02
2.867676317691802979e-01
6.666903942823410034e-02
1.059584468603134155e-01
-1.219217628240585327e-01
4.746576887555420399e-04
3.515608375892043114e-03
-3.647364908829331398e-03
3.577663749456405640e-02
1.154860630631446838e-01
1.720841825008392334e-01
-1.828799396753311157e-01
1.108243409544229507e-02
-5.148011073470115662e-02
-8.424785919487476349e-03
-2.567803561687469482e-01
-2.408600896596908569e-01
-1.365935057401657104e-01
-2.318376302719116211e-02
-9.213005751371383667e-02
-8.077447116374969482e-02
1.874579302966594696e-02
-3.632260113954544067e-02
6.948629021644592285e-02
-7.180738030001521111e-04
1.333944499492645264e-01
4.152549803256988525e-02
1.298054605722427368e-01
1.717667579650878906e-01
1.687965691089630127e-01
-1.204528147354722023e-03
-8.333262801170349121e-02
2.464475780725479126e-01
9.790267795324325562e-02
2.889462187886238098e-02
1.770645380020141602e-01
1.572085320949554443e-01
1.288605183362960815e-01
-3.635623678565025330e-02
3.046394884586334229e-02
1.667547523975372314e-01
-7.363060116767883301e-02
-5.570897087454795837e-02
1.834930479526519775e-01
2.085442394018173218e-01
7.840252667665481567e-02
-4.935048520565032959e-02
7.937086373567581177e-02
1.016819104552268982e-01
-8.208521455526351929e-02
-2.116820365190505981e-01
-6.644788663834333420e-04
-1.250112950801849365e-01
-2.239424176514148712e-02
-6.221749261021614075e-02
8.520517498254776001e-02
3.705030307173728943e-02
-6.775391846895217896e-02
-1.113170906901359558e-01
1.704166978597640991e-01
1.275874823331832886e-01
1.312819030135869980e-02
-1.519937217235565186e-01
8.875586092472076416e-02
-1.996634006500244141e-01
2.799960374832153320e-01
3.797166347503662109e-01
-7.456931471824645996e-02
6.759447045624256134e-03
1.010818965733051300e-02
1.976162642240524292e-01
1.701168157160282135e-02
2.260625660419464111e-01
-5.813889205455780029e-02
-1.898026019334793091e-01
1.258936673402786255e-01
1.205929964780807495e-01
-1.443548034876585007e-02
1.380225270986557007e-01
-5.540313199162483215e-02
2.331110537052154541e-01
6.169335171580314636e-02
-3.235267475247383118e-02
7.111492007970809937e-02
1.786590926349163055e-02
1.456562429666519165e-01
-6.788337230682373047e-02
1.109970882534980774e-01
-6.927265226840972900e-02
1.364582628011703491e-01
-3.081618808209896088e-02
1.050451621413230896e-01
-1.402962952852249146e-01
-3.570324927568435669e-02
-1.040801554918289185e-01
-1.391660235822200775e-02
-2.871749699115753174e-01
-1.089687198400497437e-01
-3.193427342921495438e-03
1.169518008828163147e-01
1.779561638832092285e-01
-1.596140414476394653e-01
6.895764265209436417e-03
4.786626249551773071e-02
5.619167536497116089e-02
-5.925799161195755005e-02
7.110864669084548950e-02
3.011992275714874268e-01
1.066597830504179001e-02
-8.483096957206726074e-02
1.632547006011009216e-02
2.338364273309707642e-01
-1.630527973175048828e-01
1.476114094257354736e-01
-5.755114555358886719e-02
1.467442661523818970e-01
1.011903956532478333e-01
-3.387471139430999756e-01
-1.164783239364624023e-01
3.750614821910858154e-02
2.932578623294830322e-01
-3.907040953636169434e-01
6.535148620605468750e-02
4.153092205524444580e-02
1.607764959335327148e-01
-3.815361112356185913e-02
1.768281012773513794e-01
-4.145246371626853943e-02
-1.019728109240531921e-01
-2.733308076858520508e-01
1.051559522747993469e-01
7.846473157405853271e-02
3.641454735770821571e-03
3.167972862720489502e-01
3.904953598976135254e-02
-6.900159269571304321e-02
-1.706367582082748413e-01
-8.602922409772872925e-02
1.224987804889678955e-01
-1.750586181879043579e-02
1.909223943948745728e-01
-4.137286916375160217e-02
1.620507687330245972e-01
5.218387395143508911e-02
1.987837404012680054e-01
-8.632983267307281494e-02
-1.633505374193191528e-01
1.053423713892698288e-02
-9.557557106018066406e-02
-9.620269387960433960e-02
2.013861089944839478e-01
6.104939430952072144e-02
4.506691545248031616e-02
6.230754777789115906e-02
1.220642924308776855e-01
-3.650806099176406860e-02
2.993315458297729492e-01
2.938091456890106201e-01
6.609880179166793823e-02
-2.064863443374633789e-01
2.653325796127319336e-01
2.903261184692382812e-01
-1.021654345095157623e-02
1.127401366829872131e-01
1.372204124927520752e-01
1.141820773482322693e-01
8.423990011215209961e-02
1.619868874549865723e-01
8.482859283685684204e-02
2.188129574060440063e-01
2.682639062404632568e-01
1.815852820873260498e-01
2.298125177621841431e-01
1.470860093832015991e-01
3.111446090042591095e-02
3.873625397682189941e-01
-6.559216231107711792e-02
-1.823259443044662476e-01
5.371796712279319763e-02
9.367061778903007507e-03
1.061129271984100342e-01
2.227136939764022827e-01
-7.280808687210083008e-02
-3.942444920539855957e-02
-3.383804857730865479e-01
1.459889858961105347e-01
-6.870128959417343140e-02
7.992186397314071655e-02
-2.791643440723419189e-01
1.467700153589248657e-01
1.397133618593215942e-01
2.721131145954132080e-01
-1.769851520657539368e-02
8.435630053281784058e-02
-7.139678299427032471e-02
6.030883267521858215e-02
3.369306027889251709e-02
-1.580102890729904175e-01
-8.850806206464767456e-02
1.965490132570266724e-01
-1.217471584677696228e-01
-1.272971034049987793e-01
4.404053324833512306e-04
4.331014752388000488e-01
-4.696956276893615723e-02
-1.602448374032974243e-01
-1.333886384963989258e-01
3.764790892601013184e-01
-2.627478539943695068e-01
-1.480654478073120117e-01
-1.855529546737670898e-01
-2.762269377708435059e-01
-2.208208106458187103e-02
2.071721702814102173e-01
8.620588108897209167e-03
-8.375328779220581055e-02
4.865260049700737000e-02
1.380874067544937134e-01
-2.923516556620597839e-02
-1.863721609115600586e-01
7.401887793093919754e-03
1.112051457166671753e-01
1.011255756020545959e-01
-9.999988600611686707e-03
-1.376365404576063156e-02
1.400755532085895538e-02
-7.249592244625091553e-02
-4.019051417708396912e-02
-7.953946478664875031e-03
1.013472974300384521e-01
-1.824515908956527710e-01
-1.230696775019168854e-02
-8.687855303287506104e-02
-9.292420931160449982e-03
-1.876472383737564087e-01
1.157068759202957153e-01
-4.224355146288871765e-02
-3.792203590273857117e-02
-2.514710724353790283e-01
-5.312722548842430115e-02
3.091627545654773712e-02
4.582149535417556763e-02
-1.249422729015350342e-01
-1.394438594579696655e-01
1.210298482328653336e-02
-9.018135070800781250e-02
1.399381458759307861e-01
6.442862004041671753e-02
-1.996231824159622192e-02
3.011420369148254395e-02
3.572791442275047302e-02
-4.224907606840133667e-02
-7.423835247755050659e-02
1.481199562549591064e-01
1.213975101709365845e-01
1.382045149803161621e-01
-1.856256872415542603e-01
-4.072614246979355812e-04
2.669593393802642822e-01
4.090243950486183167e-02
-2.226848714053630829e-02
1.358341127634048462e-01
9.628792107105255127e-02
-1.743448525667190552e-02
2.885287627577781677e-03
4.438027366995811462e-02
-1.250918116420507431e-02
-3.386717662215232849e-02
8.724294602870941162e-02
-6.065337359905242920e-02
-1.838404536247253418e-01
-5.210821330547332764e-02
-3.004224970936775208e-02
1.806910336017608643e-01
6.046980619430541992e-03
2.306520380079746246e-02
7.910244166851043701e-02
3.084695935249328613e-01
2.089089006185531616e-01
-3.613653406500816345e-02
-2.862766198813915253e-02
2.223472595214843750e-01
-3.040459752082824707e-02
-1.956152617931365967e-01
-1.287239193916320801e-01
3.308236133307218552e-03
8.253636956214904785e-02
-1.037894934415817261e-01
-1.065953522920608521e-01
-4.309579730033874512e-03
1.551670134067535400e-01
-7.446581870317459106e-02
-1.874506287276744843e-02
-8.079088293015956879e-03
4.152987897396087646e-02
1.468478292226791382e-01
-5.791108123958110809e-04
-4.417265881784260273e-04
-8.685558103024959564e-03
2.158643491566181183e-02
-5.379424989223480225e-02
-8.675642311573028564e-02
1.029144525527954102e-01
5.270709749311208725e-03
-1.979286372661590576e-01
-2.902617454528808594e-01
1.230284348130226135e-01
1.489618569612503052e-01
-5.847515538334846497e-02
1.393583267927169800e-01
7.381220161914825439e-02
5.692946910858154297e-02
-1.760315597057342529e-01
-8.682502061128616333e-02
4.200387299060821533e-01
5.218203738331794739e-02
1.214445605874061584e-01
-1.048164889216423035e-01
3.578805029392242432e-01
-1.096390783786773682e-01
4.824560508131980896e-02
1.518080085515975952e-01
-1.107757836580276489e-01
-1.676242053508758545e-01
3.143771365284919739e-02
-4.724316298961639404e-02
-3.699747025966644287e-01
-1.627785563468933105e-01
-1.576542407274246216e-01
3.536236286163330078e-02
-1.562744677066802979e-01
4.199901968240737915e-02
-3.994769230484962463e-02
-8.383326977491378784e-02
-1.743949651718139648e-01
6.165483221411705017e-02
-5.906299501657485962e-02
1.412934511899948120e-01
-6.169345229864120483e-02
1.251513808965682983e-01
-1.834644228219985962e-01
4.749209061264991760e-02
6.280492991209030151e-02
-1.498565226793289185e-01
-8.766053617000579834e-02
2.511426210403442383e-01
1.208914667367935181e-01
-1.585767418146133423e-02
7.646086066961288452e-02
2.276442497968673706e-01
1.485555469989776611e-01
-3.395323827862739563e-02
1.546949744224548340e-01
-8.425638079643249512e-02
8.451758325099945068e-02
-4.079703614115715027e-02
-3.144151344895362854e-02
2.949879132211208344e-02
-7.271435111761093140e-03
-6.875009089708328247e-02
-1.804715245962142944e-01
-1.188384369015693665e-01
5.269218981266021729e-02
-1.847663372755050659e-01
1.037508063018321991e-02
-8.582493662834167480e-02
3.673029541969299316e-01
-9.785282611846923828e-02
-8.602596074342727661e-02
-5.459668114781379700e-02
-5.393598112277686596e-04
8.129943162202835083e-02
-1.171334311366081238e-01
4.913539625704288483e-03
1.008227281272411346e-02
1.434848308563232422e-01
-1.929524540901184082e-02
3.772397339344024658e-02
6.854801625013351440e-02
1.117489039897918701e-01
-5.246971547603607178e-02
9.412199258804321289e-02
2.414758503437042236e-01
1.163432747125625610e-01
1.785643994808197021e-01
-2.699985206127166748e-01
6.336501240730285645e-02
3.862085044384002686e-01
1.414272934198379517e-01
8.741470426321029663e-02
1.023565009236335754e-01
2.125226557254791260e-01
7.139199972152709961e-02
1.247878596186637878e-01
1.351321339607238770e-01
7.987303286790847778e-02
1.154484376311302185e-01
7.159771770238876343e-02
1.378979831933975220e-01
9.679705649614334106e-02
6.121958419680595398e-02
3.414135193452239037e-03
-4.402240216732025146e-01
-6.657545268535614014e-02
9.414640069007873535e-02
-1.373602915555238724e-02
-3.714635595679283142e-02
4.460341762751340866e-03
-1.898365318775177002e-01
-3.270914405584335327e-02
3.076278604567050934e-02
-3.620656579732894897e-02
-8.943554013967514038e-02
1.307653188705444336e-01
-3.522206842899322510e-01
1.839905679225921631e-01
-1.608345657587051392e-01
1.131199002265930176e-01
1.015976145863533020e-01
6.985197216272354126e-02
9.259123355150222778e-02
2.130850553512573242e-01
-7.315564900636672974e-02
1.754374243319034576e-02
-1.491877809166908264e-02
2.630188688635826111e-02
-1.174569875001907349e-01
-7.659766823053359985e-02
-1.095680892467498779e-01
5.800636857748031616e-02
-1.346663385629653931e-01
-8.625828474760055542e-02
-1.440292149782180786e-01
2.257001399993896484e-02
2.659399993717670441e-02
-5.844231694936752319e-02
-1.109655294567346573e-02
-3.124153427779674530e-02
1.364077329635620117e-01
-9.556072205305099487e-02
-5.369950830936431885e-02
-1.232352033257484436e-01
-2.535198442637920380e-02
-1.414083987474441528e-01
1.667125225067138672e-01
8.072452247142791748e-02
-7.493868470191955566e-02
-1.665790975093841553e-01
-1.243718117475509644e-01
9.264659136533737183e-02
3.493050634860992432e-01
-4.180608317255973816e-02
-1.896240115165710449e-01
-8.487413078546524048e-02
1.246399357914924622e-01
-3.995749354362487793e-02
-1.583176851272583008e-01
7.940685003995895386e-02
4.160176515579223633e-01
-1.186235472559928894e-01
-2.103288918733596802e-01
4.031357765197753906e-01
6.436959654092788696e-02
-1.374814957380294800e-01
1.785284727811813354e-01
-1.903910487890243530e-01
1.902372688055038452e-01
2.441030554473400116e-02
7.777217775583267212e-02
8.743090555071830750e-03
-1.785995066165924072e-02
-4.705547168850898743e-02
-8.294855803251266479e-02
3.797197714447975159e-02
-3.064854070544242859e-02
4.414290189743041992e-02
-6.873589009046554565e-02
-2.400073781609535217e-02
-3.833498805761337280e-02
-4.768256843090057373e-02
-1.346855163574218750e-01
4.763167351484298706e-02
-1.632740497589111328e-01
6.868704408407211304e-02
-7.958894595503807068e-03
4.390356689691543579e-02
-9.551757946610450745e-03
-4.527290165424346924e-02
-1.212724950164556503e-02
-1.067351326346397400e-01
-3.040779568254947662e-02
-7.582649588584899902e-02
1.526087149977684021e-02
8.190773427486419678e-03
-4.699993506073951721e-02
-5.976955220103263855e-02
-1.992285996675491333e-02
-1.780404895544052124e-02
1.276024430990219116e-01
4.524087905883789062e-02
1.384732276201248169e-01
-1.429425328969955444e-01
6.684874743223190308e-02
5.480730440467596054e-03
-2.565998397767543793e-02
-1.648119390010833740e-01
4.909935593605041504e-02
-8.618215471506118774e-02
2.810750715434551239e-02
-4.023528099060058594e-02
6.549707148224115372e-03
-8.270844072103500366e-02
5.356629192829132080e-02
-8.839470148086547852e-02
4.379331693053245544e-02
4.808175191283226013e-02
-6.051014061085879803e-04
3.123380430042743683e-02
1.318920254707336426e-01
5.540663748979568481e-02
-8.908882737159729004e-03
1.247643753886222839e-01
1.378777623176574707e-01
2.080999910831451416e-01
1.655850708484649658e-01
2.516839802265167236e-01
3.300595581531524658e-01
2.352000959217548370e-02
1.252648830413818359e-01
8.683946728706359863e-02
1.025507748126983643e-01
1.996581070125102997e-02
8.957713842391967773e-02
-4.209464415907859802e-02
8.877739310264587402e-02
3.909192606806755066e-02
4.287373647093772888e-02
-2.439365908503532410e-02
3.634338080883026123e-02
4.725854378193616867e-03
-5.753729492425918579e-02
-1.111736521124839783e-01
3.970378637313842773e-02
6.597366929054260254e-02
2.986262179911136627e-02
-9.767643176019191742e-03
-8.567761629819869995e-02
-1.058373507112264633e-02
-7.049472630023956299e-02
-6.898377090692520142e-03
1.520457863807678223e-02
5.239538475871086121e-02
6.369500607252120972e-02
5.998174101114273071e-02
-5.049368366599082947e-02
-2.190308086574077606e-02
-4.652350209653377533e-03
7.747718691825866699e-02
-1.756772696971893311e-01
4.432563483715057373e-02
-2.334644794464111328e-01
1.407990157604217529e-01
-5.194886401295661926e-02
4.298523813486099243e-02
7.858005911111831665e-02
-1.212592273950576782e-01
1.420119106769561768e-01
-4.113455861806869507e-02
4.175183922052383423e-02
-1.538478303700685501e-02
1.794648915529251099e-01
-9.148686379194259644e-02
1.026079207658767700e-01
8.902431465685367584e-03
1.045792400836944580e-01
-4.611900448799133301e-02
8.445031195878982544e-02
7.470524311065673828e-02
-8.306396752595901489e-02
-2.450129576027393341e-02
-2.838647551834583282e-02
-2.673530578613281250e-02
-5.083460733294487000e-02
1.465088315308094025e-02
-1.895681023597717285e-03
5.016287788748741150e-02
-1.619700342416763306e-01
-2.639305219054222107e-02
-3.801713883876800537e-02
6.875496357679367065e-02
-1.477920711040496826e-01
-2.283257991075515747e-01
-1.001892089843750000e-01
-1.540727019309997559e-01
8.411245793104171753e-02
5.260238051414489746e-02
3.896538913249969482e-02
-1.446381770074367523e-02
7.068832218647003174e-02
1.555203199386596680e-01
3.614703193306922913e-02
7.380568236112594604e-02
1.575622409582138062e-01
2.120479568839073181e-02
1.321914512664079666e-02
8.972366154193878174e-02
-1.179776489734649658e-01
-7.325163483619689941e-02
-2.138108760118484497e-01
-1.778588742017745972e-01
6.468947976827621460e-02
-5.734442174434661865e-02
9.284732490777969360e-02
8.830450475215911865e-02
1.391638219356536865e-01
1.562953293323516846e-01
4.600600898265838623e-02
8.671946078538894653e-02
1.396638453006744385e-01
-3.480737656354904175e-02
3.723533451557159424e-02
5.290642380714416504e-02
2.769088149070739746e-01
-7.046587765216827393e-02
2.912185490131378174e-01
1.130401119589805603e-01
1.090704277157783508e-01
3.470489755272865295e-02
-6.646045297384262085e-02
-1.135706901550292969e-01
4.181493818759918213e-02
-2.269409038126468658e-02
-2.897098101675510406e-02
-7.065970450639724731e-02
4.566970840096473694e-02
2.388224191963672638e-02
-1.063458342105150223e-02
8.523906022310256958e-02
5.457734316587448120e-02
7.097507268190383911e-02
-1.243254840373992920e-01
2.305945903062820435e-01
-2.548131346702575684e-01
-5.371278524398803711e-02
-7.677429914474487305e-02
-8.914930373430252075e-02
-1.832929253578186035e-01
-4.028141126036643982e-02
-2.456111088395118713e-02
2.038448117673397064e-02
-4.900122061371803284e-02
-4.986803978681564331e-02
-2.211824618279933929e-02
-7.640762720257043839e-03
5.424682749435305595e-04
-7.962486147880554199e-02
-7.875531911849975586e-02
-6.802728027105331421e-02
-2.390387803316116333e-01
-1.932450979948043823e-01
-4.666596278548240662e-02
-4.054886400699615479e-01
-6.183176860213279724e-02
-9.718161076307296753e-02
-1.853876560926437378e-01
-3.834229409694671631e-01
-1.725231558084487915e-01
8.393922448158264160e-02
-1.819581836462020874e-01
-2.700074613094329834e-01
-1.890236437320709229e-01
4.192784428596496582e-02
1.146285310387611389e-01
-2.913763523101806641e-01
-1.975683867931365967e-01
-3.294804319739341736e-02
-7.955303043127059937e-02
-8.436067402362823486e-02
4.501222819089889526e-02
9.848338365554809570e-02
4.762735590338706970e-02
7.916343957185745239e-02
-3.862991929054260254e-02
-4.498816654086112976e-02
2.355261333286762238e-02
9.294900298118591309e-02
-5.827981606125831604e-02
-5.739166215062141418e-02
1.531457249075174332e-02
6.353586912155151367e-02
4.176001530140638351e-03
3.044384717941284180e-02
2.464895136654376984e-02
7.920924574136734009e-03
-9.722519665956497192e-03
-3.537974879145622253e-02
-1.757352501153945923e-01
-2.169347135350108147e-03
1.464219987392425537e-01
1.351913716644048691e-02
-3.410103172063827515e-02
1.132865548133850098e-01
-3.985701501369476318e-02
-4.487291350960731506e-02
-1.832305192947387695e-01
1.025256048887968063e-02
-1.170799136161804199e-01
5.073836073279380798e-02
-7.907162606716156006e-02
2.794092521071434021e-02
-1.859048455953598022e-01
1.689423024654388428e-01
7.025500759482383728e-03
-5.652018636465072632e-02
1.160333305597305298e-02
-1.776525005698204041e-02
1.210438832640647888e-02
-8.122335374355316162e-02
8.208105713129043579e-02
-6.317930668592453003e-02
1.717678643763065338e-02
-1.546021401882171631e-01
1.191219016909599304e-01
7.152483612298965454e-02
9.563236683607101440e-02
8.513716608285903931e-02
1.349094361066818237e-01
1.550962310284376144e-02
8.273088932037353516e-02
6.400166451930999756e-02
7.227792590856552124e-02
-1.220917981117963791e-02
1.747172325849533081e-02
6.107534281909465790e-03
2.090782672166824341e-02
8.301558904349803925e-03
2.545973658561706543e-02
-1.048490330576896667e-01
-6.396504491567611694e-02
6.444275379180908203e-02
-3.159909043461084366e-03
1.409067958593368530e-02
4.037212952971458435e-02
-7.319118082523345947e-02
2.900497987866401672e-02
1.509081944823265076e-02
3.218765556812286377e-01
1.894181221723556519e-02
-4.838392138481140137e-02
-8.959170430898666382e-02
5.923892185091972351e-02
5.222744867205619812e-02
-3.815423324704170227e-02
8.558578789234161377e-02
-5.392048507928848267e-02
-3.294901549816131592e-02
-7.503668963909149170e-02
-1.196434423327445984e-01
1.850629299879074097e-01
-1.800711601972579956e-01
6.855993997305631638e-03
-7.703533768653869629e-02
-7.587418705224990845e-02
-1.620975881814956665e-01
6.582696735858917236e-02
4.620937258005142212e-02
2.948516746982932091e-03
9.056208282709121704e-02
1.116278097033500671e-01
2.070838212966918945e-01
4.448075965046882629e-02
2.962466701865196228e-02
6.016904115676879883e-02
-1.438950002193450928e-01
-1.547663956880569458e-01
-1.005816739052534103e-02
1.910085231065750122e-01
-3.550896793603897095e-02
-2.512883953750133514e-02
1.885488443076610565e-02
-7.350855320692062378e-02
-5.937214568257331848e-02
-1.469517797231674194e-01
-9.234757721424102783e-02
9.212098666466772556e-04
6.604692433029413223e-03
8.145316690206527710e-02
-1.382994353771209717e-01
2.198829688131809235e-02
-2.200366705656051636e-01
-3.365187672898173332e-03
5.878136307001113892e-02
8.148671686649322510e-02
-7.501593232154846191e-02
-9.931941330432891846e-02
1.156307831406593323e-01
-8.712162077426910400e-02
1.353939343243837357e-02
-8.960516005754470825e-02
6.688231974840164185e-02
-1.468812227249145508e-01
-6.256584823131561279e-02
2.603072226047515869e-01
1.008416488766670227e-01
-3.921407833695411682e-02
1.490104496479034424e-01
1.259767860174179077e-01
-5.670568440109491348e-03
4.764539375901222229e-02
1.079116612672805786e-01
-2.174870669841766357e-02
1.785688474774360657e-02
1.831837370991706848e-02
9.246803820133209229e-02
-1.399976015090942383e-01
6.011017039418220520e-02
3.177177906036376953e-01
-9.344176203012466431e-02
1.093898639082908630e-01
5.174757167696952820e-02
1.185205485671758652e-02
2.737447023391723633e-01
2.470215596258640289e-02
-9.269507974386215210e-02
-6.915908306837081909e-02
1.026469469070434570e-01
-8.228252828121185303e-02
-1.766877062618732452e-02
-1.989771127700805664e-01
-9.498909115791320801e-02
-2.839053794741630554e-02
1.936129629611968994e-01
7.802359014749526978e-02
-1.261760443449020386e-01
-2.860289216041564941e-01
3.899815306067466736e-02
1.679461635649204254e-02
1.256611477583646774e-02
2.269130572676658630e-02
-6.866691261529922485e-02
1.963670365512371063e-02
-3.440570831298828125e-02
-1.181778311729431152e-01
4.856404289603233337e-02
-8.145131915807723999e-02
-7.772012799978256226e-02
1.061345115303993225e-01
1.435128152370452881e-01
4.387158527970314026e-02
-8.393830806016921997e-02
1.004218682646751404e-01
-4.247429966926574707e-02
1.791102439165115356e-02
-7.944976538419723511e-02
6.608354300260543823e-02
-4.797856509685516357e-02
2.324520424008369446e-02
8.817930519580841064e-02
-3.358635678887367249e-02
-7.392378896474838257e-02
-1.716834753751754761e-01
9.439099580049514771e-02
6.898102164268493652e-02
-4.470624402165412903e-02
7.290200889110565186e-02
6.822148710489273071e-02
1.248760074377059937e-01
-3.761972114443778992e-02
5.927325785160064697e-02
5.546644702553749084e-02
4.731698334217071533e-02
-1.153064593672752380e-01
-8.990610390901565552e-02
5.417513847351074219e-02
-4.468157887458801270e-02
1.586110442876815796e-01
-1.021600514650344849e-01
-5.134794861078262329e-02
-1.285526007413864136e-01
4.656562954187393188e-02
-9.738232940435409546e-02
-1.494158655405044556e-01
-3.508884459733963013e-02
6.937764585018157959e-02
-9.401689469814300537e-02
2.448120117187500000e-01
6.396362185478210449e-02
-4.613202437758445740e-02
-1.834735460579395294e-02
1.037598699331283569e-01
-3.150593116879463196e-02
-1.397997234016656876e-02
-6.288879364728927612e-02
-1.259014606475830078e-01
5.451223254203796387e-02
8.805394172668457031e-02
-2.143118716776371002e-02
-2.677333354949951172e-01
1.008993759751319885e-01
-2.530748024582862854e-02
4.948205128312110901e-02
-2.087961435317993164e-01
9.713821858167648315e-02
1.148052141070365906e-02
1.496477723121643066e-01
1.380348801612854004e-01
8.982793986797332764e-02
1.221854425966739655e-02
-2.288767322897911072e-02
1.205292791128158569e-01
1.961509231477975845e-03
-1.275873836129903793e-02
-6.381396949291229248e-02
-1.445107907056808472e-01
-1.230307519435882568e-01
-1.869186013936996460e-01
1.142616756260395050e-02
-1.519508808851242065e-01
-2.372590079903602600e-02
-6.126319244503974915e-02
2.234058082103729248e-02
2.312037348747253418e-01
-3.750161826610565186e-02
1.247362419962882996e-01
-4.698675870895385742e-02
1.351978033781051636e-01
-1.484478116035461426e-01
4.795646667480468750e-02
-3.878211602568626404e-02
5.959355086088180542e-02
5.038063228130340576e-02
2.189064025878906250e-02
1.353128403425216675e-01
-1.233268380165100098e-01
-3.127844631671905518e-02
3.605515137314796448e-02
1.090816333889961243e-01
-6.603080779314041138e-02
3.843791037797927856e-02
7.218283414840698242e-02
6.242177262902259827e-02
-1.126645132899284363e-01
-1.284582465887069702e-01
1.067256554961204529e-01
1.358138620853424072e-01
6.625226140022277832e-02
1.349319815635681152e-01
-1.388638168573379517e-01
-4.916609078645706177e-02
7.453890051692724228e-03
-2.650061435997486115e-02
-1.672981493175029755e-02
-2.975906245410442352e-02
-4.109826683998107910e-02
-1.804306358098983765e-01
-6.316559761762619019e-02
-1.773026888258755207e-03
-7.169423252344131470e-02
6.735143810510635376e-02
1.111885309219360352e-01
-2.467933483421802521e-02
1.601978540420532227e-01
2.026716321706771851e-01
-3.650549426674842834e-02
-1.173255890607833862e-01
-2.706409394741058350e-01
-9.111186116933822632e-02
-1.085292845964431763e-01
-1.399803608655929565e-01
-2.420256435871124268e-01
-9.731193631887435913e-02
7.013075519353151321e-03
-3.300112485885620117e-02
-1.490466296672821045e-01
-1.107816845178604126e-01
8.860128372907638550e-02
-2.901881746947765350e-02
-1.217863708734512329e-01
-1.166834458708763123e-01
-1.213331669569015503e-01
-6.682843714952468872e-02
-1.565394401550292969e-01
-1.184666901826858521e-02
-1.659804768860340118e-02
1.198680698871612549e-01
-1.584813296794891357e-01
-6.290867179632186890e-02
-2.134913764894008636e-02
1.304474472999572754e-01
-2.971614897251129150e-02
6.257473677396774292e-02
1.413823757320642471e-02
1.272149980068206787e-01
6.858438998460769653e-02
-2.791440486907958984e-02
-6.875903904438018799e-02
6.541832536458969116e-02
-7.629141211509704590e-02
-2.990437448024749756e-01
-1.800087243318557739e-01
-5.889668129384517670e-03
-6.874349433928728104e-03
-1.289312243461608887e-01
-1.269663125276565552e-01
-1.354162488132715225e-02
8.876589126884937286e-03
-1.730853915214538574e-01
-6.282604485750198364e-02
1.474556028842926025e-01
-5.720096640288829803e-03
9.424738585948944092e-02
4.519188031554222107e-02
1.725672483444213867e-01
2.040753215551376343e-01
4.031771421432495117e-02
-1.405798345804214478e-01
-5.981413275003433228e-02
1.199423596262931824e-01
1.361918449401855469e-01
-8.604473620653152466e-02
-1.994542963802814484e-02
1.210092678666114807e-01
-3.463310003280639648e-02
-3.737717168405652046e-03
2.602834440767765045e-02
4.658178240060806274e-02
-2.150084823369979858e-02
1.036648750305175781e-01
-7.492256164550781250e-02
-6.229341030120849609e-03
-1.069334428757429123e-02
-2.437421306967735291e-02
-6.056943908333778381e-02
-3.732970729470252991e-02
-5.470816977322101593e-04
-8.399555832147598267e-02
-5.186882987618446350e-02
4.920539259910583496e-02
-2.366100065410137177e-02
7.535661756992340088e-02
-1.286021471023559570e-01
-3.363519534468650818e-02
-1.213884726166725159e-01
1.657066494226455688e-01
-4.060674458742141724e-03
1.564222574234008789e-01
-1.941885203123092651e-01
2.327060699462890625e-02
9.686110541224479675e-03
8.375324308872222900e-03
-1.151944845914840698e-01
-4.544010013341903687e-02
-5.463240295648574829e-02
2.731283381581306458e-02
-6.932060420513153076e-02
-6.313061807304620743e-03
1.333576589822769165e-01
-1.771670579910278320e-01
1.150378659367561340e-01
1.467026770114898682e-01
2.346944808959960938e-01
1.646984368562698364e-01
-2.331883832812309265e-02
8.527461439371109009e-02
-5.788714438676834106e-02
-1.005589514970779419e-01
7.827484607696533203e-02
1.346036642789840698e-01
1.124844402074813843e-01
-8.109778910875320435e-02
1.113305985927581787e-01
2.389042824506759644e-01
1.476224213838577271e-01
5.601802468299865723e-02
-8.287908858619630337e-04
-2.494686469435691833e-02
-1.026371419429779053e-01
-6.621575355529785156e-02
6.258838623762130737e-02
4.938890039920806885e-02
4.440530389547348022e-02
8.364972658455371857e-03
-6.555636227130889893e-02
-3.412812948226928711e-02
5.414907261729240417e-02
-2.190282493829727173e-01
-1.931769773364067078e-02
-4.507637768983840942e-02
-4.310346767306327820e-02
-1.371699124574661255e-01
-3.067769408226013184e-01
1.377365440130233765e-01
9.573980350978672504e-04
-8.368232101202011108e-02
1.294166129082441330e-02
-1.115674376487731934e-01
6.820921599864959717e-02
-4.373063892126083374e-02
2.572342455387115479e-01
2.447465248405933380e-02
6.750109791755676270e-02
-9.293064475059509277e-02
1.201081722974777222e-01
1.289919912815093994e-01
-3.833391517400741577e-02
-3.591180965304374695e-02
-7.275238633155822754e-02
4.954881966114044189e-02
-2.262116782367229462e-02
1.495714019984006882e-02
-5.408805236220359802e-02
4.443656280636787415e-02
3.156674653291702271e-02
-1.698490977287292480e-01
-5.732352286577224731e-02
-2.101562544703483582e-02
-5.555530264973640442e-02
6.547596771270036697e-03
-9.911462664604187012e-02
-8.843875676393508911e-02
7.584180682897567749e-02
-9.510809555649757385e-03
6.320562958717346191e-02
8.528258651494979858e-02
3.478960320353507996e-02
6.779707223176956177e-02
-1.548589486628770828e-02
-1.281964629888534546e-01
-9.221930056810379028e-03
-4.837574064731597900e-02
1.308763027191162109e-02
-1.420388519763946533e-01
-9.430612623691558838e-02
1.522669685073196888e-03
3.706917166709899902e-02
-1.801887303590774536e-01
1.337183266878128052e-02
-8.873980492353439331e-02
1.335612833499908447e-01
1.936610192060470581e-01
6.775616109371185303e-02
1.998793184757232666e-01
-9.713970869779586792e-02
1.139824613928794861e-01
-8.614134974777698517e-03
-6.606590747833251953e-02
-8.271107822656631470e-02
9.404587745666503906e-02
-9.496829472482204437e-03
2.417669892311096191e-01
-7.880390435457229614e-02
3.915133699774742126e-02
-1.155477911233901978e-01
-4.990621004253625870e-03
-1.379867047071456909e-01
6.713943928480148315e-02
-8.354751765727996826e-02
7.274693250656127930e-02
1.458143070340156555e-02
7.914726436138153076e-02
-3.857926279306411743e-02
1.220783814787864685e-01
7.190342992544174194e-02
7.432321086525917053e-03
3.408535569906234741e-02
5.522091314196586609e-02
7.601694017648696899e-02
4.901164770126342773e-02
3.145709633827209473e-02
6.633293628692626953e-02
-5.680181831121444702e-02
-4.288971796631813049e-02
-7.868042215704917908e-03
3.508285060524940491e-02
-1.007897704839706421e-01
-4.156865924596786499e-02
-8.101119101047515869e-02
-1.027809530496597290e-01
5.698306113481521606e-02
6.351874023675918579e-02
7.466357201337814331e-02
2.853249758481979370e-02
-1.399283409118652344e-01
1.118717342615127563e-02
2.799454145133495331e-02
-1.146194917964749038e-04
1.794126480817794800e-01
1.691482514142990112e-01
-1.668494343757629395e-01
-3.111636452376842499e-02
-1.703341491520404816e-02
8.172778785228729248e-02
-2.026494778692722321e-02
1.969417035579681396e-01
7.946581393480300903e-02
5.672980844974517822e-02
-4.691335838288068771e-03
1.608589738607406616e-01
1.716396361589431763e-01
1.585631519556045532e-01
6.989635527133941650e-02
6.443958263844251633e-03
2.327443659305572510e-01
-2.563545294106006622e-02
-6.550671905279159546e-02
1.651737242937088013e-01
4.315743967890739441e-02
-6.123183667659759521e-02
-7.123215496540069580e-02
4.279845952987670898e-02
1.321077048778533936e-01
5.073508247733116150e-02
-1.090522296726703644e-02
-1.296071410179138184e-01
-3.619422763586044312e-02
-1.667156666517257690e-01
1.000369489192962646e-01
8.134680800139904022e-03
7.262637466192245483e-02
1.691339612007141113e-01
1.189007982611656189e-02
4.899295046925544739e-02
-1.115855425596237183e-01
-8.706431835889816284e-02
-1.298641134053468704e-02
-1.173452585935592651e-01
3.775383159518241882e-02
6.345693953335285187e-03
-3.395681455731391907e-02
-6.451583653688430786e-02
8.910435438156127930e-02
-3.058269321918487549e-01
4.873824864625930786e-02
1.272831410169601440e-01
1.436006277799606323e-02
-8.658105134963989258e-02
-2.699795551598072052e-02
6.523943692445755005e-02
1.162196919322013855e-01
6.776281632483005524e-03
-2.340678125619888306e-02
-7.775729149580001831e-02
-3.448658064007759094e-02
7.748578209429979324e-04
-6.970838457345962524e-02
-5.634522438049316406e-02
-5.273736640810966492e-02
6.465610861778259277e-02
-8.379819244146347046e-02
-1.631109118461608887e-01
-1.304275095462799072e-01
-8.185350894927978516e-02
4.955280944705009460e-02
1.592999091371893883e-03
-8.515835553407669067e-02
7.704751938581466675e-02
6.594486068934202194e-03
3.411865979433059692e-02
9.748085588216781616e-02
7.676065713167190552e-02
-4.335581883788108826e-02
2.486960403621196747e-02
1.265304982662200928e-01
-2.697765640914440155e-02
-1.111261248588562012e-01
7.758517563343048096e-02
-6.242001801729202271e-02
9.012667089700698853e-02
-1.787699311971664429e-01
-1.104656234383583069e-01
-9.614114463329315186e-02
-9.601019322872161865e-02
3.964763879776000977e-02
-9.623130410909652710e-02
2.501427233219146729e-01
9.241917729377746582e-02
-5.251180380582809448e-02
-2.711742520332336426e-01
-1.835895925760269165e-01
-2.114701718091964722e-01
-9.767814725637435913e-02
3.781489655375480652e-02
-1.385235935449600220e-01
-1.944256424903869629e-01
3.377297520637512207e-02
3.682774305343627930e-02
1.047455519437789917e-01
8.422679454088211060e-02
-6.626492738723754883e-02
9.745267778635025024e-02
-2.080976217985153198e-02
6.322182714939117432e-02
-2.998111955821514130e-02
3.242012113332748413e-02
-5.818224325776100159e-02
-2.021227777004241943e-01
-6.111170724034309387e-02
6.709173321723937988e-02
1.276180297136306763e-01
1.359070986509323120e-01
-1.172805652022361755e-01
6.296182051301002502e-03
4.410099238157272339e-02
-7.609304040670394897e-02
-3.969928249716758728e-02
-1.457495838403701782e-01
4.462009295821189880e-02
1.736355200409889221e-02
1.039378941059112549e-01
-1.761088669300079346e-01
-3.322159126400947571e-02
-4.739836603403091431e-02
7.197921723127365112e-02
1.897660344839096069e-01
-4.432700574398040771e-02
-2.892627008259296417e-02
-1.326107382774353027e-01
-5.448532477021217346e-02
3.859182074666023254e-02
1.623834669589996338e-01
-4.157359153032302856e-02
1.394271701574325562e-01
1.651881039142608643e-01
1.942896097898483276e-02
1.438694633543491364e-02
-7.152099907398223877e-02
-4.353031516075134277e-02
-1.008769795298576355e-01
-5.919931922107934952e-03
-2.703430652618408203e-01
7.549905031919479370e-02
5.787748470902442932e-02
