1.062926128506660461e-01
3.494851291179656982e-02
5.148068815469741821e-02
2.503637969493865967e-01
5.854045227169990540e-02
3.568620607256889343e-02
1.170506775379180908e-01
9.602763503789901733e-02
5.501156300306320190e-02
1.236103624105453491e-01
1.387641727924346924e-01
-7.312221452593803406e-03
-7.280690222978591919e-02
2.930256165564060211e-02
5.055712535977363586e-02
-1.000326685607433319e-02
2.440321259200572968e-02
-9.100936353206634521e-02
-1.141553372144699097e-01
9.016569238156080246e-04
6.905630230903625488e-02
1.737622916698455811e-01
1.586219817399978638e-01
7.784993201494216919e-02
3.004724085330963135e-01
-9.474132955074310303e-02
-5.782954394817352295e-02
-3.830294311046600342e-02
1.251019984483718872e-01
1.402990818023681641e-01
1.189227681607007980e-03
3.902973234653472900e-02
1.624030433595180511e-02
-7.192465476691722870e-03
9.876301139593124390e-02
-5.037171021103858948e-02
9.308598935604095459e-02
6.664627045392990112e-02
8.576029539108276367e-02
-7.962300628423690796e-02
8.329281210899353027e-02
2.224119752645492554e-02
2.072311490774154663e-01
-7.076090574264526367e-02
6.357710808515548706e-02
1.545216329395771027e-02
5.554350838065147400e-02
1.020695418119430542e-01
6.826906651258468628e-02
1.030204445123672485e-02
1.186448410153388977e-01
5.098270252346992493e-02
1.080538630485534668e-01
8.764073252677917480e-02
9.945826977491378784e-02
7.904113084077835083e-02
3.619134053587913513e-02
-2.038391865789890289e-02
-2.995038032531738281e-02
1.889174882307997905e-06
8.706887811422348022e-02
1.140954345464706421e-01
4.840275272727012634e-02
1.214823797345161438e-01
7.216934859752655029e-02
5.027613043785095215e-02
1.294858157634735107e-01
1.491227746009826660e-01
-1.039965078234672546e-01
1.025452762842178345e-01
4.673556238412857056e-02
2.105133142322301865e-03
6.701722741127014160e-02
-5.219465587288141251e-03
-5.016656219959259033e-02
1.685961335897445679e-01
-2.623739652335643768e-02
-1.769239455461502075e-02
-1.233085617423057556e-01
-1.114531382918357849e-01
1.174996569752693176e-01
1.714678257703781128e-01
1.810446195304393768e-02
1.265095267444849014e-02
4.000793676823377609e-03
1.068160608410835266e-01
1.127837225794792175e-01
1.010930910706520081e-01
1.214681193232536316e-01
2.027906663715839386e-02
-1.087739616632461548e-01
5.159085988998413086e-02
-1.863138750195503235e-02
6.764365732669830322e-02
9.944833070039749146e-02
4.663645755499601364e-03
1.038956269621849060e-01
8.508948981761932373e-02
6.357324123382568359e-02
8.200361579656600952e-02
4.811547696590423584e-02
-3.767416812479496002e-03
-1.105204448103904724e-01
9.022477269172668457e-02
1.926512271165847778e-02
1.617185473442077637e-01
6.690036505460739136e-02
6.859797984361648560e-02
1.091197058558464050e-01
1.073510572314262390e-01
5.951345711946487427e-02
2.722219936549663544e-02
1.184240281581878662e-01
1.143051758408546448e-01
3.987538442015647888e-02
4.384170100092887878e-02
2.138284891843795776e-01
7.297664135694503784e-02
-6.563967559486627579e-03
-8.727342821657657623e-03
