-3.546673804521560669e-02
-1.253230571746826172e-01
-2.166411131620407104e-01
-1.182531267404556274e-01
1.370529979467391968e-01
-1.168682649731636047e-01
1.165706291794776917e-02
-1.714516133069992065e-01
1.907196789979934692e-01
3.111795149743556976e-02
-1.473920792341232300e-02
-2.904416434466838837e-02
-1.494897156953811646e-01
7.645302265882492065e-02
1.208237782120704651e-01
-3.156046941876411438e-02
-5.189419388771057129e-01
2.763533294200897217e-01
-3.938448727130889893e-01
1.575755476951599121e-01
-2.764534056186676025e-01
-1.429406851530075073e-01
3.020430682227015495e-03
-9.100697934627532959e-02
-2.605368196964263916e-01
6.410956382751464844e-03
1.058847382664680481e-01
-2.614590153098106384e-02
4.576790332794189453e-02
8.589049428701400757e-02
5.836552381515502930e-02
1.515373308211565018e-02
2.505848184227943420e-02
1.433560275472700596e-03
4.214991256594657898e-02
1.222336888313293457e-01
-5.925751850008964539e-02
2.658106684684753418e-01
-1.955803483724594116e-01
-3.343436494469642639e-02
4.363802820444107056e-02
-1.188678760081529617e-02
2.115787193179130554e-02
1.554537415504455566e-01
2.910664081573486328e-01
-3.503149449825286865e-01
6.086223199963569641e-02
-2.186887264251708984e-01
2.892177086323499680e-03
3.102549314498901367e-01
-4.013920426368713379e-01
3.341070413589477539e-01
1.226503774523735046e-01
2.371473908424377441e-01
-3.919535130262374878e-02
2.243333160877227783e-01
1.029915884137153625e-01
7.540015876293182373e-02
9.524583071470260620e-02
1.287617981433868408e-01
-1.917041838169097900e-01
-1.971536576747894287e-01
2.233003079891204834e-02
-7.216694951057434082e-02
-4.369882866740226746e-02
-1.181272268295288086e-01
-4.348973631858825684e-01
-9.213860332965850830e-02
3.062240779399871826e-01
-1.238803714513778687e-01
7.770141121000051498e-03
1.257383972406387329e-01
1.733727306127548218e-01
7.867780327796936035e-02
2.103410661220550537e-01
-6.266297399997711182e-02
7.655423134565353394e-02
1.503942757844924927e-01
3.622339367866516113e-01
2.108685299754142761e-02
-1.271872222423553467e-01
-1.502487659454345703e-01
-3.658473142422735691e-04
-7.509084045886993408e-02
1.105893477797508240e-01
2.274253219366073608e-01
2.184316515922546387e-01
4.416947439312934875e-02
1.772694885730743408e-01
1.268141567707061768e-01
1.018995195627212524e-01
1.092403158545494080e-01
1.461219042539596558e-01
5.024720728397369385e-02
2.844929099082946777e-01
-2.123901806771755219e-02
1.459008008241653442e-01
-2.006832510232925415e-02
2.194847539067268372e-02
2.646233141422271729e-01
-2.617229521274566650e-01
6.010619550943374634e-02
-4.479274153709411621e-02
-7.195293903350830078e-02
1.610359698534011841e-01
9.407617896795272827e-02
3.162837028503417969e-02
3.361433744430541992e-01
1.293242126703262329e-01
7.740945369005203247e-02
9.035490453243255615e-02
9.341336041688919067e-02
3.809813410043716431e-02
-3.377909585833549500e-02
-1.986858248710632324e-01
-2.109315432608127594e-02
-7.279309630393981934e-02
2.958146929740905762e-01
2.523183822631835938e-03
5.796147137880325317e-02
2.341841161251068115e-01
-2.513346374034881592e-01
-7.556349039077758789e-03
-1.697746813297271729e-01
2.586114704608917236e-01
-2.032058387994766235e-01
-8.435726910829544067e-02
6.496229767799377441e-02
3.601982295513153076e-01
3.558093309402465820e-02
9.731646627187728882e-02
-2.013223916292190552e-01
-9.342741966247558594e-02
-1.253004223108291626e-01
-1.909906417131423950e-02
-1.850864142179489136e-01
-6.161522269248962402e-01
-2.142963260412216187e-01
-2.167578488588333130e-01
2.039871364831924438e-01
3.775290027260780334e-02
1.183155924081802368e-01
1.156216580420732498e-02
9.529967792332172394e-03
-1.785488277673721313e-01
-1.696684397757053375e-02
1.512507349252700806e-01
2.150249630212783813e-01
3.014299869537353516e-01
4.879324883222579956e-02
-1.899452805519104004e-01
5.929094552993774414e-02
-1.979628503322601318e-01
-1.128570958971977234e-01
1.640809029340744019e-01
4.734688103199005127e-01
-4.114243760704994202e-02
8.314136415719985962e-02
-1.388020515441894531e-01
2.993644401431083679e-02
-6.473148241639137268e-04
8.715720474720001221e-02
-1.803503334522247314e-01
4.689088463783264160e-02
7.520370185375213623e-02
-7.838924974203109741e-02
-6.382533162832260132e-02
-3.501631617546081543e-01
3.465284109115600586e-01
-1.416886895895004272e-01
1.987372338771820068e-02
1.700869351625442505e-01
-1.580319926142692566e-02
2.581681013107299805e-01
3.556452095508575439e-01
1.919912397861480713e-01
3.575020283460617065e-02
2.442540600895881653e-02
3.368359059095382690e-02
4.469294473528862000e-02
-4.839778319001197815e-02
3.121755421161651611e-01
-8.616088330745697021e-02
1.588236987590789795e-01
4.301267676055431366e-03
1.535274535417556763e-01
-5.532459914684295654e-02
1.619103103876113892e-01
1.993899419903755188e-02
7.346510142087936401e-02
8.469635248184204102e-02
2.489818781614303589e-01
-1.653199642896652222e-01
-1.772820502519607544e-01
-2.021531313657760620e-01
-2.894661575555801392e-02
-2.961877584457397461e-01
-6.394098401069641113e-01
4.040035307407379150e-01
1.080748857930302620e-03
-2.783374190330505371e-01
-2.223475426435470581e-01
4.319078028202056885e-01
7.244446128606796265e-02
2.399731241166591644e-02
3.479262888431549072e-01
2.569488622248172760e-02
6.722608115524053574e-03
9.222435951232910156e-02
7.511828839778900146e-02
-4.282216131687164307e-01
1.773070544004440308e-01
1.221121177077293396e-01
1.466255076229572296e-02
-2.517768740653991699e-01
1.536870300769805908e-01
-1.228735744953155518e-01
-8.594626933336257935e-02
1.603761613368988037e-01
2.296861559152603149e-01
-2.360974401235580444e-01
3.047960996627807617e-02
6.875910609960556030e-02
3.903036713600158691e-01
1.879042573273181915e-02
-1.512579619884490967e-01
-3.468873351812362671e-02
1.747056841850280762e-01
1.631435006856918335e-01
1.886147856712341309e-01
1.148976311087608337e-01
1.533381640911102295e-02
-8.484126627445220947e-02
1.558386385440826416e-01
1.552223116159439087e-01
-8.688700944185256958e-02
-3.818994760513305664e-02
3.890566527843475342e-01
3.488974273204803467e-02
-1.329626142978668213e-01
-2.169427424669265747e-01
-9.415187686681747437e-02
1.201619729399681091e-01
-7.117401808500289917e-02
-7.017161697149276733e-02
1.584760248661041260e-01
-1.623328626155853271e-01
7.355412095785140991e-02
-1.651198416948318481e-01
3.565298765897750854e-02
-3.066114187240600586e-01
-3.100326061248779297e-01
2.251963168382644653e-01
-2.130016982555389404e-01
2.919724881649017334e-01
-2.576790750026702881e-01
-3.227165043354034424e-01
-1.811772771179676056e-02
-3.277807533740997314e-01
1.178730279207229614e-02
1.604508906602859497e-01
-6.022348534315824509e-03
6.751766800880432129e-02
-2.453005760908126831e-01
2.474234700202941895e-01
-1.080053001642227173e-01
-2.269157581031322479e-02
-1.377501934766769409e-01
2.134404927492141724e-01
-2.616612613201141357e-01
1.363383326679468155e-02
1.318715512752532959e-01
-5.632179230451583862e-02
2.239500284194946289e-01
-3.430075943470001221e-02
1.017441228032112122e-01
3.224759101867675781e-01
1.005147472023963928e-01
7.865113019943237305e-02
3.383484482765197754e-01
-8.692713081836700439e-02
3.163046389818191528e-02
2.332791388034820557e-01
3.568891808390617371e-02
-6.403604149818420410e-02
-2.747805602848529816e-02
1.568236351013183594e-01
-4.255255162715911865e-01
3.412981927394866943e-01
-3.035740461200475693e-03
-4.908951744437217712e-02
2.319895178079605103e-01
4.354606196284294128e-02
-4.249568879604339600e-01
2.206842899322509766e-01
3.688509389758110046e-02
1.259468793869018555e-01
1.195790246129035950e-01
-2.009723521769046783e-02
-5.253494903445243835e-02
2.766112387180328369e-01
1.720573753118515015e-01
-3.576968982815742493e-02
4.058544989675283432e-03
-2.966281473636627197e-01
2.459331601858139038e-02
1.903565227985382080e-01
4.126400947570800781e-01
-2.275007963180541992e-01
7.726694643497467041e-02
-1.783988252282142639e-02
-8.969407528638839722e-02
2.149339020252227783e-01
-3.077965416014194489e-02
-2.046398073434829712e-01
-2.874440513551235199e-02
2.501052320003509521e-01
-7.463730871677398682e-02
-5.577834248542785645e-01
-1.282262802124023438e-01
-5.942866578698158264e-02
2.277453243732452393e-01
1.032238081097602844e-02
-1.188149154186248779e-01
3.390202298760414124e-02
1.506091058254241943e-01
-9.014230221509933472e-02
-1.855212450027465820e-01
1.447070538997650146e-01
-1.633834391832351685e-01
-4.764122422784566879e-03
-2.605959773063659668e-01
1.468692570924758911e-01
-1.248749345541000366e-01
2.549439668655395508e-01
-1.422291714698076248e-02
-2.220266461372375488e-01
-2.577451169490814209e-01
-2.217756360769271851e-01
1.845843791961669922e-01
-1.040782481431961060e-01
-1.450010240077972412e-01
-4.230914115905761719e-01
3.179935216903686523e-01
1.751923933625221252e-02
6.471010297536849976e-02
-3.192408084869384766e-01
-1.313977986574172974e-01
1.938121616840362549e-01
2.230760157108306885e-01
1.448321044445037842e-01
-1.392652839422225952e-01
1.025136858224868774e-01
5.039232969284057617e-01
2.377593964338302612e-01
1.926563233137130737e-01
3.086480498313903809e-01
6.472059339284896851e-02
1.570498943328857422e-02
5.594325438141822815e-02
3.307726979255676270e-02
-2.217420637607574463e-01
-4.908563941717147827e-02
3.473953530192375183e-02
-2.680127024650573730e-01
-4.489683359861373901e-02
-1.599650233983993530e-01
-1.079945415258407593e-01
-3.668894059956073761e-03
2.180389016866683960e-01
9.761488437652587891e-02
4.345728456974029541e-02
-2.129090577363967896e-01
1.417591124773025513e-01
2.341694384813308716e-02
-1.427554152905941010e-02
-3.180003911256790161e-02
1.203701123595237732e-01
-1.154152452945709229e-01
9.330114349722862244e-03
4.829580709338188171e-02
1.182349771261215210e-01
2.337922006845474243e-01
2.851172685623168945e-01
-1.960493996739387512e-02
-2.666779756546020508e-01
-7.055353373289108276e-03
4.156830534338951111e-02
2.383143007755279541e-01
1.981893181800842285e-01
1.643362790346145630e-01
-1.621146351099014282e-01
-1.915356218814849854e-01
2.534989453852176666e-02
1.446665227413177490e-01
-8.093845099210739136e-02
-2.077388018369674683e-01
-7.694387435913085938e-02
-7.430233806371688843e-02
-6.662281751632690430e-01
-3.977161645889282227e-02
-1.083447262644767761e-01
-1.517636328935623169e-01
-2.620324492454528809e-01
2.140085399150848389e-01
-1.947345137596130371e-01
-3.369917869567871094e-01
-1.066308096051216125e-02
2.009285092353820801e-01
2.652068138122558594e-01
4.055011644959449768e-02
-1.692010164260864258e-01
1.112687960267066956e-01
4.355173557996749878e-02
-4.843022301793098450e-02
1.761753708124160767e-01
-2.579851746559143066e-01
-2.740160226821899414e-01
4.416345804929733276e-02
2.950069606304168701e-01
-1.175380945205688477e-01
6.847193837165832520e-02
2.591300606727600098e-01
-1.457447409629821777e-01
-4.008641093969345093e-02
5.748768523335456848e-02
9.350714087486267090e-02
-1.985637657344341278e-02
-2.483180314302444458e-01
4.601860418915748596e-02
-2.589932382106781006e-01
1.725381761789321899e-01
-2.738212049007415771e-02
5.398804321885108948e-02
1.225358098745346069e-01
9.224742650985717773e-02
-2.831732332706451416e-01
-1.053804717957973480e-02
1.771824657917022705e-01
-2.184303849935531616e-01
-9.892283380031585693e-02
1.687870323657989502e-01
-2.213396877050399780e-01
-7.856447994709014893e-02
4.485550522804260254e-02
-2.368577867746353149e-01
4.532638490200042725e-01
4.853069037199020386e-02
-3.261873722076416016e-01
1.806967705488204956e-01
1.270125508308410645e-01
1.321488711982965469e-02
-2.412184178829193115e-01
9.245635569095611572e-02
1.879622489213943481e-01
3.903484940528869629e-01
2.043111026287078857e-01
3.609806001186370850e-01
2.577618360519409180e-01
-1.336484849452972412e-01
-2.216480225324630737e-01
-2.803190052509307861e-01
-1.319822669029235840e-01
3.023362159729003906e-01
3.441775739192962646e-01
1.501251906156539917e-01
1.715703904628753662e-01
9.691486507654190063e-02
1.820412725210189819e-01
4.905666038393974304e-02
2.885510325431823730e-01
1.069166138768196106e-01
-9.647996723651885986e-02
1.438308954238891602e-01
-2.162659615278244019e-01
-1.410907655954360962e-01
4.924273490905761719e-02
4.461861550807952881e-01
-1.565433591604232788e-01
-2.629732787609100342e-01
2.790482714772224426e-02
1.454432058380916715e-04
4.539245739579200745e-02
2.229689434170722961e-02
-5.190274212509393692e-03
2.285949885845184326e-01
-2.497761994600296021e-01
-2.353163808584213257e-02
-3.631097972393035889e-01
3.254456818103790283e-01
6.128442287445068359e-02
-3.334498032927513123e-02
-1.975877285003662109e-01
2.600680105388164520e-02
1.230792552232742310e-01
-1.539807021617889404e-01
-7.725504040718078613e-02
1.423122286796569824e-01
-2.207327634096145630e-01
2.164028882980346680e-01
1.112447902560234070e-01
2.024818509817123413e-01
-1.728788390755653381e-02
-1.073565557599067688e-01
1.894408017396926880e-01
-3.446889817714691162e-01
-5.356431007385253906e-02
3.163240253925323486e-01
-1.444471180438995361e-01
-1.098593026399612427e-01
-9.540870785713195801e-02
-2.183656692504882812e-01
1.030622273683547974e-01
-2.067474126815795898e-01
-7.440613955259323120e-02
-3.670721873641014099e-02
1.791444569826126099e-01
5.563026666641235352e-02
9.782353788614273071e-02
-1.832929402589797974e-01
-1.318251341581344604e-01
-2.078143358230590820e-01
2.504124939441680908e-01
-1.225160136818885803e-01
3.447667881846427917e-02
-2.311687469482421875e-01
2.499214112758636475e-01
-2.134347409009933472e-01
1.784843504428863525e-01
-1.249682623893022537e-02
2.140438370406627655e-02
4.903188049793243408e-01
1.438697129487991333e-01
-4.061021208763122559e-01
2.908844649791717529e-01
1.346432883292436600e-02
-1.002145837992429733e-02
1.543609350919723511e-01
-3.264061510562896729e-01
-3.920259177684783936e-01
1.472910791635513306e-01
1.801219731569290161e-01
-2.170956693589687347e-02
1.806604564189910889e-01
-2.761656939983367920e-01
7.457159459590911865e-02
3.316125273704528809e-01
2.378665506839752197e-01
-8.723452687263488770e-02
-3.055982291698455811e-02
-4.533270746469497681e-02
-5.176724791526794434e-01
2.252090424299240112e-01
-1.323326975107192993e-01
5.550287663936614990e-02
9.847001731395721436e-02
-2.319880723953247070e-01
-1.747147738933563232e-01
-1.476352661848068237e-01
-2.046366482973098755e-01
2.026069611310958862e-01
4.068040549755096436e-01
-1.196294277906417847e-01
1.749486774206161499e-01
-5.991344526410102844e-02
-1.176139488816261292e-01
1.629909425973892212e-01
3.576790094375610352e-01
-1.481379121541976929e-01
1.672592908143997192e-01
-6.493281573057174683e-03
-1.668243259191513062e-01
4.277752339839935303e-02
-5.530142411589622498e-02
-3.872420638799667358e-02
-1.662293523550033569e-01
-1.577195525169372559e-01
1.664034575223922729e-01
7.014244049787521362e-02
1.431360393762588501e-01
-2.926890850067138672e-01
2.408696264028549194e-01
-1.009670421481132507e-01
4.137731790542602539e-01
2.777165174484252930e-01
2.545137405395507812e-01
3.681971505284309387e-02
-2.599640786647796631e-01
-2.238564938306808472e-01
2.283586747944355011e-02
-1.239923387765884399e-01
5.753663927316665649e-02
-1.998905837535858154e-01
-7.695794850587844849e-02
2.739216983318328857e-01
1.566412746906280518e-01
7.587256282567977905e-02
1.160974130034446716e-01
-1.809090934693813324e-02
-7.599710673093795776e-02
-4.771258682012557983e-02
-8.166702464222908020e-03
7.799995597451925278e-03
3.616320714354515076e-02
1.463314145803451538e-01
3.746875002980232239e-02
2.433971464633941650e-01
3.794101253151893616e-02
1.226495504379272461e-01
-2.428177930414676666e-02
2.699203044176101685e-02
1.186204999685287476e-01
-3.759809955954551697e-02
7.429853826761245728e-02
-2.932173386216163635e-02
1.734861135482788086e-01
4.898339137434959412e-02
3.235224485397338867e-01
-8.788900077342987061e-02
1.075539737939834595e-03
-4.652661457657814026e-02
-1.305398195981979370e-01
-1.034027263522148132e-01
-1.748931109905242920e-01
-8.962164074182510376e-02
4.003952443599700928e-01
1.880064904689788818e-01
-4.059726297855377197e-01
-7.744400948286056519e-02
-7.953705638647079468e-02
1.334275770932435989e-02
1.132084727287292480e-01
1.171777099370956421e-01
-1.167041286826133728e-01
-1.200804784893989563e-01
-1.167738139629364014e-01
-5.305469408631324768e-02
-5.711783096194267273e-02
-3.467421047389507294e-03
2.633998095989227295e-01
1.198101937770843506e-01
3.541734814643859863e-01
9.402912110090255737e-02
1.016852110624313354e-01
4.194179177284240723e-02
4.012409970164299011e-02
2.998876869678497314e-01
2.061850130558013916e-01
-3.198071122169494629e-01
4.727297055069357157e-04
-2.144445180892944336e-01
-1.675749421119689941e-01
8.629939705133438110e-02
2.549016177654266357e-01
-1.534164547920227051e-01
-2.828237116336822510e-01
1.090775728225708008e-01
-7.332511246204376221e-02
2.433589473366737366e-02
-2.412699609994888306e-01
9.494998306035995483e-02
-4.120719134807586670e-01
9.442582726478576660e-02
5.017505493015050888e-03
8.755662292242050171e-02
-4.749988019466400146e-02
-1.039663404226303101e-01
-3.604221045970916748e-01
4.589318037033081055e-01
6.237186118960380554e-02
1.613984853029251099e-01
-1.082791760563850403e-01
-1.615449488162994385e-01
6.252931058406829834e-02
6.850183010101318359e-02
-7.003617286682128906e-02
2.105073928833007812e-01
3.629489541053771973e-01
3.005568385124206543e-01
3.380025327205657959e-01
3.805455192923545837e-02
-1.730755120515823364e-01
3.355325758457183838e-02
-7.501172274351119995e-02
-1.051051095128059387e-01
2.728613317012786865e-01
5.532395094633102417e-02
1.910912618041038513e-02
1.109060943126678467e-01
-8.023339509963989258e-02
8.794654160737991333e-02
2.134850025177001953e-01
8.718332648277282715e-02
-3.328818827867507935e-02
6.054602563381195068e-02
-2.189352065324783325e-01
2.068482935428619385e-01
-1.698374003171920776e-01
-2.402000874280929565e-01
2.020139545202255249e-01
1.420659273862838745e-01
3.107436746358871460e-02
3.200405836105346680e-01
-1.557855457067489624e-01
-1.403736025094985962e-01
8.658631704747676849e-03
1.784211397171020508e-01
2.797862589359283447e-01
-3.623791784048080444e-02
-8.904810249805450439e-02
-4.377276450395584106e-02
-6.623845081776380539e-03
1.256028562784194946e-01
-2.601367533206939697e-01
-4.889563620090484619e-01
1.278589516878128052e-01
-1.583354026079177856e-01
-3.075503110885620117e-01
1.788678020238876343e-01
1.666326224803924561e-01
-9.022234380245208740e-02
1.772550167515873909e-03
3.878618404269218445e-02
4.784619510173797607e-01
-5.001946166157722473e-02
-2.643310232087969780e-03
1.409835368394851685e-01
-3.582242876291275024e-03
1.405365392565727234e-02
-7.352647185325622559e-02
8.925273269414901733e-02
2.318431288003921509e-01
9.862178936600685120e-03
-2.470690011978149414e-01
-1.221968010067939758e-01
1.574846357107162476e-01
1.388936210423707962e-02
-5.835756063461303711e-01
-3.003694675862789154e-02
-1.926735043525695801e-01
-7.542937994003295898e-02
-2.998028397560119629e-01
-5.690393596887588501e-02
-1.680332422256469727e-01
7.716299295425415039e-01
-2.101878970861434937e-01
8.312850445508956909e-02
1.181692928075790405e-01
2.939852178096771240e-01
8.583677560091018677e-02
1.549100726842880249e-01
4.879995584487915039e-01
8.667849004268646240e-02
1.651207804679870605e-01
2.093814313411712646e-01
-7.943384349346160889e-02
2.813670039176940918e-02
-3.030999377369880676e-02
5.350582301616668701e-02
2.260286808013916016e-01
9.671661257743835449e-02
-2.890817075967788696e-02
-7.805252820253372192e-02
-1.466904878616333008e-01
-5.852082371711730957e-01
1.864612996578216553e-01
8.913067728281021118e-02
2.558288276195526123e-01
6.870149821043014526e-02
-2.002421468496322632e-01
3.610361367464065552e-03
3.714837431907653809e-01
-7.070499658584594727e-02
1.539918780326843262e-01
7.029677927494049072e-02
-9.964618086814880371e-02
3.415180370211601257e-02
-1.160372942686080933e-01
1.199480742216110229e-01
-1.746700704097747803e-02
3.103898763656616211e-01
3.314841985702514648e-01
4.028940200805664062e-01
8.407034724950790405e-02
-9.220840875059366226e-04
2.595178084447979927e-03
2.412673085927963257e-01
1.853082701563835144e-02
-1.477650403976440430e-01
1.506055891513824463e-01
2.530996501445770264e-02
-3.212620317935943604e-01
-3.328105434775352478e-03
-8.142900466918945312e-02
-1.458791047334671021e-01
1.730953603982925415e-01
-6.245325133204460144e-02
2.256026715040206909e-01
-3.011633157730102539e-01
-5.121247470378875732e-02
5.271482467651367188e-01
3.415648937225341797e-01
-2.305085361003875732e-01
3.022417128086090088e-01
-5.058970674872398376e-02
3.952515497803688049e-02
-2.589382231235504150e-02
2.452190518379211426e-01
5.923604369163513184e-01
4.528483375906944275e-02
-8.814882487058639526e-02
2.577675320208072662e-02
1.254230439662933350e-01
-1.184573099017143250e-01
-1.305744946002960205e-01
-1.998190302401781082e-03
-2.530771866440773010e-02
-4.770076274871826172e-02
-7.599163055419921875e-02
-3.932818397879600525e-02
-1.186841875314712524e-01
8.393066376447677612e-02
-1.160559952259063721e-01
-8.792837262153625488e-01
1.341461483389139175e-02
3.004158139228820801e-01
5.974238738417625427e-02
1.795867681503295898e-01
-4.702416807413101196e-02
-2.018483728170394897e-02
2.315700203180313110e-01
-1.755881458520889282e-01
1.040403619408607483e-01
-1.591958552598953247e-01
2.543804347515106201e-01
1.380607187747955322e-01
3.849407732486724854e-01
-2.914171814918518066e-01
-6.053281016647815704e-03
1.937819123268127441e-01
5.260922387242317200e-02
-3.809928894042968750e-02
8.549879491329193115e-02
8.502089232206344604e-02
-2.967176437377929688e-01
1.310437917709350586e-01
3.282180130481719971e-01
2.459440231323242188e-01
1.560813165269792080e-03
-5.872855708003044128e-02
8.707480132579803467e-02
-1.421437561511993408e-01
-1.119435727596282959e-01
1.240583583712577820e-01
-3.567633032798767090e-02
2.201169729232788086e-01
-2.125455811619758606e-02
-2.363943010568618774e-01
1.862234622240066528e-01
-2.112307995557785034e-01
1.106334030628204346e-01
7.437471300363540649e-02
-2.023386508226394653e-01
8.063804358243942261e-02
1.240597292780876160e-01
1.187732443213462830e-01
-7.974868267774581909e-02
1.220756247639656067e-01
-3.895549848675727844e-02
-1.249983087182044983e-01
-6.631213426589965820e-02
1.146376207470893860e-01
-1.311311125755310059e-01
-2.889181375503540039e-01
-7.904842495918273926e-02
-2.939555794000625610e-02
1.427236646413803101e-01
-2.039186805486679077e-01
6.097302213311195374e-02
5.097597837448120117e-01
2.332663349807262421e-02
2.750237099826335907e-02
9.238178282976150513e-02
-2.698957324028015137e-01
-1.589588075876235962e-01
2.903285622596740723e-01
-1.698860377073287964e-01
1.517141312360763550e-01
-8.995482325553894043e-02
-4.935589730739593506e-01
5.419253930449485779e-02
-2.334314435720443726e-01
5.261539015918970108e-03
6.900816224515438080e-03
2.736943364143371582e-01
-1.969681382179260254e-01
1.086340174078941345e-01
1.598664522171020508e-01
-1.131273731589317322e-01
-1.538312733173370361e-01
2.330976426601409912e-01
2.049475461244583130e-01
-2.874627895653247833e-02
-3.036631457507610321e-02
8.626571297645568848e-02
1.893492043018341064e-01
1.181386709213256836e-01
5.044459104537963867e-01
-3.282578885555267334e-01
2.661869116127490997e-02
-4.469536989927291870e-02
-4.565517604351043701e-02
-2.453278452157974243e-01
2.133079804480075836e-02
-1.428919136524200439e-01
-1.606906056404113770e-01
-5.186095088720321655e-02
-2.719390690326690674e-01
-2.324596345424652100e-01
1.743013858795166016e-01
-1.281314902007579803e-02
-5.210436582565307617e-01
3.524373173713684082e-01
-2.460852414369583130e-01
-1.933538317680358887e-01
2.013382911682128906e-01
-4.406424164772033691e-01
-1.085523329675197601e-02
1.144594103097915649e-01
-1.728961914777755737e-01
-2.009829729795455933e-01
4.174558073282241821e-02
3.252233564853668213e-01
1.067121177911758423e-01
4.366774484515190125e-02
-2.963199615478515625e-01
-1.161002144217491150e-01
-1.438278257846832275e-01
1.330333054065704346e-01
3.214748948812484741e-02
2.227800637483596802e-01
1.166318804025650024e-01
-1.578505337238311768e-01
3.028391003608703613e-01
9.428746998310089111e-02
-7.244990766048431396e-02
-4.826518893241882324e-02
3.952440340071916580e-03
6.133358925580978394e-02
1.012602001428604126e-01
-3.651431500911712646e-01
-5.431947857141494751e-02
-8.673746883869171143e-02
2.042816393077373505e-02
-9.782373160123825073e-02
1.715645194053649902e-02
1.673273593187332153e-01
-8.719700574874877930e-02
1.159888580441474915e-01
2.310836017131805420e-01
1.163667738437652588e-01
-2.553667128086090088e-01
4.353516921401023865e-02
2.836651504039764404e-01
2.181799113750457764e-01
9.616207331418991089e-03
3.106075823307037354e-01
-3.392296656966209412e-02
-1.754838507622480392e-03
1.970149725675582886e-01
1.491005867719650269e-01
4.544081911444664001e-02
1.258683949708938599e-01
6.797605007886886597e-02
-1.008034721016883850e-01
3.040757179260253906e-01
6.075807288289070129e-02
1.015942618250846863e-01
-2.463826090097427368e-01
1.203485019505023956e-02
1.028469204902648926e-01
3.633611369878053665e-03
1.070631295442581177e-01
-5.926053598523139954e-02
-2.074959129095077515e-02
2.038285285234451294e-01
-5.369806885719299316e-01
-1.748558580875396729e-01
-1.429248508065938950e-02
1.463101953268051147e-01
-4.390391707420349121e-01
-5.385297536849975586e-02
5.512703792192041874e-04
-5.314729213714599609e-01
-4.141972064971923828e-01
9.024283499456942081e-04
-6.838996708393096924e-02
-1.306157261133193970e-01
1.231340467929840088e-01
-2.469294369220733643e-01
-2.616102099418640137e-01
7.917447388172149658e-02
-8.860075473785400391e-02
1.578543931245803833e-01
-1.802829802036285400e-01
-5.469951778650283813e-02
1.777226775884628296e-01
1.308504045009613037e-01
-2.281041443347930908e-01
-4.681583121418952942e-02
-7.306205108761787415e-03
-1.504774689674377441e-01
2.735505402088165283e-01
2.628896832466125488e-01
1.192303374409675598e-01
-1.878285557031631470e-01
-9.389755874872207642e-02
-1.044950336217880249e-01
1.025949046015739441e-02
-2.663121819496154785e-01
1.865598186850547791e-02
1.815507858991622925e-01
1.064550057053565979e-01
2.131426632404327393e-01
7.415526360273361206e-02
3.715765774250030518e-01
8.799870312213897705e-02
-1.873312443494796753e-01
1.515073478221893311e-01
1.299319714307785034e-01
4.082936048507690430e-02
-3.400352895259857178e-01
-1.272463947534561157e-01
-3.693683817982673645e-02
3.588180989027023315e-02
2.188604325056076050e-01
-8.974841982126235962e-02
-1.222594231367111206e-01
-8.073576539754867554e-02
-6.144024431705474854e-02
1.931087374687194824e-01
2.198917716741561890e-01
-8.686563000082969666e-03
2.837854623794555664e-01
-1.279361099004745483e-01
-1.010803431272506714e-01
-7.435280084609985352e-02
5.116542577743530273e-01
3.424502015113830566e-01
3.533324599266052246e-01
-8.561400324106216431e-02
8.322066813707351685e-02
1.004575043916702271e-01
-1.881782114505767822e-01
-2.085113376379013062e-01
-1.661312431097030640e-01
1.679013967514038086e-01
2.446215003728866577e-01
-7.066474854946136475e-02
-7.852475345134735107e-02
2.247714847326278687e-01
2.908160910010337830e-02
1.143799126148223877e-01
8.370645344257354736e-02
1.256560087203979492e-01
3.822638988494873047e-01
3.035495877265930176e-01
2.135930657386779785e-01
-1.582331210374832153e-02
-1.709851920604705811e-01
-2.486761426553130150e-03
1.347375661134719849e-01
1.648845151066780090e-02
-1.875170916318893433e-01
-3.629808425903320312e-01
1.036150660365819931e-02
-1.081760823726654053e-01
5.799264088273048401e-02
-3.890109062194824219e-01
-7.907702028751373291e-02
3.769527003169059753e-02
-1.022366210818290710e-01
1.569382995367050171e-01
1.024142503738403320e-01
-2.755436599254608154e-01
-6.741326302289962769e-02
6.839822046458721161e-03
-1.698642671108245850e-01
5.100791901350021362e-02
1.036222428083419800e-01
2.483492940664291382e-01
1.371296346187591553e-01
1.407578736543655396e-01
-1.608043350279331207e-02
-3.867175281047821045e-01
1.400066763162612915e-01
-5.156193673610687256e-02
-9.186967015266418457e-01
-1.891287118196487427e-01
-4.248850047588348389e-01
3.385746106505393982e-02
3.596192970871925354e-02
2.544983327388763428e-01
-3.838701918721199036e-02
7.753539085388183594e-02
-2.819788455963134766e-01
2.009169571101665497e-02
1.332424134016036987e-01
4.607030749320983887e-01
3.757909312844276428e-02
1.220377311110496521e-01
5.083249136805534363e-02
-1.634770482778549194e-01
1.617161631584167480e-01
9.480212628841400146e-02
5.806883573532104492e-01
-1.613394618034362793e-01
-1.455524712800979614e-01
-2.199307829141616821e-02
-2.820002138614654541e-01
1.339971572160720825e-01
-4.435323551297187805e-02
-3.573863804340362549e-01
-7.785508781671524048e-02
-8.071726560592651367e-02
2.079430371522903442e-01
-3.509891331195831299e-01
5.930022895336151123e-02
-3.950501382350921631e-01
-1.396310031414031982e-01
4.008881151676177979e-01
-2.923369407653808594e-01
7.821232825517654419e-02
2.511827647686004639e-01
-1.742078065872192383e-01
1.898855268955230713e-01
-2.544382214546203613e-01
-1.274510920047760010e-01
1.261187791824340820e-01
6.090692430734634399e-02
-4.657926037907600403e-02
3.647411763668060303e-01
2.911595702171325684e-01
1.925743743777275085e-02
2.936621895059943199e-03
6.557966023683547974e-02
1.554207652807235718e-01
-3.217830657958984375e-01
-4.463438093662261963e-01
2.221803367137908936e-01
-2.985254824161529541e-01
8.085991442203521729e-02
8.148106187582015991e-02
-3.580398857593536377e-01
8.671011775732040405e-02
7.303545624017715454e-02
-2.848426401615142822e-01
-5.835338830947875977e-01
2.169814705848693848e-01
-1.946653127670288086e-01
-2.757564559578895569e-02
3.365494310855865479e-01
8.294443250633776188e-04
-1.715508550405502319e-01
-6.232458353042602539e-02
-5.081506967544555664e-01
2.296684086322784424e-01
8.288159966468811035e-03
-1.163742877542972565e-02
-2.396068908274173737e-02
-4.814677536487579346e-01
1.102714538574218750e-01
-6.496145576238632202e-02
1.078425124287605286e-01
-6.782959103584289551e-01
2.302619814872741699e-02
1.930480003356933594e-01
3.757691383361816406e-02
1.052575558423995972e-01
-6.056172847747802734e-01
-1.096641831099987030e-02
-4.759990274906158447e-01
2.067927271127700806e-01
-2.846361696720123291e-01
-1.558084785938262939e-01
9.429297409951686859e-03
1.338380575180053711e-01
-3.398468717932701111e-02
2.663618922233581543e-01
1.541247963905334473e-01
3.607676327228546143e-01
-2.006330043077468872e-01
1.458349227905273438e-01
2.610228210687637329e-02
-2.602664530277252197e-01
-1.628272235393524170e-01
3.839633194729685783e-03
-1.815329641103744507e-01
-3.157836943864822388e-02
-2.901262342929840088e-01
4.691365733742713928e-02
6.907824426889419556e-02
-2.228177711367607117e-02
3.780325949192047119e-01
-2.546754293143749237e-02
1.054619625210762024e-01
1.884830594062805176e-01
1.790292114019393921e-01
-1.278197765350341797e-01
1.669007390737533569e-01
1.624287664890289307e-01
5.705425888299942017e-02
4.288678243756294250e-02
2.922588288784027100e-01
-1.656112521886825562e-01
2.919702827930450439e-01
-1.031237002462148666e-02
-1.177082806825637817e-01
-8.196062594652175903e-02
-1.102649793028831482e-02
-4.535526409745216370e-02
-4.282016679644584656e-02
4.102621227502822876e-02
-1.834438880905508995e-03
2.343894243240356445e-01
5.777939036488533020e-02
-3.620999753475189209e-01
-2.973119020462036133e-01
7.616310566663742065e-02
1.635939031839370728e-01
-8.882219344377517700e-02
4.580640047788619995e-02
1.984558403491973877e-01
-2.807131707668304443e-01
-1.533164232969284058e-01
-6.994691491127014160e-02
-9.987459331750869751e-02
-2.565953433513641357e-01
3.035548031330108643e-01
-4.056608974933624268e-01
-7.250463962554931641e-02
3.690066561102867126e-02
3.755447268486022949e-02
7.297763973474502563e-02
-1.370419561862945557e-01
4.720180854201316833e-02
7.972229272127151489e-02
2.117255479097366333e-01
-2.710971832275390625e-01
-1.625234931707382202e-01
-4.527986049652099609e-02
-2.998020648956298828e-01
-2.507981285452842712e-02
-6.518644094467163086e-02
-6.543069332838058472e-02
5.653190892189741135e-03
-3.061544708907604218e-02
-1.864882409572601318e-01
-1.747630983591079712e-01
-1.445492953062057495e-01
2.092837989330291748e-01
7.554629445075988770e-02
-1.572956517338752747e-02
2.263389229774475098e-01
1.352630853652954102e-01
1.832035034894943237e-01
1.949569731950759888e-01
-2.124026119709014893e-01
1.358059495687484741e-01
-6.256542354822158813e-02
1.147500425577163696e-01
-3.403300940990447998e-01
-2.680253684520721436e-01
6.590843200683593750e-02
2.423394843935966492e-02
1.768270432949066162e-01
7.381401956081390381e-02
-1.564898062497377396e-03
-2.652161717414855957e-01
-9.898579120635986328e-02
3.043189048767089844e-01
4.940644502639770508e-01
-6.646528095006942749e-02
3.205437064170837402e-01
-2.308666408061981201e-01
-8.761822432279586792e-02
-2.370246648788452148e-01
-1.026951670646667480e-01
2.289538532495498657e-01
-1.164972968399524689e-02
1.210855692625045776e-01
-1.259741634130477905e-01
-1.303677409887313843e-01
-1.909049004316329956e-01
1.626849621534347534e-01
-1.774912029504776001e-01
1.220069974660873413e-01
-7.047637552022933960e-02
4.899028316140174866e-02
1.995789073407649994e-02
3.097948431968688965e-01
3.915859758853912354e-02
2.551807090640068054e-02
-1.292935200035572052e-02
6.531287729740142822e-02
1.982846856117248535e-01
1.019254922866821289e-01
2.402225285768508911e-01
9.927731007337570190e-02
-2.933552265167236328e-01
-1.808693259954452515e-01
1.757582277059555054e-01
-4.747578874230384827e-02
-1.069055870175361633e-01
-1.528579145669937134e-01
4.823393374681472778e-02
-2.836819924414157867e-02
-2.537822127342224121e-01
-1.161227077245712280e-01
-1.350759118795394897e-01
-3.612907975912094116e-02
1.003337576985359192e-01
8.484809100627899170e-02
5.439004674553871155e-02
-2.026756480336189270e-02
6.629692763090133667e-02
2.756046950817108154e-01
1.161833852529525757e-01
5.413785576820373535e-02
-8.757406473159790039e-02
-1.745524853467941284e-01
-1.182815358042716980e-01
-1.078400388360023499e-02
6.957072298973798752e-03
2.161528170108795166e-02
1.303780972957611084e-01
-1.380375027656555176e-01
5.058067440986633301e-01
1.426487322896718979e-02
-3.128539919853210449e-01
5.261912010610103607e-03
1.282994598150253296e-01
-7.870673388242721558e-02
-2.038113307207822800e-03
6.004207953810691833e-02
4.360323026776313782e-02
4.078601673245429993e-02
-6.090627908706665039e-01
-1.040218248963356018e-01
-1.637182533740997314e-01
4.127026721835136414e-02
2.024417370557785034e-01
7.109979540109634399e-02
1.136332284659147263e-02
-1.009626239538192749e-01
-2.435521781444549561e-01
3.076967895030975342e-01
-1.841989457607269287e-01
6.154571846127510071e-02
2.537694275379180908e-01
-3.415400162339210510e-02
5.422942638397216797e-01
2.261650860309600830e-01
-4.436633735895156860e-02
-6.756452471017837524e-02
2.108374834060668945e-01
1.680748164653778076e-01
-5.756628885865211487e-02
-1.681952029466629028e-01
-1.618768423795700073e-01
-2.307522892951965332e-01
-1.945885717868804932e-01
-1.136865466833114624e-01
-9.701793640851974487e-02
1.731202937662601471e-02
-3.063224256038665771e-01
4.844339936971664429e-02
-6.914520636200904846e-03
2.361098304390907288e-02
-4.521802812814712524e-02
2.737475633621215820e-01
-3.402102887630462646e-01
-1.809826679527759552e-02
-5.930265784263610840e-02
-5.296343006193637848e-03
-1.346014626324176788e-02
1.759337186813354492e-01
1.837132722139358521e-01
-3.032542392611503601e-02
3.473486006259918213e-02
6.174593418836593628e-02
-4.754620045423507690e-02
-3.522918224334716797e-01
2.012249082326889038e-01
-3.690325096249580383e-02
-4.688500240445137024e-02
3.394819498062133789e-01
4.962826073169708252e-01
-4.365888535976409912e-01
1.532246023416519165e-01
1.741400361061096191e-01
-1.951874196529388428e-01
7.375647872686386108e-02
-2.142227441072463989e-01
-1.621505022048950195e-01
6.433066725730895996e-01
-2.461336553096771240e-01
-1.304990500211715698e-01
1.816363483667373657e-01
-1.864747554063796997e-01
1.719131469726562500e-01
8.985598385334014893e-02
1.548144370317459106e-01
-7.862511090934276581e-03
7.290536761283874512e-01
-5.516460165381431580e-02
1.010859292000532150e-02
-1.223382875323295593e-01
-5.731020867824554443e-02
5.337703227996826172e-01
3.452415466308593750e-01
1.327582150697708130e-01
2.253689430654048920e-02
2.944880425930023193e-01
3.646133095026016235e-02
-3.707066550850868225e-02
-9.894770383834838867e-02
2.706678807735443115e-01
8.666860312223434448e-02
8.954601734876632690e-02
-3.086263835430145264e-01
-8.177326060831546783e-03
1.312735974788665771e-01
2.877091616392135620e-02
-7.556662708520889282e-02
4.923471249639987946e-03
5.109627172350883484e-02
-1.398567557334899902e-01
1.793557852506637573e-01
3.135324120521545410e-01
1.416922211647033691e-01
-7.278899103403091431e-02
-3.545325398445129395e-01
-1.400909125804901123e-01
3.360233604907989502e-01
-5.153902806341648102e-03
4.305690154433250427e-02
9.864851832389831543e-02
-2.133137136697769165e-01
1.108815521001815796e-01
1.436509564518928528e-02
-1.851863563060760498e-01
-1.039632186293601990e-01
-6.811683531850576401e-03
1.785421073436737061e-01
-1.183119192719459534e-01
9.836278855800628662e-02
6.257087737321853638e-02
4.753867909312248230e-02
1.268543899059295654e-01
1.129871532320976257e-01
1.716186255216598511e-01
-2.306109815835952759e-01
2.264537289738655090e-02
6.195563822984695435e-02
1.480945199728012085e-01
1.988495513796806335e-02
1.092080175876617432e-01
-2.878552079200744629e-01
-1.749324202537536621e-01
-1.780913472175598145e-01
1.168007776141166687e-01
2.082478106021881104e-01
-5.930157899856567383e-01
-1.476739794015884399e-01
-2.172913104295730591e-01
1.821441352367401123e-01
1.441496163606643677e-01
7.631069421768188477e-02
9.870321303606033325e-02
-1.740023791790008545e-01
-1.433802396059036255e-01
2.435189783573150635e-01
-9.675019234418869019e-02
-3.918477520346641541e-02
-2.503842711448669434e-01
3.147261440753936768e-01
-6.719275563955307007e-02
-5.244525149464607239e-02
1.251298338174819946e-01
-1.095015481114387512e-01
8.150810003280639648e-02
1.084936931729316711e-01
-3.236672282218933105e-01
5.337125658988952637e-01
-7.220804691314697266e-02
1.198785305023193359e-01
1.367046833038330078e-01
-2.827961742877960205e-01
-1.284841001033782959e-01
1.498812586069107056e-01
-9.226020425558090210e-02
-2.149315178394317627e-01
-4.992563277482986450e-02
1.545959431678056717e-02
2.414636015892028809e-01
4.752463400363922119e-01
2.249057590961456299e-01
-4.819411039352416992e-02
1.934737525880336761e-02
3.207274079322814941e-01
-5.039077401161193848e-01
-1.062509492039680481e-01
1.367545723915100098e-01
-4.333974793553352356e-02
-2.755793929100036621e-01
1.262118518352508545e-01
5.686570405960083008e-01
-2.571823000907897949e-01
2.304119803011417389e-02
7.929717004299163818e-02
-1.287930738180875778e-02
-7.650580257177352905e-02
1.174558475613594055e-01
-1.260873228311538696e-01
2.585990726947784424e-01
-2.232333570718765259e-01
1.472650021314620972e-01
4.598261415958404541e-02
-9.703434258699417114e-02
9.078730642795562744e-02
-2.978714704513549805e-01
2.709219157695770264e-01
-1.316425353288650513e-01
2.339285463094711304e-01
-2.527562081813812256e-01
-1.297738403081893921e-01
7.675366103649139404e-02
2.079487591981887817e-02
3.113594353199005127e-01
-8.963257074356079102e-02
3.321516811847686768e-01
-8.039207756519317627e-02
5.302138328552246094e-01
2.549029290676116943e-01
2.302091568708419800e-01
9.619068354368209839e-02
9.847205132246017456e-02
-1.691066026687622070e-01
-4.264565557241439819e-02
-3.586500510573387146e-02
1.232774183154106140e-01
-3.072972595691680908e-01
-1.566269248723983765e-01
1.607205420732498169e-01
1.691982299089431763e-01
-1.006294693797826767e-02
1.894689798355102539e-01
6.176918745040893555e-02
-2.917830459773540497e-02
5.603392794728279114e-02
-7.497394084930419922e-02
-9.034172445535659790e-02
-2.634153887629508972e-02
4.426745176315307617e-01
8.578375726938247681e-02
1.417576819658279419e-01
1.152078211307525635e-01
-1.286376714706420898e-01
1.199923455715179443e-01
-8.862042427062988281e-02
-1.566296070814132690e-01
-2.315692156553268433e-01
5.969630554318428040e-03
-2.270144037902355194e-02
-1.342931538820266724e-01
4.635162651538848877e-02
-1.066151931881904602e-01
1.407261490821838379e-01
2.554090023040771484e-01
1.218239665031433105e-01
2.162090316414833069e-02
-2.437932342290878296e-01
-1.664187759160995483e-01
7.189698517322540283e-02
2.005477994680404663e-01
-1.154178380966186523e-02
1.676061004400253296e-01
-2.577442526817321777e-01
-2.870360910892486572e-01
-1.646430641412734985e-01
-1.219620089977979660e-02
5.430729687213897705e-02
-1.309512853622436523e-01
-2.650385163724422455e-02
-1.705409139394760132e-01
2.872973382472991943e-01
3.255600631237030029e-01
6.077461689710617065e-02
3.370229005813598633e-01
-2.224203199148178101e-01
-1.464719027280807495e-01
3.252087235450744629e-01
-1.521536265499889851e-03
3.002100810408592224e-02
-2.983965873718261719e-01
1.218598857522010803e-01
-1.127091497182846069e-01
9.145978838205337524e-02
-2.558732405304908752e-02
-1.015763878822326660e-01
7.880094647407531738e-01
1.672513484954833984e-01
-1.554440706968307495e-01
3.760913908481597900e-01
-4.966045543551445007e-02
2.446324080228805542e-01
3.148974180221557617e-01
-2.994362711906433105e-01
-3.113448023796081543e-01
2.219300717115402222e-01
1.846527680754661560e-02
-2.064410299062728882e-01
-3.757728263735771179e-02
-4.895995557308197021e-02
1.894866079092025757e-01
4.455769956111907959e-01
5.073919892311096191e-01
-4.920096322894096375e-02
1.468998342752456665e-01
3.564225742593407631e-03
-2.494967728853225708e-01
-2.341577224433422089e-02
-4.072325304150581360e-02
-1.407787650823593140e-01
-2.397500127553939819e-01
-3.907895088195800781e-02
-2.108544111251831055e-01
-2.465312480926513672e-01
-2.980444729328155518e-01
5.802870169281959534e-02
-1.322217565029859543e-02
-2.886575646698474884e-02
4.274248331785202026e-02
4.527614219114184380e-04
2.718452215194702148e-01
4.549897462129592896e-02
1.299350857734680176e-01
2.648523151874542236e-01
-1.277752965688705444e-01
-3.485733866691589355e-01
-4.112475737929344177e-02
2.637917399406433105e-01
4.242744296789169312e-03
-9.682830423116683960e-03
-2.056144028902053833e-01
-1.716312319040298462e-01
-6.850001960992813110e-02
-5.207428336143493652e-02
2.715751230716705322e-01
-1.194618269801139832e-02
1.561749428510665894e-01
-1.596860587596893311e-01
4.664330184459686279e-01
4.342636168003082275e-01
9.042236208915710449e-02
-2.411120943725109100e-02
7.557446509599685669e-02
-1.768297702074050903e-01
7.623682916164398193e-02
-4.947241768240928650e-02
-5.115046352148056030e-02
-1.998677402734756470e-01
-5.646068230271339417e-02
2.244370430707931519e-01
2.038055807352066040e-01
1.479183882474899292e-01
1.290510743856430054e-01
1.465321630239486694e-01
1.018829718232154846e-01
-4.951832816004753113e-03
1.386951655149459839e-01
2.240615487098693848e-01
6.009044498205184937e-02
1.142785698175430298e-01
1.716399639844894409e-01
-1.673531532287597656e-01
9.269993007183074951e-02
-5.149096250534057617e-01
1.957177370786666870e-01
1.052198186516761780e-01
-1.023866459727287292e-01
3.577839434146881104e-01
-2.112994194030761719e-01
-4.354868084192276001e-02
-1.149704530835151672e-01
-1.305426061153411865e-01
5.381308123469352722e-02
-1.854837685823440552e-01
1.915054321289062500e-01
1.561694592237472534e-01
1.118951216340065002e-01
2.774698734283447266e-01
6.291731446981430054e-02
1.784243732690811157e-01
-5.807202458381652832e-01
-1.915211081504821777e-01
1.750851273536682129e-01
1.541406214237213135e-01
5.004623159766197205e-02
-2.830617502331733704e-02
-1.367950439453125000e-01
-2.122157067060470581e-01
1.707717627286911011e-01
-4.552460089325904846e-02
1.858474165201187134e-01
3.104587197303771973e-01
7.570510357618331909e-02
5.128852277994155884e-02
-4.312435388565063477e-01
-1.758803427219390869e-01
-1.670749336481094360e-01
1.431647539138793945e-01
-9.714040905237197876e-02
-1.028247997164726257e-01
-7.381995022296905518e-02
1.499089449644088745e-01
-9.008453041315078735e-02
2.707784175872802734e-01
1.103428006172180176e-01
2.740879356861114502e-01
1.893465369939804077e-01
-3.157020732760429382e-02
-1.253403574228286743e-01
-4.024587944149971008e-02
1.986421495676040649e-01
-1.122847273945808411e-01
2.627184987068176270e-02
-2.400850690901279449e-02
-2.096894681453704834e-01
5.905408412218093872e-02
3.659728914499282837e-02
4.654266405850648880e-03
1.596406847238540649e-01
-8.844168484210968018e-02
7.354588806629180908e-02
3.414463698863983154e-01
2.589379847049713135e-01
1.319248080253601074e-01
7.019686698913574219e-02
-3.407605588436126709e-01
-7.678589969873428345e-02
3.071927726268768311e-01
-1.486973166465759277e-01
-1.440946012735366821e-01
9.640291333198547363e-02
-2.904063463211059570e-01
-2.911913096904754639e-01
-8.820234984159469604e-02
-5.389876365661621094e-01
7.313710451126098633e-02
2.751465737819671631e-01
-1.488513499498367310e-01
8.307585865259170532e-02
6.804108270443975925e-04
-6.206823587417602539e-01
-2.311165072023868561e-02
-6.013344600796699524e-02
-2.615515887737274170e-01
-9.460502117872238159e-02
1.715070605278015137e-01
-6.382604837417602539e-01
-8.738183379173278809e-01
-4.155112430453300476e-02
5.689277127385139465e-02
2.073779404163360596e-01
6.258651614189147949e-02
2.338639944791793823e-01
9.306881576776504517e-02
-4.794942736625671387e-01
-6.523538380861282349e-02
-9.246470779180526733e-02
-1.509378403425216675e-01
5.107581615447998047e-01
1.937094032764434814e-01
-5.574774369597434998e-02
-3.595746681094169617e-02
-3.594373166561126709e-01
6.473818421363830566e-02
1.110515743494033813e-01
2.680148370563983917e-02
2.715713158249855042e-02
-6.478114426136016846e-02
3.579138219356536865e-02
2.672685384750366211e-01
6.259054690599441528e-02
7.623138278722763062e-02
2.962423264980316162e-01
-2.674630582332611084e-01
-2.026752829551696777e-01
-2.483353167772293091e-01
2.166462987661361694e-01
2.072221785783767700e-01
-5.305845290422439575e-02
1.502586007118225098e-01
1.556954085826873779e-01
-1.497784256935119629e-01
1.049596890807151794e-01
-1.598658859729766846e-01
-1.235102787613868713e-01
-1.053355187177658081e-01
1.278130114078521729e-01
1.454066187143325806e-01
-9.646656364202499390e-02
3.486447781324386597e-02
1.711117178201675415e-01
-9.556792676448822021e-02
1.638899743556976318e-01
-1.947591826319694519e-02
1.527847051620483398e-01
-1.604535244405269623e-02
-2.216659039258956909e-01
1.603717803955078125e-01
-1.226859986782073975e-01
-1.252787113189697266e-01
6.060095969587564468e-03
-2.532501518726348877e-02
-5.167051553726196289e-01
-2.019311487674713135e-01
-3.398682223632931709e-03
2.325455099344253540e-01
-2.347930371761322021e-01
2.867451608180999756e-01
1.786922812461853027e-01
-2.705598771572113037e-01
-9.946395643055438995e-03
1.570301800966262817e-01
-7.403285056352615356e-02
3.277510777115821838e-02
1.126156970858573914e-01
8.115854859352111816e-02
1.896040588617324829e-01
8.601480722427368164e-02
2.298614382743835449e-01
1.672628372907638550e-01
-2.188860923051834106e-01
2.470965534448623657e-01
-3.173285126686096191e-01
-2.121611684560775757e-01
-6.327490322291851044e-03
-1.332545727491378784e-01
-1.208982244133949280e-01
8.429778367280960083e-02
-7.578952312469482422e-01
-3.087620437145233154e-01
3.900328651070594788e-02
1.579738259315490723e-01
8.452912420034408569e-02
-8.387283235788345337e-02
-1.011886000633239746e-01
-7.074856013059616089e-02
-6.392996311187744141e-01
1.207350119948387146e-01
3.649361804127693176e-02
-3.858649637550115585e-03
-6.001656875014305115e-02
-1.422079205513000488e-01
-2.456153929233551025e-01
3.452470004558563232e-01
-1.300743967294692993e-01
1.284531690180301666e-02
7.952950149774551392e-02
1.304834634065628052e-01
7.387790083885192871e-02
2.611306309700012207e-01
1.884289979934692383e-01
1.783908456563949585e-01
2.743209898471832275e-01
1.870703399181365967e-01
6.297887861728668213e-02
6.715031713247299194e-02
3.241343796253204346e-02
4.485119599848985672e-03
-3.039279207587242126e-02
8.666387200355529785e-02
-5.560526996850967407e-02
2.537083625793457031e-01
-2.377765625715255737e-01
9.337995946407318115e-02
4.322151467204093933e-02
3.121725320816040039e-01
-1.044803112745285034e-01
-3.169175386428833008e-01
-4.535085521638393402e-03
1.136292666196823120e-01
1.932908445596694946e-01
1.908276826143264771e-01
-8.748792111873626709e-02
-2.290936112403869629e-01
4.163851216435432434e-02
9.896685928106307983e-02
-1.837563514709472656e-01
1.524183154106140137e-01
-1.618109196424484253e-01
-1.641594618558883667e-01
-2.203096635639667511e-02
1.446453575044870377e-02
-2.269100248813629150e-01
1.874478459358215332e-01
-1.997919082641601562e-01
-2.709498256444931030e-02
1.151362955570220947e-01
5.718880333006381989e-03
-1.458031684160232544e-01
-3.258046507835388184e-01
5.166322365403175354e-02
-9.796535968780517578e-02
-2.347786575555801392e-01
2.174708060920238495e-02
-5.520616844296455383e-02
5.326417833566665649e-02
1.305922120809555054e-01
1.007303223013877869e-01
1.857505589723587036e-01
-4.071458429098129272e-02
-1.813822425901889801e-02
2.368100173771381378e-02
1.445184648036956787e-01
-6.201553717255592346e-02
2.005135715007781982e-01
5.938261747360229492e-02
1.174882277846336365e-01
1.453256160020828247e-01
1.294544339179992676e-01
6.589217483997344971e-02
-2.152652293443679810e-01
-8.794174790382385254e-01
-1.682861447334289551e-01
-5.996902585029602051e-01
1.338116079568862915e-01
3.302387520670890808e-02
-5.481810867786407471e-02
7.624330371618270874e-02
-1.070280671119689941e-01
2.240546643733978271e-01
7.270935922861099243e-02
-2.288258671760559082e-01
-2.072746902704238892e-01
2.066791355609893799e-01
5.579707026481628418e-02
-2.547720372676849365e-01
1.037536114454269409e-01
1.948199570178985596e-01
-6.116669178009033203e-01
-2.095472812652587891e-01
2.441420853137969971e-01
5.120676755905151367e-02
-6.146246567368507385e-02
1.923216506838798523e-02
4.097952507436275482e-03
-1.619457900524139404e-01
-7.000117003917694092e-02
2.000648342072963715e-02
1.530169844627380371e-01
-4.115400314331054688e-01
-4.704856500029563904e-02
4.098790138959884644e-02
-3.279021680355072021e-01
-1.134713143110275269e-01
-2.132168710231781006e-01
7.793302834033966064e-02
2.417291551828384399e-01
-2.652244642376899719e-02
-3.300234302878379822e-02
1.602400988340377808e-01
1.508765667676925659e-01
1.899658888578414917e-01
6.294173747301101685e-02
-9.176798164844512939e-02
-3.054943978786468506e-01
3.773161768913269043e-01
3.173590302467346191e-01
-1.754810512065887451e-01
1.108229830861091614e-01
-2.121915519237518311e-01
3.338522911071777344e-01
9.842754155397415161e-02
9.246592223644256592e-02
-9.962486103177070618e-03
6.423484068363904953e-03
-1.173076670966111124e-04
-1.992735266685485840e-01
-2.358838729560375214e-02
-1.425240039825439453e-01
-1.536308526992797852e-01
9.022650867700576782e-02
2.101874649524688721e-01
-1.244321018457412720e-01
-2.041080892086029053e-01
-1.583978086709976196e-01
-5.677071213722229004e-02
2.557016611099243164e-01
1.038872525095939636e-01
7.858324795961380005e-02
-1.601367741823196411e-01
-3.177816048264503479e-02
-6.160531640052795410e-01
-8.722943067550659180e-02
3.133041262626647949e-01
1.580554693937301636e-01
-2.349088490009307861e-01
-3.152156770229339600e-01
1.696176528930664062e-01
-1.825503706932067871e-01
8.359023369848728180e-03
-2.979032695293426514e-01
-3.299696743488311768e-02
-8.470086753368377686e-02
-2.782567776739597321e-02
7.429212331771850586e-03
5.056124925613403320e-02
-3.401614725589752197e-02
-8.302216231822967529e-02
-8.133509010076522827e-02
8.986530825495719910e-03
-2.396042225882411003e-03
-1.576766818761825562e-01
-1.332873851060867310e-01
3.179764002561569214e-02
-7.647759467363357544e-02
9.019319899380207062e-03
1.109642460942268372e-01
7.196521013975143433e-02
-7.820605300366878510e-03
1.722114533185958862e-01
2.976294159889221191e-01
1.683769524097442627e-01
-1.143231689929962158e-01
-5.285640358924865723e-01
-4.590661078691482544e-02
1.912720203399658203e-01
-2.807351946830749512e-01
-1.488401591777801514e-01
-2.026633173227310181e-01
2.825209796428680420e-01
-3.363854885101318359e-01
-1.564049273729324341e-01
-1.708503663539886475e-01
5.134708285331726074e-01
1.165973544120788574e-01
2.022899389266967773e-01
-1.962564140558242798e-01
-1.379932165145874023e-01
2.076575011014938354e-01
-2.671725861728191376e-02
-1.051418930292129517e-01
-7.913179993629455566e-01
-1.690966039896011353e-01
-3.298359513282775879e-01
1.888938695192337036e-01
-2.132731974124908447e-01
1.799214035272598267e-01
-4.412840679287910461e-02
-1.512572285719215870e-03
-2.190200537443161011e-01
4.314512759447097778e-02
7.079405337572097778e-02
8.197403699159622192e-02
3.520559072494506836e-01
8.053632825613021851e-02
-1.083746552467346191e-01
2.295649796724319458e-02
-1.255984753370285034e-01
-2.258332520723342896e-01
7.418438792228698730e-03
3.713178932666778564e-01
-1.055246517062187195e-01
-1.399354487657546997e-01
1.811598776839673519e-03
-1.959744542837142944e-01
-9.293730556964874268e-02
-1.266333013772964478e-01
-1.842077225446701050e-01
1.429616212844848633e-01
7.178089022636413574e-02
-2.315846681594848633e-01
-3.188897855579853058e-03
-5.274253487586975098e-01
4.980949163436889648e-01
2.514324784278869629e-01
-2.114416658878326416e-01
1.094308719038963318e-01
2.772837132215499878e-02
5.505187511444091797e-01
4.110392928123474121e-01
1.888281553983688354e-01
1.731888055801391602e-01
-3.252336382865905762e-02
7.023692131042480469e-02
1.011402830481529236e-01
5.655171722173690796e-02
8.569640666246414185e-02
-1.350447535514831543e-02
-1.906193941831588745e-01
-9.325273334980010986e-02
2.119012922048568726e-01
-1.957720965147018433e-01
-7.804351300001144409e-02
1.339194476604461670e-01
1.661111414432525635e-02
9.288151562213897705e-02
2.983976006507873535e-01
-3.060710430145263672e-01
7.771254330873489380e-02
-2.913878671824932098e-02
-2.631711959838867188e-01
7.589443773031234741e-02
-1.040057539939880371e-01
3.186110258102416992e-01
1.205458790063858032e-01
-2.569416724145412445e-02
-3.251608833670616150e-02
2.706857919692993164e-01
-8.861164003610610962e-02
-2.108873426914215088e-01
3.614228665828704834e-01
9.470697492361068726e-02
1.236129552125930786e-01
7.029353082180023193e-02
1.175861656665802002e-01
-3.627716377377510071e-02
8.463545143604278564e-02
1.520770937204360962e-01
9.772899001836776733e-02
3.594397008419036865e-01
2.360931783914566040e-02
3.288456937298178673e-03
-9.227927029132843018e-02
1.493068784475326538e-01
6.823565065860748291e-02
-2.282900363206863403e-01
9.053935110569000244e-02
-1.573670208454132080e-01
3.802635371685028076e-01
8.712793700397014618e-03
-5.209054052829742432e-02
5.338479951024055481e-02
3.037265539169311523e-01
1.555460691452026367e-01
2.175073325634002686e-01
2.142353504896163940e-01
2.071432024240493774e-01
1.968351937830448151e-02
1.212167888879776001e-01
1.336177885532379150e-01
-5.368543788790702820e-02
-1.202514469623565674e-01
4.496740400791168213e-01
-9.428616613149642944e-02
3.557087853550910950e-02
-1.104820072650909424e-01
3.038305044174194336e-01
-1.024909466505050659e-01
-4.119424894452095032e-02
1.654756218194961548e-01
1.762822419404983521e-01
-3.059019520878791809e-02
2.788522047922015190e-03
-1.579016298055648804e-01
-7.252112776041030884e-02
-2.633338570594787598e-01
1.135391071438789368e-01
9.696049243211746216e-02
-5.613160505890846252e-02
7.374318689107894897e-02
-6.514674425125122070e-02
1.964423805475234985e-01
3.426384627819061279e-01
9.734601527452468872e-02
2.381027340888977051e-01
-1.415184438228607178e-01
-7.031356543302536011e-02
-7.781668007373809814e-02
-6.892520934343338013e-02
-1.597289144992828369e-01
1.175765320658683777e-01
2.006357461214065552e-01
-4.307049512863159180e-01
-3.711120486259460449e-01
-1.101717445999383926e-02
4.359249025583267212e-02
-7.208932936191558838e-02
1.834148317575454712e-01
1.875173486769199371e-02
-1.084509938955307007e-01
-3.633357584476470947e-02
1.765563637018203735e-01
4.617822170257568359e-02
5.718753486871719360e-02
1.369325071573257446e-01
3.582334518432617188e-02
1.311037838459014893e-01
1.790703386068344116e-01
2.020824700593948364e-01
1.237207651138305664e-01
-3.114397227764129639e-01
4.648544490337371826e-01
2.027406729757785797e-02
-1.773343980312347412e-01
1.606941670179367065e-01
-1.905780136585235596e-01
2.142079323530197144e-01
-2.308291010558605194e-02
-3.804629147052764893e-01
-1.581651866436004639e-01
-1.113713234663009644e-01
1.015208810567855835e-01
1.636116057634353638e-01
-1.536761671304702759e-01
-2.263529002666473389e-01
9.217487275600433350e-02
-5.028374791145324707e-01
-8.040792495012283325e-02
7.880631089210510254e-02
-1.409196257591247559e-01
-1.183889806270599365e-01
-1.517139673233032227e-01
-9.826754778623580933e-02
4.074323773384094238e-01
-3.166577592492103577e-02
2.122163176536560059e-01
-2.099706381559371948e-01
-2.616126090288162231e-03
7.711010426282882690e-02
2.069907635450363159e-01
-1.315459576289867982e-05
1.620530635118484497e-01
3.295845687389373779e-01
2.621886432170867920e-01
1.053171306848526001e-01
1.342975050210952759e-01
-3.679026663303375244e-02
-1.103270724415779114e-01
3.852698579430580139e-02
7.345434278249740601e-02
1.855823695659637451e-01
-1.565063595771789551e-01
2.597261220216751099e-02
-1.276189982891082764e-01
1.132390946149826050e-01
3.530394136905670166e-01
-2.371222972869873047e-01
-1.307795643806457520e-01
-7.218170911073684692e-02
1.573295295238494873e-01
-1.421997249126434326e-01
-2.207524888217449188e-02
-1.168597936630249023e-01
-1.772180795669555664e-01
3.919628560543060303e-01
4.336407035589218140e-02
1.818937510251998901e-01
5.434675142168998718e-02
-1.666285991668701172e-01
-9.113921970129013062e-02
9.474217146635055542e-02
1.848278045654296875e-01
-1.809048503637313843e-01
-1.257142722606658936e-01
-1.733937859535217285e-01
-2.958184778690338135e-01
1.074790880084037781e-01
-1.430297046899795532e-01
-1.935612857341766357e-01
-1.686852723360061646e-01
1.604949086904525757e-01
-3.068490326404571533e-02
-1.017611026763916016e-01
7.106323540210723877e-02
1.358983516693115234e-01
1.597447693347930908e-01
2.572825849056243896e-01
-2.138068154454231262e-02
-1.453111022710800171e-01
9.265498816967010498e-02
6.732498854398727417e-02
1.627933792769908905e-02
-6.062568351626396179e-02
-1.653227210044860840e-01
1.634987145662307739e-01
1.189354155212640762e-02
-1.352348178625106812e-01
1.462710089981555939e-03
4.579341709613800049e-01
4.374058917164802551e-02
-1.224792841821908951e-02
9.201948344707489014e-02
6.137474775314331055e-01
1.213629394769668579e-01
1.169917136430740356e-01
-4.394300654530525208e-02
4.501068964600563049e-02
7.531271129846572876e-02
1.620515137910842896e-01
-2.467465102672576904e-01
-9.462668001651763916e-02
-7.266446948051452637e-02
-3.698215782642364502e-01
-3.614463210105895996e-01
1.713352352380752563e-01
8.128607878461480141e-04
-1.039104759693145752e-01
9.043545275926589966e-02
-2.499536424875259399e-02
-2.944940626621246338e-01
-4.640470147132873535e-01
6.755228340625762939e-02
1.509136147797107697e-02
6.568132340908050537e-02
-3.053137362003326416e-01
-2.339787781238555908e-01
-1.112935096025466919e-01
4.392567873001098633e-01
9.700769931077957153e-02
1.910092532634735107e-01
-6.089667677879333496e-01
2.237816452980041504e-01
-1.680572032928466797e-01
-2.662119269371032715e-01
2.865208387374877930e-01
-1.157152280211448669e-01
-8.357522636651992798e-02
4.968464002013206482e-02
-5.245133042335510254e-01
-2.126834094524383545e-01
1.283543854951858521e-01
2.034630626440048218e-02
1.184551790356636047e-01
1.874277926981449127e-02
2.127687912434339523e-04
1.587838977575302124e-01
-7.287262678146362305e-01
-1.359814405441284180e-01
-2.057514525949954987e-02
1.049476563930511475e-01
-1.145835369825363159e-01
8.832664787769317627e-02
-2.869861125946044922e-01
3.033978939056396484e-01
-1.877987384796142578e-01
5.699853971600532532e-02
-7.490029186010360718e-02
1.436883360147476196e-01
3.243287205696105957e-01
2.023656219244003296e-01
-1.922084540128707886e-01
9.334231913089752197e-02
2.633205056190490723e-01
7.675261795520782471e-02
-1.090837270021438599e-01
2.123613357543945312e-01
-7.569484412670135498e-02
-1.321297585964202881e-01
-1.362790912389755249e-01
8.458379656076431274e-02
-1.727298796176910400e-01
-5.903928354382514954e-02
-1.101260855793952942e-01
-1.075140535831451416e-01
1.788759529590606689e-01
4.153162539005279541e-01
-2.086475342512130737e-01
-1.427456587553024292e-01
3.932477161288261414e-02
5.974720120429992676e-01
-2.574605168774724007e-03
1.906288713216781616e-01
1.696844249963760376e-01
4.704720526933670044e-02
2.309801578521728516e-01
4.915650933980941772e-02
1.893219202756881714e-01
2.516309916973114014e-02
4.702817797660827637e-01
3.362912237644195557e-01
-5.117303133010864258e-02
-6.222350522875785828e-02
-3.472635149955749512e-01
5.024699121713638306e-02
-2.141724675893783569e-01
-3.276255428791046143e-01
3.734563291072845459e-01
-1.671737730503082275e-01
2.401337325572967529e-01
-2.431121766567230225e-01
-1.013827547430992126e-01
-1.791406571865081787e-01
2.190791070461273193e-01
-4.985860362648963928e-02
1.436991058290004730e-02
2.268377393484115601e-01
-1.661112457513809204e-01
-6.974712759256362915e-02
-1.495423018932342529e-01
-2.094777226448059082e-01
-2.699791267514228821e-02
-1.399747096002101898e-03
-1.156375557184219360e-01
2.013713717460632324e-01
1.091694608330726624e-01
1.972652673721313477e-01
-7.878920435905456543e-02
-2.796338796615600586e-01
-1.771863847970962524e-01
-1.892036497592926025e-01
-1.026831641793251038e-01
2.103862911462783813e-01
-2.063807100057601929e-03
1.545316129922866821e-01
-2.260286808013916016e-01
2.089270651340484619e-01
2.095802873373031616e-01
-1.275057047605514526e-01
8.099827915430068970e-03
-2.626759931445121765e-02
-3.987785801291465759e-02
-2.226630412042140961e-02
3.237985968589782715e-01
1.985772252082824707e-01
-2.406149916350841522e-02
-1.037294417619705200e-01
-2.713660150766372681e-02
-1.647227555513381958e-01
1.229215040802955627e-01
1.637284010648727417e-01
2.852322347462177277e-02
-1.638562977313995361e-01
1.321870833635330200e-01
-5.211664363741874695e-02
-2.405760735273361206e-01
-6.044623255729675293e-02
-6.465893238782882690e-02
-1.710604876279830933e-01
-1.792015135288238525e-01
1.389179229736328125e-01
6.104293093085289001e-02
-2.107130587100982666e-01
1.087227612733840942e-01
-2.349274009466171265e-01
-1.056143082678318024e-02
2.373203486204147339e-01
-1.096419543027877808e-01
1.880388110876083374e-01
1.204245164990425110e-01
1.927260905504226685e-01
-3.389972448348999023e-02
-4.220523312687873840e-02
3.359850263223052025e-03
6.468717753887176514e-02
4.148511588573455811e-02
-6.056139245629310608e-02
1.509347259998321533e-01
3.670896291732788086e-01
1.732642650604248047e-01
3.983877971768379211e-02
4.183804988861083984e-02
1.465779542922973633e-01
-1.930608004331588745e-01
-2.869309782981872559e-01
2.672494649887084961e-01
-2.247132062911987305e-01
8.302357792854309082e-02
6.259530037641525269e-02
-1.489942371845245361e-01
-1.537391096353530884e-01
-9.597811847925186157e-02
-5.099329352378845215e-01
-6.796213388442993164e-01
2.550669908523559570e-01
-2.430475056171417236e-01
-6.931504607200622559e-02
-1.484525948762893677e-01
6.608831137418746948e-02
-6.458101421594619751e-02
9.214062988758087158e-02
-2.176881432533264160e-01
3.873090744018554688e-01
2.439874559640884399e-01
-2.729660272598266602e-01
-1.065723784267902374e-02
-2.935155630111694336e-01
2.509280443191528320e-01
9.895978122949600220e-02
1.471969932317733765e-01
-3.380666077136993408e-01
-6.639129668474197388e-02
1.069022193551063538e-01
1.283670812845230103e-01
1.620605736970901489e-01
-9.195937216281890869e-02
-3.312215507030487061e-01
3.860741481184959412e-02
4.061412811279296875e-02
5.145844817161560059e-01
2.165758609771728516e-01
7.092549651861190796e-02
2.140943855047225952e-01
2.414170950651168823e-01
-7.160872966051101685e-02
2.090453505516052246e-01
2.688468992710113525e-01
-1.461135894060134888e-01
3.899109736084938049e-02
-1.044904887676239014e-01
-1.280898898839950562e-01
-1.466722935438156128e-01
9.136518090963363647e-02
2.255749404430389404e-01
2.025358565151691437e-02
-1.017056703567504883e-01
1.307040601968765259e-01
-3.892600163817405701e-02
9.896754473447799683e-02
-1.638412028551101685e-01
5.621684249490499496e-03
-3.848455101251602173e-02
-2.769995033740997314e-01
6.354226171970367432e-02
-1.688292063772678375e-02
9.960053116083145142e-02
1.662293449044227600e-02
-1.446473449468612671e-01
-2.003132924437522888e-02
-1.034499630331993103e-01
1.829476356506347656e-01
-4.882767498493194580e-01
-4.594292640686035156e-01
2.002999931573867798e-01
-2.608154416084289551e-01
2.704221010208129883e-01
8.743517845869064331e-02
1.222231462597846985e-01
-5.979502201080322266e-02
-6.386621389538049698e-03
-6.948783248662948608e-02
4.147830605506896973e-02
5.251999944448471069e-02
-6.765309255570173264e-03
2.104569971561431885e-01
9.848460555076599121e-02
-8.885359019041061401e-02
-9.617056697607040405e-02
-4.183527231216430664e-01
-1.283659040927886963e-01
-8.099597692489624023e-02
4.304735958576202393e-01
2.514494657516479492e-01
1.053498759865760803e-01
1.061163935810327530e-02
1.304349601268768311e-01
-4.553413763642311096e-02
-6.605813652276992798e-02
2.160698175430297852e-01
2.936638295650482178e-01
-5.332057178020477295e-02
-2.036695331335067749e-01
-1.648269295692443848e-01
-7.029410600662231445e-01
2.319032996892929077e-01
-4.359410703182220459e-02
-1.108100935816764832e-01
1.013575941324234009e-01
-5.237662047147750854e-02
-2.093870751559734344e-02
2.253246754407882690e-01
1.447213292121887207e-01
6.120566651225090027e-02
1.660475134849548340e-01
1.833294630050659180e-01
4.939460381865501404e-02
-1.853292062878608704e-02
2.005692422389984131e-01
-3.049306273460388184e-01
1.335790008306503296e-01
-2.707813866436481476e-02
5.327532812952995300e-02
-4.820407554507255554e-02
3.998022377490997314e-01
4.559740722179412842e-01
-1.057390570640563965e-01
-5.704776849597692490e-03
2.475178986787796021e-01
1.511722207069396973e-01
6.381615996360778809e-02
-1.414655894041061401e-01
5.489672720432281494e-02
-2.294398993253707886e-01
-3.921323716640472412e-01
9.829027205705642700e-02
-5.704764276742935181e-02
-2.473824620246887207e-01
-3.956710696220397949e-01
2.380079329013824463e-01
-1.436964720487594604e-01
9.993432462215423584e-02
-3.845442458987236023e-02
6.481789168901741505e-04
-1.126367375254631042e-01
1.202686652541160583e-01
7.654267549514770508e-02
-1.694803088903427124e-01
-2.918179929256439209e-01
5.838079750537872314e-02
6.407015770673751831e-02
-5.119400843977928162e-02
5.731252208352088928e-02
-2.971182465553283691e-01
-2.142466902732849121e-01
2.513636946678161621e-01
-2.659928202629089355e-01
-6.021296232938766479e-02
1.040859334170818329e-02
-4.518786370754241943e-01
1.600915193557739258e-01
2.024451494216918945e-01
-1.748459041118621826e-01
-1.935012638568878174e-01
-2.352708727121353149e-01
1.810129582881927490e-01
2.404405176639556885e-01
2.774124443531036377e-01
-6.006243173032999039e-03
-8.398722857236862183e-02
1.833355128765106201e-01
3.002274632453918457e-01
2.051241844892501831e-01
5.831841379404067993e-02
2.622824311256408691e-01
1.255992799997329712e-02
-2.143928259611129761e-01
-3.495116531848907471e-02
-1.051667183637619019e-01
-1.743949800729751587e-01
-7.059654593467712402e-02
-8.560332655906677246e-02
-7.751215249300003052e-02
4.621745645999908447e-01
1.264661997556686401e-01
3.944036364555358887e-01
7.116501778364181519e-02
4.710136353969573975e-02
-8.022402226924896240e-02
-2.653689682483673096e-01
3.115524351596832275e-01
-2.376457005739212036e-01
2.877755463123321533e-01
1.371790319681167603e-01
1.212413236498832703e-01
1.056605428457260132e-01
-3.111330270767211914e-01
1.405187994241714478e-01
9.029065072536468506e-02
-9.165651351213455200e-02
-4.860855638980865479e-02
4.211055487394332886e-02
3.351300954818725586e-01
9.117289632558822632e-02
-2.129916548728942871e-01
1.298662275075912476e-01
2.115923166275024414e-02
5.709057301282882690e-02
1.975211799144744873e-01
-3.481270745396614075e-03
-7.385584712028503418e-02
5.509148165583610535e-02
-1.492491364479064941e-01
9.691923856735229492e-02
-8.692155778408050537e-02
3.415710991248488426e-03
3.322758078575134277e-01
-2.091692388057708740e-02
1.536474972963333130e-01
-3.812885284423828125e-02
-2.207228690385818481e-01
4.207184538245201111e-02
1.817501336336135864e-01
1.478782147169113159e-01
8.087961375713348389e-02
-2.243447005748748779e-01
-6.296411901712417603e-02
-1.109345406293869019e-01
-1.412755846977233887e-01
1.155548244714736938e-01
6.199047341942787170e-02
8.103928714990615845e-02
-2.249384820461273193e-01
1.214042305946350098e-01
-1.601594313979148865e-02
1.408370733261108398e-01
2.443506717681884766e-01
8.660187572240829468e-02
-1.524932533502578735e-01
-4.130312707275152206e-03
-1.883581727743148804e-01
9.295909851789474487e-02
1.924569159746170044e-02
1.247790381312370300e-01
-1.330639123916625977e-01
-4.178701043128967285e-01
1.531817205250263214e-02
-1.353042013943195343e-02
7.608924806118011475e-02
-4.237697124481201172e-01
1.157535091042518616e-01
9.644007310271263123e-03
-2.425092607736587524e-01
7.014466822147369385e-02
1.962901055812835693e-01
-1.914247311651706696e-02
1.938418298959732056e-01
-1.117293606512248516e-03
-2.141898572444915771e-01
9.823357313871383667e-02
-3.160029649734497070e-01
-1.778322309255599976e-01
2.986001670360565186e-01
-1.994692832231521606e-01
-3.873466700315475464e-02
-1.669396013021469116e-01
-1.893953830003738403e-01
9.147331863641738892e-02
3.607658743858337402e-01
3.496032357215881348e-01
-9.310741908848285675e-03
2.693049013614654541e-01
-2.948240339756011963e-01
1.712952181696891785e-02
-7.340405602008104324e-03
-2.593733603134751320e-03
2.370712906122207642e-01
9.286815673112869263e-02
5.639972910284996033e-02
-1.147848814725875854e-01
3.651976883411407471e-01
1.924089789390563965e-01
1.236731186509132385e-01
7.875033468008041382e-02
4.164299666881561279e-01
1.459584683179855347e-01
6.236905977129936218e-02
7.193344086408615112e-02
-1.245970577001571655e-01
2.264135181903839111e-01
3.192313015460968018e-02
-6.040521860122680664e-01
-3.047755360603332520e-02
7.460753619670867920e-02
-1.133379340171813965e-01
2.660143971443176270e-01
1.726815551519393921e-01
1.138302236795425415e-01
-1.729512661695480347e-01
-1.141085475683212280e-02
1.967237144708633423e-01
-4.678691625595092773e-01
1.005694121122360229e-01
-1.046092957258224487e-01
2.975060418248176575e-02
4.121386259794235229e-02
2.941240929067134857e-02
1.605118811130523682e-01
1.483193691819906235e-02
-1.774965673685073853e-01
-5.619548261165618896e-02
-1.212856844067573547e-01
-4.443935304880142212e-02
1.990275979042053223e-01
-4.967888891696929932e-01
1.800855845212936401e-01
-7.862275838851928711e-02
1.669448614120483398e-01
1.080870106816291809e-01
-1.387447565793991089e-01
1.342665851116180420e-01
1.649461090564727783e-01
-1.576306521892547607e-01
-1.294946268899366260e-04
3.628253340721130371e-01
1.528086215257644653e-01
1.907765120267868042e-02
-6.182770431041717529e-02
1.240055188536643982e-01
-1.312243193387985229e-01
-1.227131695486605167e-03
1.548420637845993042e-01
1.815070956945419312e-01
-1.083409786224365234e-02
8.557153493165969849e-02
-6.149531900882720947e-02
-1.772698909044265747e-01
-3.842362388968467712e-02
-1.878305673599243164e-01
-1.640693694353103638e-01
-2.448665052652359009e-01
-1.168961748480796814e-01
1.644040942192077637e-01
-1.463777720928192139e-01
3.132145106792449951e-02
8.270984143018722534e-02
-8.971209079027175903e-02
2.750397920608520508e-01
-3.425147151574492455e-03
-2.780824713408946991e-02
3.139299154281616211e-01
2.315339148044586182e-01
2.286236919462680817e-02
-7.553368806838989258e-02
4.356276988983154297e-02
6.076553836464881897e-02
1.686473935842514038e-01
7.374045997858047485e-02
3.709325492382049561e-01
5.276615023612976074e-01
2.862537279725074768e-02
-2.869633398950099945e-02
7.325209677219390869e-02
1.476120352745056152e-01
3.188484907150268555e-01
-2.529351413249969482e-01
2.674143314361572266e-01
-1.048936471343040466e-01
-4.416951537132263184e-02
-1.246914081275463104e-02
-6.429691612720489502e-02
-2.264394015073776245e-01
1.454658061265945435e-02
-5.078089237213134766e-01
-8.960922956466674805e-01
-7.650683075189590454e-02
-2.911421358585357666e-01
-1.947633624076843262e-01
-8.845170587301254272e-02
5.469004064798355103e-02
-6.107703223824501038e-02
-9.508795291185379028e-02
-6.693136692047119141e-02
-1.206911727786064148e-02
2.222874164581298828e-01
2.100471705198287964e-01
-8.757086843252182007e-02
-3.108719885349273682e-01
3.103585168719291687e-02
9.907411783933639526e-02
5.580887570977210999e-02
-1.294399797916412354e-01
6.707067042589187622e-02
-9.691160172224044800e-02
-3.901282325387001038e-02
2.343451380729675293e-01
-4.725849628448486328e-02
-2.995707690715789795e-01
1.440562456846237183e-01
-2.616521120071411133e-01
1.706499159336090088e-01
1.877753436565399170e-01
5.189381167292594910e-02
7.290030270814895630e-02
5.990479886531829834e-02
-2.456106804311275482e-02
1.314940899610519409e-01
2.796054780483245850e-01
-1.283646821975708008e-01
8.868265897035598755e-02
1.751250028610229492e-01
1.139780059456825256e-01
-3.205950185656547546e-02
2.380066514015197754e-01
1.440001185983419418e-02
-5.143897235393524170e-02
-2.021842449903488159e-02
-1.212704777717590332e-01
-1.656459420919418335e-01
-1.140619367361068726e-01
-8.691876381635665894e-02
-2.144077569246292114e-01
-2.582131512463092804e-02
-2.680707536637783051e-02
-1.494865119457244873e-01
-1.452764682471752167e-02
-2.062237262725830078e-02
-4.269796237349510193e-02
5.350501835346221924e-02
-2.254377603530883789e-01
6.049953401088714600e-02
1.691254675388336182e-01
-6.875469535589218140e-02
-2.551921904087066650e-01
-2.873466908931732178e-01
-2.498386800289154053e-01
-1.787349767982959747e-02
-5.530417338013648987e-02
2.014843979850411415e-03
3.613464534282684326e-02
1.103239506483078003e-02
6.156158074736595154e-02
-1.864718794822692871e-01
1.236936673521995544e-01
1.839266419410705566e-01
3.076085150241851807e-01
1.004204824566841125e-01
2.014618963003158569e-01
-7.144433259963989258e-02
-5.189589411020278931e-02
4.407289326190948486e-01
7.335354387760162354e-02
1.259024348109960556e-02
1.216628998517990112e-01
1.123167648911476135e-01
-2.036008536815643311e-01
-2.254599034786224365e-01
9.674125909805297852e-02
-2.994271218776702881e-01
1.676599495112895966e-02
-2.011229842901229858e-01
2.335888743400573730e-01
-1.406750231981277466e-01
-1.502578854560852051e-01
-4.167644083499908447e-01
4.765371978282928467e-01
3.970398306846618652e-01
-2.578350715339183807e-02
2.342419624328613281e-01
1.114454641938209534e-01
-9.101247414946556091e-03
-8.710282854735851288e-03
3.696309626102447510e-01
1.207178458571434021e-01
2.803939953446388245e-02
2.984702885150909424e-01
2.664379775524139404e-01
-1.407675296068191528e-01
-2.810832113027572632e-02
-7.728712167590856552e-03
-1.333851516246795654e-01
-1.372024267911911011e-01
-3.635003417730331421e-02
8.516837656497955322e-02
2.975714504718780518e-01
-2.216787189245223999e-01
-3.916001319885253906e-02
1.690557412803173065e-02
6.492463499307632446e-02
2.654723525047302246e-01
4.691492021083831787e-02
1.138217523694038391e-01
-8.078972995281219482e-02
-1.628129482269287109e-01
1.370899826288223267e-01
-1.557353585958480835e-01
-2.717659473419189453e-01
-9.334055334329605103e-02
3.566520214080810547e-01
-2.988231182098388672e-01
-5.752541124820709229e-02
2.924506738781929016e-02
-3.135105071123689413e-04
3.606597483158111572e-01
3.355432301759719849e-02
-5.347270891070365906e-02
2.075400650501251221e-01
-1.220845058560371399e-01
-4.161115363240242004e-02
-3.680909052491188049e-02
2.765626832842826843e-02
2.176954448223114014e-01
1.845559477806091309e-01
-2.805102616548538208e-02
4.245072603225708008e-02
-4.461580421775579453e-03
2.242431417107582092e-02
-3.662832677364349365e-01
9.002278558909893036e-03
-5.276699662208557129e-01
3.263524472713470459e-01
1.151620447635650635e-01
8.472570031881332397e-02
5.508295446634292603e-02
3.512972965836524963e-02
1.748411059379577637e-01
-2.526816446334123611e-03
1.633604764938354492e-01
5.848193541169166565e-02
-4.747553914785385132e-02
1.022764444351196289e-01
-1.051157414913177490e-01
8.566791564226150513e-02
1.262153387069702148e-01
3.577087521553039551e-01
2.399900404270738363e-04
2.900168765336275101e-03
-3.717293441295623779e-01
1.043072864413261414e-01
1.453847158700227737e-02
-4.468762278556823730e-01
-2.262881994247436523e-01
2.600419521331787109e-01
-2.710603177547454834e-01
1.409520059823989868e-01
-3.269955050200223923e-03
-1.788066774606704712e-01
-3.759214580059051514e-01
-2.051640152931213379e-01
2.505968511104583740e-02
-2.710442841053009033e-01
2.727232575416564941e-01
-4.770556390285491943e-01
1.014192476868629456e-01
4.795335233211517334e-01
1.156370248645544052e-02
-4.309333395212888718e-03
4.172879457473754883e-01
-1.076636835932731628e-01
1.194154918193817139e-01
-1.263002753257751465e-01
-4.111626148223876953e-01
1.503082662820816040e-01
3.675935268402099609e-01
2.622751295566558838e-01
1.234906688332557678e-01
-2.460040450096130371e-01
6.779141724109649658e-02
-1.232120618224143982e-01
1.578185260295867920e-01
1.729864776134490967e-01
-8.774572610855102539e-02
1.942709647119045258e-02
1.973484903573989868e-01
1.315725594758987427e-01
-1.136549934744834900e-01
4.020208418369293213e-01
8.511642366647720337e-02
5.055622458457946777e-01
2.754010260105133057e-01
1.205958500504493713e-01
5.026961565017700195e-01
-1.755951046943664551e-01
3.229625523090362549e-02
-4.832601249217987061e-01
1.378701478242874146e-01
1.860783398151397705e-01
1.272681653499603271e-01
3.825911283493041992e-01
2.569203376770019531e-01
-4.064891338348388672e-01
1.197683960199356079e-01
-1.033525243401527405e-01
2.498032748699188232e-01
2.148263603448867798e-01
8.224941790103912354e-02
-7.229287177324295044e-02
1.117902919650077820e-01
-3.293889164924621582e-01
1.065861731767654419e-01
-1.450653225183486938e-01
-4.231424629688262939e-01
-8.415521681308746338e-02
-1.464721709489822388e-01
1.856717467308044434e-01
5.261852964758872986e-02
4.031467810273170471e-02
-2.659413591027259827e-02
1.191419586539268494e-01
-9.140977635979652405e-03
-6.171471253037452698e-02
-2.647946821525692940e-03
4.447858408093452454e-02
4.194713532924652100e-01
-3.793288022279739380e-02
4.388977587223052979e-01
-9.767129272222518921e-02
-2.873177528381347656e-01
-3.785805404186248779e-01
-5.147577077150344849e-02
-3.885220885276794434e-01
2.106831371784210205e-01
1.426699012517929077e-01
2.696870565414428711e-01
-6.024838238954544067e-02
-2.207416892051696777e-01
-2.255921661853790283e-01
-6.746139377355575562e-02
-7.537957280874252319e-03
3.307863697409629822e-02
1.581183224916458130e-01
-5.100063234567642212e-02
-2.268510907888412476e-01
-1.180477440357208252e-01
-2.906001172959804535e-02
-2.799860239028930664e-01
3.689570426940917969e-01
-2.236036807298660278e-01
-1.224856823682785034e-01
5.383407697081565857e-02
2.093014717102050781e-01
-2.482413873076438904e-02
-2.102997153997421265e-01
-3.985281288623809814e-02
7.899096608161926270e-02
3.851548954844474792e-02
5.400820970535278320e-01
2.276604436337947845e-02
-8.574754744768142700e-02
1.115002632141113281e-01
5.443800985813140869e-02
-2.071513235569000244e-01
1.658376008272171021e-01
-2.670301795005798340e-01
2.314607053995132446e-01
2.920555174350738525e-01
1.113251224160194397e-01
-1.090485900640487671e-01
2.244767732918262482e-02
1.959792524576187134e-01
6.474494934082031250e-02
-2.441107481718063354e-01
2.295202948153018951e-02
-1.705635040998458862e-01
-1.066653281450271606e-01
1.167193502187728882e-01
-1.512870639562606812e-01
1.196651253849267960e-02
1.767387539148330688e-01
1.197474822402000427e-01
-1.750935800373554230e-02
4.489844199270009995e-03
3.640800341963768005e-02
-2.055520750582218170e-02
-7.028602808713912964e-02
-6.549253314733505249e-02
4.521089419722557068e-02
3.217206522822380066e-02
-1.607502400875091553e-01
2.017448544502258301e-01
5.865523964166641235e-02
-1.940190233290195465e-02
-2.062525898218154907e-01
6.030038371682167053e-02
6.514760106801986694e-02
2.091385722160339355e-01
1.613100320100784302e-01
2.315618693828582764e-01
-9.574884176254272461e-02
-4.757037013769149780e-02
4.839822053909301758e-01
2.055763453245162964e-01
2.341252267360687256e-01
-2.280851155519485474e-01
-3.724378719925880432e-02
-1.833825707435607910e-01
-1.228578686714172363e-01
2.495575547218322754e-01
1.835072934627532959e-01
-8.119135349988937378e-02
8.949175477027893066e-02
7.366529852151870728e-02
2.131697982549667358e-01
-2.378144413232803345e-01
-3.011744655668735504e-02
1.291808634996414185e-01
-4.503161460161209106e-02
1.322892010211944580e-01
-8.771812915802001953e-02
-5.719238892197608948e-02
6.157203018665313721e-02
-3.592779636383056641e-01
2.805491685867309570e-01
-2.461721301078796387e-01
-1.273496448993682861e-01
-4.295283462852239609e-03
5.440600961446762085e-02
-1.077640950679779053e-01
7.957536727190017700e-02
2.478950619697570801e-01
-1.890670321881771088e-02
-1.768266037106513977e-02
-2.510122954845428467e-01
-4.313296079635620117e-01
-3.966875374317169189e-02
3.750853985548019409e-02
-6.729088723659515381e-03
-3.286187946796417236e-01
2.735884189605712891e-01
2.383242100477218628e-01
-1.432324498891830444e-01
6.678006052970886230e-02
2.764086127281188965e-01
-1.390843987464904785e-01
-1.684503257274627686e-01
2.489055544137954712e-01
5.373956263065338135e-02
3.309572639409452677e-04
2.484113276004791260e-01
-1.047414317727088928e-01
-1.673153489828109741e-01
1.420518755912780762e-01
-1.438091993331909180e-01
3.718812167644500732e-01
-9.481029957532882690e-02
-2.819398343563079834e-01
6.095364317297935486e-02
-8.370469510555267334e-02
8.207122981548309326e-02
-2.863936126232147217e-01
1.413876414299011230e-01
-2.561442553997039795e-01
9.681782126426696777e-02
2.697100341320037842e-01
7.227914035320281982e-02
5.818923935294151306e-02
-1.588733196258544922e-01
-1.083471775054931641e-01
-2.867171466350555420e-01
1.765075027942657471e-01
-5.891415476799011230e-01
-2.599397301673889160e-01
-5.235820636153221130e-02
-4.271901398897171021e-02
-2.677048742771148682e-01
2.126285880804061890e-01
8.471172302961349487e-02
2.313666641712188721e-01
-1.003841981291770935e-01
1.692937612533569336e-01
1.519877016544342041e-01
-1.119201034307479858e-01
-7.295960932970046997e-02
2.417584136128425598e-02
3.575312346220016479e-02
5.357772111892700195e-02
-1.994491815567016602e-01
-5.634839087724685669e-02
2.936886437237262726e-02
-3.541987156495451927e-03
-4.908408224582672119e-02
-2.588283121585845947e-01
-1.278492659330368042e-01
3.354413211345672607e-01
2.581777609884738922e-02
2.176132947206497192e-01
-2.386413514614105225e-01
-9.023196995258331299e-03
5.260962247848510742e-02
-8.118733018636703491e-02
1.828064471483230591e-01
-5.649771913886070251e-02
1.764950305223464966e-01
-2.990794740617275238e-02
-5.360215902328491211e-02
3.050430491566658020e-02
-1.110062077641487122e-01
-1.436625123023986816e-01
-1.010909676551818848e-02
-3.864191472530364990e-02
6.104432046413421631e-02
-7.346975803375244141e-02
1.763510406017303467e-01
1.437022686004638672e-01
-1.997067332267761230e-01
-5.614904314279556274e-02
9.293475002050399780e-02
1.660092473030090332e-01
1.059849038720130920e-01
-2.561689168214797974e-02
1.714168787002563477e-01
4.933131858706474304e-02
1.269706785678863525e-01
-3.444317579269409180e-01
3.370445966720581055e-02
-2.408315427601337433e-02
1.874618791043758392e-02
2.700551450252532959e-01
3.122042119503021240e-01
-2.911242246627807617e-01
1.182619482278823853e-01
6.970578432083129883e-02
3.084852099418640137e-01
-2.127590328454971313e-01
1.561689972877502441e-01
-1.742971688508987427e-01
3.652944788336753845e-02
-8.574674278497695923e-02
-3.383808434009552002e-01
2.445958554744720459e-02
2.019826620817184448e-01
-4.722926318645477295e-01
-2.951689437031745911e-02
1.218628436326980591e-01
-1.169054582715034485e-01
3.614678382873535156e-01
3.432863056659698486e-01
-5.983054265379905701e-02
-2.078505903482437134e-01
5.888144299387931824e-02
-1.597399711608886719e-01
7.223229855298995972e-02
-5.005712434649467468e-02
-3.343316018581390381e-01
-3.939216956496238708e-02
7.351642102003097534e-02
-1.600638404488563538e-02
8.729732781648635864e-02
4.573413133621215820e-01
-2.964184880256652832e-01
-6.715733557939529419e-02
6.161309033632278442e-02
-6.434124894440174103e-03
-5.475118383765220642e-02
2.909132838249206543e-01
1.880654543638229370e-01
4.686485230922698975e-01
-4.255135729908943176e-02
-3.021657168865203857e-01
1.479516178369522095e-01
-1.026158332824707031e-01
-1.173463091254234314e-01
1.552192121744155884e-01
-1.044238060712814331e-01
-1.215207800269126892e-01
1.187411844730377197e-01
6.967038661241531372e-02
6.334833055734634399e-02
1.478210091590881348e-01
2.139052450656890869e-01
1.474090963602066040e-01
-1.209057793021202087e-01
-3.095060214400291443e-02
2.210778295993804932e-01
-1.245371773838996887e-01
9.467962384223937988e-02
1.679793894290924072e-01
1.769962906837463379e-01
-4.320590198040008545e-02
2.002824395895004272e-01
-5.820167660713195801e-01
-2.873807847499847412e-01
-2.070340514183044434e-01
1.067603081464767456e-01
2.727700211107730865e-02
7.911136746406555176e-02
7.147473096847534180e-02
-4.061170294880867004e-02
-8.456671983003616333e-02
1.693891137838363647e-01
-4.114367812871932983e-02
-3.426475226879119873e-01
-1.251853723078966141e-02
-4.816024005413055420e-02
-3.793938755989074707e-01
2.082407772541046143e-01
1.600497812032699585e-01
7.901735603809356689e-02
2.455859035253524780e-01
-3.014089725911617279e-02
2.409905642271041870e-01
-3.076525628566741943e-01
1.837826073169708252e-01
1.967272907495498657e-01
1.468229144811630249e-01
-9.721774607896804810e-02
1.804298609495162964e-01
9.104825556278228760e-02
-4.181372001767158508e-03
1.439786106348037720e-01
3.018850684165954590e-01
-6.368765980005264282e-02
2.283088564872741699e-01
8.473020792007446289e-02
-3.236192464828491211e-01
8.064153790473937988e-02
-2.880930006504058838e-01
1.993951201438903809e-02
1.496891081333160400e-01
-8.507588505744934082e-02
1.448995471000671387e-01
2.242543995380401611e-01
-6.017815694212913513e-02
-2.321872264146804810e-01
-1.548453867435455322e-01
-9.372718632221221924e-02
1.028062701225280762e-01
-1.291103195399045944e-02
3.448905795812606812e-02
7.059580087661743164e-02
-4.646265506744384766e-02
-7.835964858531951904e-02
-3.845327496528625488e-01
1.999433338642120361e-02
-2.810686230659484863e-01
1.361425966024398804e-01
-3.544951379299163818e-01
5.777553841471672058e-02
-1.412786692380905151e-01
9.744163602590560913e-02
-1.363251805305480957e-01
-1.006858572363853455e-01
2.482907027006149292e-01
-2.986880242824554443e-01
8.184418082237243652e-02
-6.268797069787979126e-02
-3.743063211441040039e-01
1.076990440487861633e-01
-3.732618987560272217e-01
-6.513874977827072144e-03
-1.230631768703460693e-01
-9.566202759742736816e-02
1.291468273848295212e-02
-1.810808181762695312e-01
-2.453645505011081696e-02
-1.098940819501876831e-01
1.417882591485977173e-01
1.565640121698379517e-01
1.792059838771820068e-01
-1.028723046183586121e-01
5.505497008562088013e-02
1.827152445912361145e-02
1.078203320503234863e-01
-1.761581562459468842e-02
-1.170355677604675293e-01
-5.261161178350448608e-02
-9.666510671377182007e-02
-1.240617111325263977e-01
-3.485795557498931885e-01
-2.467741519212722778e-01
2.062634676694869995e-01
8.147995686158537865e-04
4.567404091358184814e-02
7.646675407886505127e-02
1.066143438220024109e-01
-4.175440073013305664e-01
-6.166977062821388245e-02
5.794478058815002441e-01
3.111956417560577393e-01
-1.012806687504053116e-02
-1.625253260135650635e-01
2.101301960647106171e-02
-2.116433233022689819e-01
-2.315714359283447266e-01
-1.159596964716911316e-01
-2.204993963241577148e-01
-4.823937267065048218e-02
3.900141119956970215e-01
-9.454478323459625244e-02
-2.709329426288604736e-01
-7.070208340883255005e-02
5.301173925399780273e-01
-1.030301228165626526e-01
1.114846169948577881e-01
-1.223718076944351196e-01
9.799662977457046509e-02
-1.580698490142822266e-01
4.060266315937042236e-01
-2.611615061759948730e-01
1.194375194609165192e-02
2.520384788513183594e-01
-1.326608508825302124e-01
1.509271115064620972e-01
-6.245812773704528809e-02
-1.079353690147399902e-01
8.228258788585662842e-02
-1.733350008726119995e-01
-3.860721588134765625e-01
1.110010817646980286e-01
1.337495744228363037e-01
1.862087547779083252e-01
-1.861993074417114258e-01
-8.599060773849487305e-02
1.091779544949531555e-01
-1.115352883934974670e-01
-7.931901514530181885e-02
-4.523729160428047180e-02
4.551649838685989380e-02
-7.113807648420333862e-02
2.346244640648365021e-02
1.554852817207574844e-02
-1.889268308877944946e-01
-7.925876975059509277e-02
-1.228117272257804871e-01
1.684148162603378296e-01
1.233969330787658691e-01
-9.624478965997695923e-02
1.468711881898343563e-03
-1.249244436621665955e-01
3.825248405337333679e-02
3.493597730994224548e-03
-3.341174498200416565e-02
1.300845295190811157e-01
-6.886257231235504150e-02
-3.483852148056030273e-01
3.098718822002410889e-01
-1.360056847333908081e-01
6.573912687599658966e-03
5.532642453908920288e-02
-4.393773153424263000e-02
2.447054535150527954e-01
1.284648030996322632e-01
-1.464724391698837280e-01
9.932190179824829102e-02
3.757543861865997314e-01
1.058303937315940857e-01
1.370050460100173950e-01
6.345523893833160400e-02
1.010447144508361816e-01
-5.174196362495422363e-01
1.525130271911621094e-01
1.408509016036987305e-01
3.202262148261070251e-02
-1.614174842834472656e-01
3.256745636463165283e-02
-2.642638795077800751e-02
1.574553102254867554e-01
2.085317075252532959e-01
-1.086888983845710754e-01
6.720144301652908325e-02
-9.739524126052856445e-02
-3.725568652153015137e-01
2.436896711587905884e-01
-6.474310755729675293e-01
1.055333390831947327e-01
1.481424868106842041e-01
-2.305521070957183838e-01
2.108125537633895874e-01
-1.593613624572753906e-01
-3.377168774604797363e-01
2.383678555488586426e-01
-2.893061637878417969e-01
1.804996579885482788e-01
7.212381809949874878e-02
1.447211671620607376e-02
1.522847265005111694e-01
3.669536113739013672e-01
5.000071600079536438e-02
4.796985685825347900e-01
-1.452846974134445190e-01
8.831109851598739624e-02
9.978802502155303955e-02
-5.266429111361503601e-02
-2.696482241153717041e-01
1.225975826382637024e-01
-1.355081349611282349e-01
3.971182927489280701e-02
-2.388229817152023315e-01
5.531547069549560547e-01
-3.402668982744216919e-02
7.606770098209381104e-02
-1.463216692209243774e-01
-6.045157462358474731e-02
-7.782043516635894775e-02
-5.018032789230346680e-01
-3.000628761947154999e-02
2.988403141498565674e-01
-9.491645731031894684e-03
-3.601943850517272949e-01
2.040827870368957520e-01
-4.277076125144958496e-01
-5.889660492539405823e-02
4.076814278960227966e-02
-4.353130161762237549e-01
-2.280776649713516235e-01
3.767536208033561707e-02
-1.332371532917022705e-01
-1.407369524240493774e-01
1.147844195365905762e-01
-1.529838740825653076e-01
2.154265791177749634e-01
4.576826840639114380e-02
3.800629675388336182e-01
-9.682535380125045776e-02
-2.278947830200195312e-01
1.329277455806732178e-01
-1.835711896419525146e-01
1.520648598670959473e-01
-2.848106920719146729e-01
-2.047007717192173004e-02
6.179343536496162415e-02
-2.967855334281921387e-01
-4.037470221519470215e-01
-3.255777359008789062e-01
-1.254950314760208130e-01
9.541510045528411865e-02
2.424369305372238159e-01
1.289121210575103760e-01
-6.126867979764938354e-02
4.336768016219139099e-02
2.758133411407470703e-01
2.015776187181472778e-01
-1.428819745779037476e-01
2.258802652359008789e-01
-7.402208447456359863e-02
1.539177596569061279e-01
2.186278067529201508e-02
1.190871745347976685e-02
4.095610380172729492e-01
-6.886456906795501709e-02
1.116186939179897308e-02
-1.681926101446151733e-01
1.315271556377410889e-01
-2.396976342424750328e-03
4.592242091894149780e-02
-2.812590450048446655e-02
-2.614855468273162842e-01
-1.852515712380409241e-02
4.191595017910003662e-01
4.000367596745491028e-02
2.607595361769199371e-02
-1.383707523345947266e-01
1.863424181938171387e-01
6.390334367752075195e-01
7.590312510728836060e-02
1.626930981874465942e-01
-2.622211538255214691e-02
-2.489758580923080444e-01
-1.795582175254821777e-01
-1.785931363701820374e-02
-3.417832031846046448e-02
-1.386604905128479004e-01
-3.886972740292549133e-02
2.048177421092987061e-01
-5.281159654259681702e-02
-3.125889599323272705e-01
4.873905330896377563e-02
4.143093228340148926e-01
-7.784538436681032181e-03
1.847752928733825684e-01
2.467398941516876221e-01
1.578049063682556152e-01
8.627933857496827841e-05
-3.027595579624176025e-01
-8.507421612739562988e-02
-1.022138893604278564e-01
-5.141084548085927963e-03
2.767937481403350830e-01
1.112179234623908997e-01
-1.064470112323760986e-01
4.481849446892738342e-02
5.414822101593017578e-01
1.223578900098800659e-01
-6.910819560289382935e-02
2.931043803691864014e-01
-8.889987319707870483e-02
2.332602255046367645e-02
-1.569520533084869385e-01
-2.686754465103149414e-01
-6.504399329423904419e-02
1.808795332908630371e-01
-3.996906280517578125e-01
-5.905374512076377869e-02
5.270427465438842773e-02
-7.230503857135772705e-02
1.689644753932952881e-01
2.526773214340209961e-01
-1.771822273731231689e-01
-3.443529605865478516e-01
1.999017894268035889e-01
7.315149158239364624e-02
2.214808166027069092e-01
-3.262643814086914062e-01
-2.482088953256607056e-01
-4.212038516998291016e-01
1.162463724613189697e-01
3.246236126869916916e-03
-5.748732760548591614e-02
-1.198565773665904999e-02
1.449460443109273911e-02
3.432855382561683655e-02
2.282578051090240479e-01
2.667040526866912842e-01
1.905150562524795532e-01
2.649394869804382324e-01
2.328942865133285522e-01
2.557352483272552490e-01
2.069932669401168823e-01
-1.851525157690048218e-01
-6.053448468446731567e-02
-1.757501959800720215e-01
2.227665334939956665e-01
-4.938951134681701660e-02
2.110640257596969604e-01
1.020497605204582214e-01
-3.190433084964752197e-01
-5.443794280290603638e-02
1.903674453496932983e-01
1.969882100820541382e-01
-1.556823402643203735e-01
2.801667153835296631e-01
-8.780895918607711792e-02
2.186673320829868317e-02
2.348591685295104980e-01
5.587245896458625793e-02
3.058570623397827148e-02
7.649177312850952148e-02
1.446340382099151611e-01
1.124078333377838135e-01
1.251317560672760010e-01
-6.097146868705749512e-01
-1.644983440637588501e-01
-2.720268070697784424e-02
1.120716482400894165e-01
-8.259364962577819824e-02
-8.358933776617050171e-02
-2.660658583045005798e-02
-7.809489965438842773e-02
2.545028552412986755e-02
-5.685312789864838123e-04
-4.536010622978210449e-01
-4.845075011253356934e-01
-1.492329090833663940e-01
-7.307349145412445068e-02
-2.629974484443664551e-01
1.393900960683822632e-01
9.237603843212127686e-02
1.467401683330535889e-01
5.649103224277496338e-02
-9.063282608985900879e-02
-5.195876359939575195e-01
3.416126966476440430e-02
3.723978996276855469e-02
-2.888786494731903076e-01
1.682683676481246948e-01
5.238154530525207520e-02
4.475225880742073059e-02
-1.759236007928848267e-01
-3.551397025585174561e-01
6.029058992862701416e-02
1.055940985679626465e-01
2.517366707324981689e-01
-2.268946915864944458e-01
-9.379149228334426880e-02
4.607385993003845215e-01
-6.116972118616104126e-02
1.459962129592895508e-01
2.066901326179504395e-01
2.591856122016906738e-01
1.188820376992225647e-01
1.177421659231185913e-01
-8.338459134101867676e-01
1.922255456447601318e-01
5.233404040336608887e-02
1.050103232264518738e-01
-1.235797405242919922e-01
-1.642647385597229004e-01
-1.340304464101791382e-01
-5.453340411186218262e-01
-1.501473337411880493e-01
-1.825275123119354248e-01
-2.828424870967864990e-01
1.138462647795677185e-01
4.243761673569679260e-02
-1.289219129830598831e-02
1.902361586689949036e-02
1.430051587522029877e-02
-1.818486005067825317e-01
1.228044331073760986e-01
8.750476688146591187e-02
2.248513698577880859e-01
7.647453546524047852e-01
-2.894555591046810150e-02
-9.881344437599182129e-02
-2.922418713569641113e-01
-3.838159888982772827e-02
4.513402655720710754e-02
-1.542056631296873093e-02
-9.642559289932250977e-02
1.124384924769401550e-01
-1.249777749180793762e-01
5.007110908627510071e-02
1.813917905092239380e-01
5.969917774200439453e-02
5.554861202836036682e-02
-1.262073665857315063e-01
1.399293094873428345e-01
-1.678053885698318481e-01
-2.080938518047332764e-01
-2.636327445507049561e-01
-5.998344719409942627e-02
8.674908429384231567e-02
1.084308475255966187e-01
-5.611724033951759338e-02
1.296460777521133423e-01
7.947114109992980957e-02
1.654191315174102783e-02
-3.764095902442932129e-02
4.178932607173919678e-01
4.285073280334472656e-02
1.579364687204360962e-01
1.192551031708717346e-01
-1.705807894468307495e-01
2.146676927804946899e-01
-3.342627286911010742e-01
3.094818294048309326e-01
-1.089823897927999496e-02
-4.664565324783325195e-01
-3.767656385898590088e-01
1.773440688848495483e-01
-4.419564306735992432e-01
1.004033759236335754e-01
2.154091000556945801e-02
7.716494053602218628e-02
-1.743006557226181030e-01
-5.304084420204162598e-01
-1.242621615529060364e-01
-4.595012590289115906e-02
1.032547354698181152e-01
7.659289240837097168e-02
1.816084682941436768e-01
1.210499927401542664e-01
-6.979484111070632935e-02
1.059486065059900284e-02
-1.066786469891667366e-03
6.586969643831253052e-02
-2.704125829041004181e-03
3.451305627822875977e-02
4.725528880953788757e-02
1.299020349979400635e-01
5.127426385879516602e-01
-2.387807518243789673e-02
-2.979307770729064941e-01
-7.134551554918289185e-02
-2.260334640741348267e-01
1.341555565595626831e-01
2.564767003059387207e-01
-7.057078182697296143e-02
2.377827316522598267e-01
-9.316147118806838989e-02
1.000408679246902466e-01
-1.610047072172164917e-01
-9.072370827198028564e-02
-5.700224637985229492e-01
2.954116463661193848e-01
2.545883506536483765e-02
-1.193157956004142761e-01
1.563593149185180664e-01
2.429790645837783813e-01
2.024407126009464264e-02
2.763438820838928223e-01
-2.554140686988830566e-01
2.927582263946533203e-01
-3.221544623374938965e-02
1.085440069437026978e-01
-1.585865020751953125e-01
1.362440288066864014e-01
-6.397221982479095459e-02
1.699594110250473022e-01
5.509190633893013000e-02
2.573700547218322754e-01
-6.026776134967803955e-02
1.056594774127006531e-01
1.277489811182022095e-01
-2.613185346126556396e-01
8.632306009531021118e-02
-1.353232264518737793e-01
-3.203494101762771606e-02
4.177864268422126770e-02
-7.569275330752134323e-03
4.287534207105636597e-02
3.284274935722351074e-01
-1.656301915645599365e-01
-1.379338353872299194e-01
-7.778461277484893799e-02
-1.734368950128555298e-01
3.405053541064262390e-02
-1.709016598761081696e-02
1.159625127911567688e-02
-2.645354531705379486e-02
-5.730918422341346741e-02
-9.262938052415847778e-02
-2.348661124706268311e-01
5.868340283632278442e-02
-4.196847975254058838e-01
2.653894126415252686e-01
-6.334558874368667603e-02
2.598821371793746948e-02
-2.147487699985504150e-01
2.215828299522399902e-01
-1.271924674510955811e-01
-2.499768286943435669e-01
1.179246306419372559e-01
-9.390376508235931396e-03
1.683620037510991096e-03
-1.515887975692749023e-01
-2.407495826482772827e-01
1.108883619308471680e-01
-1.916869580745697021e-01
-1.692495048046112061e-01
-2.532264292240142822e-01
-6.221960857510566711e-02
-1.528861671686172485e-01
-5.759555101394653320e-02
3.180307522416114807e-02
-1.358468234539031982e-01
-1.484927833080291748e-01
1.543106436729431152e-01
1.773471385240554810e-02
-1.058761179447174072e-01
1.491253674030303955e-01
-9.644369781017303467e-02
7.202298194169998169e-02
3.656593561172485352e-01
-1.167345866560935974e-01
-2.549425065517425537e-01
-3.165108337998390198e-02
-7.250227034091949463e-02
-3.897640705108642578e-01
3.627643361687660217e-02
-2.511111460626125336e-02
-6.848804652690887451e-02
1.885108202695846558e-01
5.242979899048805237e-02
1.151790171861648560e-01
-7.083036303520202637e-01
2.272445708513259888e-02
2.699132561683654785e-01
1.606186628341674805e-01
-2.313979901373386383e-03
1.327279657125473022e-01
-1.818282455205917358e-01
