-8.007646352052688599e-02
-1.091835275292396545e-02
4.820318892598152161e-02
5.535121262073516846e-02
4.389079287648200989e-02
-4.053979367017745972e-02
1.255454719066619873e-01
2.058145776391029358e-02
8.611490577459335327e-02
1.480275243520736694e-01
8.893822133541107178e-02
6.316731870174407959e-02
-4.104727134108543396e-02
-4.519621375948190689e-03
1.334880143404006958e-01
6.976621598005294800e-02
5.017085000872612000e-02
-1.537103019654750824e-02
2.477842383086681366e-02
-2.521732822060585022e-02
1.440606266260147095e-01
3.582685021683573723e-03
-5.734499171376228333e-02
3.523872420191764832e-02
1.731754541397094727e-01
2.673230506479740143e-02
7.156546413898468018e-02
2.025326341390609741e-02
6.546609103679656982e-02
4.332285746932029724e-02
9.849409572780132294e-03
6.906308978796005249e-02
4.899057000875473022e-02
1.545366458594799042e-02
3.322484670206904411e-03
5.580183118581771851e-02
4.975015670061111450e-02
-4.328302294015884399e-02
2.182600554078817368e-03
1.716728210449218750e-01
-4.711624234914779663e-02
1.543512009084224701e-02
4.561000317335128784e-02
3.097056038677692413e-02
2.275656722486019135e-02
-1.095532029867172241e-01
-5.024053528904914856e-02
3.984360024333000183e-02
3.724768012762069702e-02
8.141577243804931641e-03
1.974234730005264282e-01
7.239463925361633301e-02
-7.223529368638992310e-02
1.367456912994384766e-01
-1.016256865113973618e-02
2.722442895174026489e-02
1.681885123252868652e-01
5.460249260067939758e-02
4.768657311797142029e-02
-1.194879505783319473e-02
1.140414699912071228e-01
2.590264193713665009e-02
1.563861593604087830e-02
1.575857959687709808e-02
8.319105952978134155e-02
1.490525603294372559e-01
1.271774917840957642e-01
7.846076041460037231e-02
2.623785985633730888e-03
-4.868715256452560425e-02
-7.237917929887771606e-02
5.133786052465438843e-02
1.006760522723197937e-01
-7.371057290583848953e-03
3.919984400272369385e-02
5.527607572730630636e-05
-1.315974863246083260e-03
1.426633000373840332e-01
4.197812080383300781e-02
-3.942973911762237549e-02
1.451220922172069550e-02
1.523655187338590622e-02
3.427303582429885864e-02
2.975488454103469849e-02
