4.989335834980010986e-01
6.521497368812561035e-01
-5.232311487197875977e-01
3.910518884658813477e-01
-3.430071771144866943e-01
-1.247007623314857483e-01
2.493187785148620605e-01
-5.273229479789733887e-01
1.517599821090698242e-01
5.003134012222290039e-01
-2.853880822658538818e-01
-6.624881029129028320e-01
-4.010181128978729248e-01
3.915265575051307678e-02
-4.228089749813079834e-01
-6.822642683982849121e-01
1.058968305587768555e-01
3.846748173236846924e-01
-6.220033764839172363e-01
-5.157257914543151855e-01
4.789572656154632568e-01
2.632551491260528564e-01
5.778353288769721985e-02
4.730433523654937744e-01
3.429311215877532959e-01
-3.249878883361816406e-01
3.483600318431854248e-01
2.896471023559570312e-01
-6.418786644935607910e-01
2.478358894586563110e-02
8.366107195615768433e-02
-6.227146983146667480e-01
-5.704111456871032715e-01
-1.622624509036540985e-02
6.096659898757934570e-01
-3.572775423526763916e-01
4.129217267036437988e-01
1.471895426511764526e-01
4.991240203380584717e-01
2.227973639965057373e-01
-7.588499784469604492e-02
4.220563769340515137e-01
-2.211320251226425171e-01
4.579349756240844727e-01
-4.876879155635833740e-01
-7.148311138153076172e-01
-5.371762514114379883e-01
4.926114976406097412e-01
2.381208539009094238e-01
3.620734810829162598e-02
2.735645323991775513e-02
4.827383458614349365e-01
2.736449837684631348e-01
-3.179498612880706787e-01
1.800519078969955444e-01
2.652352154254913330e-01
-3.447435200214385986e-01
-9.271438121795654297e-01
4.190648496150970459e-01
4.232593476772308350e-01
-8.056867718696594238e-01
-2.429483383893966675e-01
-1.128763079643249512e+00
5.360314249992370605e-01
4.113883525133132935e-02
2.715283036231994629e-01
2.528506219387054443e-01
-5.908205509185791016e-01
-2.265256345272064209e-01
2.684542536735534668e-01
3.784438073635101318e-01
-1.951407194137573242e-01
-6.001244783401489258e-01
4.988048970699310303e-02
1.217708066105842590e-01
8.473780751228332520e-01
-6.463848948478698730e-01
-3.858050107955932617e-01
-2.505977749824523926e-01
-7.705001831054687500e-01
-6.590639352798461914e-01
-6.511932611465454102e-01
-3.250386416912078857e-01
2.884007096290588379e-01
2.091462612152099609e-01
-4.223220944404602051e-01
9.696095585823059082e-01
-6.254106760025024414e-01
-3.141724169254302979e-01
2.970204353332519531e-01
4.540903866291046143e-01
-1.762547940015792847e-01
-7.954359054565429688e-01
-4.714956581592559814e-01
-5.821359753608703613e-01
3.804604411125183105e-01
-1.454752236604690552e-01
4.030967354774475098e-01
-2.467146217823028564e-01
3.993902206420898438e-01
-1.789918094873428345e-01
-5.666178464889526367e-01
3.194468915462493896e-01
-1.037408113479614258e+00
-3.085177838802337646e-01
-1.046573743224143982e-01
1.669467091560363770e-01
-3.181429505348205566e-01
3.554627895355224609e-01
7.552860379219055176e-01
3.304182887077331543e-01
2.502309083938598633e-01
-5.246160030364990234e-01
-1.578970402479171753e-01
1.726345568895339966e-01
-3.799318373203277588e-01
-4.707491993904113770e-01
-5.399095416069030762e-01
-3.681129813194274902e-01
-3.320450186729431152e-01
3.313931524753570557e-01
-8.285809308290481567e-02
-7.522675991058349609e-01
3.110742568969726562e-01
4.596957564353942871e-01
-4.173387587070465088e-01
-4.032557308673858643e-01
-4.750140309333801270e-01
-2.328407615423202515e-01
-8.525057435035705566e-01
6.919326782226562500e-01
1.071053445339202881e-01
3.049848675727844238e-01
3.022646009922027588e-01
3.148156702518463135e-01
-5.667364597320556641e-01
-9.875788092613220215e-01
-3.712968528270721436e-01
1.414144486188888550e-01
3.163880705833435059e-01
-2.899900376796722412e-01
-2.857653498649597168e-01
-3.443070650100708008e-01
-6.662977337837219238e-01
-3.589873015880584717e-01
6.251083612442016602e-01
3.583861291408538818e-01
-4.142009019851684570e-01
-7.919993996620178223e-01
-5.596278309822082520e-01
5.151318907737731934e-01
4.721637070178985596e-01
-2.762650549411773682e-01
-6.474786400794982910e-01
-6.538595557212829590e-01
4.446686804294586182e-01
-5.213124155998229980e-01
1.847154200077056885e-01
2.935142815113067627e-01
5.242536067962646484e-01
-2.497056871652603149e-01
4.901171848177909851e-02
8.301767706871032715e-01
-1.967154294252395630e-01
4.064708650112152100e-01
5.411918163299560547e-01
-1.239923536777496338e-01
1.816406846046447754e-01
-3.560039401054382324e-01
-9.304312467575073242e-01
-4.612209796905517578e-01
4.791159629821777344e-01
5.275592803955078125e-01
-6.562044024467468262e-01
1.241929233074188232e-01
-6.068860292434692383e-01
1.850419342517852783e-01
3.408842682838439941e-01
2.033395767211914062e-01
-6.351861953735351562e-01
-3.991379439830780029e-01
-2.150776386260986328e-01
7.911234498023986816e-01
4.304848611354827881e-01
-5.733547806739807129e-01
-1.073891043663024902e+00
-1.691779196262359619e-01
-4.072326794266700745e-02
3.527984321117401123e-01
-2.600336968898773193e-01
-8.197977542877197266e-01
2.851572334766387939e-01
9.952042996883392334e-02
-3.434156477451324463e-01
4.800991714000701904e-01
-5.782352685928344727e-01
2.214724868535995483e-01
-5.135067701339721680e-01
2.416065782308578491e-01
-3.109896779060363770e-01
2.848879098892211914e-01
-3.336134254932403564e-01
-5.944941639900207520e-01
-2.729597985744476318e-01
-6.220546960830688477e-01
2.683115899562835693e-01
-3.837157785892486572e-01
1.859350204467773438e-01
-6.427704691886901855e-01
5.088948607444763184e-01
4.705923497676849365e-01
1.085358336567878723e-01
-9.288871884346008301e-01
3.151809871196746826e-01
-5.905969738960266113e-01
-4.890597760677337646e-01
-8.008281141519546509e-02
-5.575385093688964844e-01
2.734024524688720703e-01
2.634454667568206787e-01
-1.465416699647903442e-02
4.073511064052581787e-02
2.387620657682418823e-01
2.159978598356246948e-01
8.256334066390991211e-01
-6.307780146598815918e-01
1.793241947889328003e-01
-5.503658205270767212e-03
-6.394434571266174316e-01
3.903338015079498291e-01
-1.624283939599990845e-01
6.473212689161300659e-02
2.845298647880554199e-01
2.882468104362487793e-01
2.738150656223297119e-01
-3.737911581993103027e-01
-2.383603947237133980e-03
2.223911583423614502e-01
1.340639740228652954e-01
-7.420677691698074341e-02
1.924654096364974976e-01
-7.114289402961730957e-01
4.058493673801422119e-02
6.096110939979553223e-01
3.358233869075775146e-01
3.674152791500091553e-01
-5.184957981109619141e-01
2.013352066278457642e-01
-6.847226023674011230e-01
5.410096049308776855e-01
3.315388858318328857e-01
2.399703264236450195e-01
3.950784504413604736e-01
-7.156172394752502441e-01
-3.899321854114532471e-01
3.235116899013519287e-01
-2.782353162765502930e-01
3.142534494400024414e-01
9.489274770021438599e-02
-6.106175184249877930e-01
1.116300672292709351e-01
-6.155980229377746582e-01
4.815850257873535156e-01
2.782352566719055176e-01
1.950161904096603394e-01
-5.810682773590087891e-01
-3.322068452835083008e-01
4.551479816436767578e-01
-3.642635643482208252e-01
4.940704628825187683e-02
3.757970631122589111e-01
8.856931328773498535e-01
-1.066011190414428711e+00
-4.782730937004089355e-01
2.381186634302139282e-01
-9.735131859779357910e-01
2.629223465919494629e-01
-8.241740465164184570e-01
-7.316686958074569702e-02
2.181933671236038208e-01
5.391061902046203613e-01
-6.596813797950744629e-01
2.627265155315399170e-01
-3.940337896347045898e-01
1.317407935857772827e-01
-6.686396598815917969e-01
-9.647250771522521973e-01
1.219763383269309998e-01
3.919082283973693848e-01
3.341488838195800781e-01
4.458706676959991455e-01
1.965890079736709595e-01
4.108358174562454224e-02
-3.729687929153442383e-01
-8.016009628772735596e-02
-6.676448583602905273e-01
-4.181779325008392334e-01
1.451263576745986938e-01
1.017775982618331909e-01
3.808184266090393066e-01
2.064249515533447266e-01
2.456600405275821686e-02
1.369866579771041870e-01
-1.436174750328063965e+00
3.356574177742004395e-01
-6.666113734245300293e-01
2.497041821479797363e-01
2.233880013227462769e-01
-5.194373130798339844e-01
7.464850544929504395e-01
-8.159240484237670898e-01
-5.732257366180419922e-01
2.837340533733367920e-01
-5.486496686935424805e-01
-6.797676682472229004e-01
-1.832751631736755371e-01
4.184769988059997559e-01
1.740809381008148193e-01
-6.078509688377380371e-01
2.734735906124114990e-01
-3.403426110744476318e-01
4.430364966392517090e-01
3.089485466480255127e-01
2.829737961292266846e-01
-3.482488989830017090e-01
2.181330472230911255e-01
2.381896972656250000e-01
-4.402706325054168701e-01
-3.218194246292114258e-01
-3.870735466480255127e-01
-6.790909767150878906e-01
-7.649713754653930664e-01
-4.364514350891113281e-01
-6.775943040847778320e-01
-3.767074048519134521e-01
2.092966586351394653e-01
-6.467868685722351074e-01
-5.194599628448486328e-01
-7.503203749656677246e-01
-6.139478683471679688e-01
2.926347851753234863e-01
4.499783813953399658e-01
1.563349552452564240e-02
5.229209065437316895e-01
1.957402825355529785e-01
-6.068110466003417969e-01
2.199904173612594604e-01
1.023922190070152283e-01
7.160767316818237305e-01
6.429135203361511230e-01
-7.582162618637084961e-01
-5.302258729934692383e-01
-5.186688303947448730e-01
-6.148430705070495605e-01
3.508968055248260498e-01
-1.642567068338394165e-01
7.244474440813064575e-02
-5.439299345016479492e-01
3.308303356170654297e-01
8.996358513832092285e-02
-7.544416785240173340e-01
-1.302081346511840820e-01
-7.298729419708251953e-01
-4.397261142730712891e-02
6.800556927919387817e-02
-8.846397995948791504e-01
3.114627599716186523e-01
-2.601053118705749512e-01
3.435630500316619873e-01
-1.910873800516128540e-01
-2.515223324298858643e-01
6.442540287971496582e-01
-7.452619820833206177e-02
2.231055349111557007e-01
-5.154772996902465820e-01
-5.768167972564697266e-02
5.434413552284240723e-01
-3.284822702407836914e-01
4.367479383945465088e-01
1.792400628328323364e-01
1.345367878675460815e-01
4.908348321914672852e-01
-4.630601108074188232e-01
-6.465586423873901367e-01
-1.028330683708190918e+00
3.687930703163146973e-01
1.839490532875061035e-01
-1.227515190839767456e-01
3.022657632827758789e-01
1.024839207530021667e-01
2.561772763729095459e-01
2.496014237403869629e-01
-2.759540677070617676e-01
-2.778524160385131836e-02
-4.399034380912780762e-01
2.805214226245880127e-01
-7.775734066963195801e-01
-5.097523331642150879e-01
-2.540699243545532227e-01
-9.125175476074218750e-01
1.588208377361297607e-01
-6.002063304185867310e-02
1.618933975696563721e-01
2.268183976411819458e-01
6.916247606277465820e-01
1.382700651884078979e-01
1.637259721755981445e-01
-5.594459772109985352e-01
2.678485512733459473e-01
2.812880575656890869e-01
-8.343797922134399414e-01
-2.256871461868286133e-01
3.462404310703277588e-01
2.323901355266571045e-01
-4.683547094464302063e-02
1.919638961553573608e-01
3.798889219760894775e-01
3.500037491321563721e-01
1.803664714097976685e-01
1.209974586963653564e-01
3.028079867362976074e-01
2.910811007022857666e-01
-3.043304681777954102e-01
-4.191842079162597656e-01
-7.129973173141479492e-01
2.284313291311264038e-01
-8.676240444183349609e-01
-4.986553788185119629e-01
-1.021545410156250000e+00
-4.739547073841094971e-01
-6.407587528228759766e-01
8.485031872987747192e-02
-7.824774980545043945e-01
-9.411783218383789062e-01
-1.086661666631698608e-01
3.329928517341613770e-01
-5.218287706375122070e-01
2.099667489528656006e-01
3.036237061023712158e-01
2.784006595611572266e-01
-4.377509057521820068e-01
2.229064702987670898e-01
-4.480293095111846924e-01
-9.264436364173889160e-01
-5.259508490562438965e-01
3.094996511936187744e-01
6.468718051910400391e-01
6.385607719421386719e-01
-5.022751688957214355e-01
4.490465819835662842e-01
7.032922506332397461e-01
3.928760290145874023e-01
-7.647790312767028809e-01
3.837483227252960205e-01
1.997613608837127686e-01
-6.654866337776184082e-01
-5.832201242446899414e-01
6.501231789588928223e-01
2.462226748466491699e-01
-9.426940083503723145e-01
-6.311734318733215332e-01
1.545767933130264282e-01
2.393332868814468384e-01
-1.605328917503356934e+00
2.512552142143249512e-01
7.074835896492004395e-01
-7.737907115370035172e-03
-5.582082271575927734e-01
-7.650731205940246582e-01
-5.586839318275451660e-01
-5.480778813362121582e-01
-3.761012852191925049e-01
-8.595367670059204102e-01
4.038741290569305420e-01
-4.759107828140258789e-01
-6.793479919433593750e-01
2.472447901964187622e-01
-9.136074036359786987e-02
4.092343747615814209e-01
1.890918612480163574e-01
2.133506983518600464e-01
2.645771801471710205e-01
3.941388726234436035e-01
3.013945817947387695e-01
-3.421376943588256836e-01
-8.305680155754089355e-01
-4.354412853717803955e-01
-7.027556300163269043e-01
-4.289042949676513672e-01
-7.144515514373779297e-01
7.970221638679504395e-01
5.874723792076110840e-01
-7.852164506912231445e-01
5.328059792518615723e-01
3.603902757167816162e-01
5.643157362937927246e-01
5.400939583778381348e-01
2.014876455068588257e-01
2.953701913356781006e-01
5.615252256393432617e-01
-5.011711120605468750e-01
3.124103546142578125e-01
4.226962924003601074e-01
-6.133947372436523438e-01
-3.255804181098937988e-01
8.698336035013198853e-02
-4.559568464756011963e-01
8.305729925632476807e-02
-6.162086725234985352e-01
1.326217502355575562e-01
1.421673893928527832e-01
4.199005663394927979e-01
3.184308707714080811e-01
6.027029156684875488e-01
2.870292365550994873e-01
4.490442946553230286e-02
-8.922074437141418457e-01
-8.812196850776672363e-01
-2.220213413238525391e-01
-2.298788726329803467e-01
-4.852463677525520325e-02
5.069367587566375732e-02
-7.432336807250976562e-01
-7.553845643997192383e-01
2.407505661249160767e-01
-6.427445411682128906e-01
3.670651614665985107e-01
2.562488019466400146e-01
-4.754264056682586670e-01
-7.744159102439880371e-01
3.480620384216308594e-01
4.426018893718719482e-01
3.021871149539947510e-01
4.157382845878601074e-01
7.834915816783905029e-02
-1.676032245159149170e-01
3.864875808358192444e-02
-3.095877170562744141e-01
-3.380544483661651611e-01
-3.694236576557159424e-01
-3.563168048858642578e-01
2.497157901525497437e-01
-9.279316663742065430e-02
1.123149245977401733e-01
4.360872320830821991e-03
-1.125134944915771484e+00
-8.267118930816650391e-01
2.975322902202606201e-01
3.002787232398986816e-01
-3.819825947284698486e-01
-3.193946778774261475e-01
-5.985848605632781982e-02
6.484704613685607910e-01
4.454914033412933350e-01
2.735846638679504395e-01
6.764277219772338867e-01
8.571951091289520264e-02
5.842660665512084961e-01
6.548486649990081787e-02
1.399617344141006470e-01
-4.241536259651184082e-01
-5.189095139503479004e-01
4.764323532581329346e-01
3.578050136566162109e-01
1.837332695722579956e-01
-3.690076470375061035e-01
-5.536766648292541504e-01
-6.047959923744201660e-01
2.978650927543640137e-01
9.433514624834060669e-02
4.486975669860839844e-01
-1.988743543624877930e-01
-5.239033102989196777e-01
7.177189737558364868e-02
2.391148209571838379e-01
-7.534095644950866699e-01
4.723010957241058350e-01
5.600677132606506348e-01
3.917393684387207031e-01
-1.051603794097900391e+00
2.501012980937957764e-01
2.459748983383178711e-01
-2.971779108047485352e-01
3.375510871410369873e-01
3.408792912960052490e-01
-5.172268748283386230e-01
7.212039828300476074e-02
3.276794031262397766e-02
3.163160681724548340e-01
2.783735990524291992e-01
2.867335081100463867e-01
-2.513553500175476074e-01
3.812117576599121094e-01
5.146608948707580566e-01
-4.427475929260253906e-01
-4.898748397827148438e-01
8.143920898437500000e-01
-1.403251141309738159e-01
2.112973630428314209e-01
1.682651489973068237e-01
3.267621397972106934e-01
2.757737040519714355e-01
3.025152087211608887e-01
3.589500784873962402e-01
4.763121008872985840e-01
2.386559247970581055e-01
2.927338480949401855e-01
3.727273344993591309e-01
-2.134287506341934204e-01
2.252745777368545532e-01
-2.557519078254699707e-01
-5.416042208671569824e-01
-3.675689995288848877e-01
1.946023553609848022e-01
-4.986764788627624512e-01
-5.434753894805908203e-01
-5.387864708900451660e-01
-1.186227083206176758e+00
-6.323592066764831543e-01
3.518007397651672363e-01
-5.205674767494201660e-01
2.484413087368011475e-01
3.506307899951934814e-01
5.581310987472534180e-01
-5.425646305084228516e-01
-4.872200787067413330e-01
2.247021198272705078e-01
-4.883908927440643311e-01
-1.122735664248466492e-01
2.578306496143341064e-01
2.621386051177978516e-01
-5.768276453018188477e-01
1.730218529701232910e-01
-1.076438069343566895e+00
-7.431508898735046387e-01
-1.346540451049804688e-01
-2.790912091732025146e-01
-3.440944552421569824e-01
-2.621628940105438232e-01
-2.322883158922195435e-01
-1.030065655708312988e+00
9.548253566026687622e-02
-4.519928097724914551e-01
-3.486633896827697754e-01
3.295269608497619629e-01
2.650447785854339600e-01
-5.882211327552795410e-01
-8.570235371589660645e-01
1.877677291631698608e-01
4.226686954498291016e-01
3.236776590347290039e-01
1.821578443050384521e-01
-6.787430047988891602e-01
6.727384924888610840e-01
-1.243688985705375671e-01
3.396993577480316162e-01
4.494790732860565186e-01
-4.603025019168853760e-01
-8.904311060905456543e-01
-9.244272708892822266e-01
4.002352952957153320e-01
-6.639714837074279785e-01
-6.440994143486022949e-01
-2.827340066432952881e-01
1.400667279958724976e-01
-6.432328224182128906e-01
3.345516324043273926e-01
-8.975028395652770996e-01
-2.615875303745269775e-01
3.531971573829650879e-01
-7.896234989166259766e-01
-3.125764429569244385e-01
-6.024494171142578125e-01
5.006334930658340454e-02
8.127321004867553711e-01
-5.222179889678955078e-01
1.417728364467620850e-01
-7.161089777946472168e-01
4.101056158542633057e-01
4.452514946460723877e-01
-2.245599329471588135e-01
-4.189554154872894287e-01
1.493086218833923340e-01
1.614120602607727051e-01
5.445152148604393005e-02
2.192028760910034180e-01
4.110878705978393555e-01
-4.918507933616638184e-01
7.125929594039916992e-01
-6.808512657880783081e-02
-4.562441706657409668e-01
-6.782622337341308594e-01
-7.273255586624145508e-01
6.940569281578063965e-01
-5.622561573982238770e-01
4.700927138328552246e-01
-1.614159941673278809e-01
-6.013877391815185547e-01
-2.732903361320495605e-01
-4.407120943069458008e-01
3.376470208168029785e-01
5.107395052909851074e-01
-6.262321472167968750e-01
-6.897708773612976074e-01
4.144704043865203857e-01
-1.395227670669555664e+00
7.480721473693847656e-01
2.105090320110321045e-01
2.614069543778896332e-02
-8.008232712745666504e-01
-4.907950758934020996e-02
3.454481661319732666e-01
-5.946246385574340820e-01
2.116323113441467285e-01
-4.915651082992553711e-01
4.345425963401794434e-01
3.381961584091186523e-01
5.678578615188598633e-01
1.026118397712707520e+00
-1.611152440309524536e-01
-6.177448630332946777e-01
-4.561244845390319824e-01
-5.799356102943420410e-01
-6.072821021080017090e-01
1.239113584160804749e-01
4.369166791439056396e-01
-8.249473571777343750e-01
-4.671714603900909424e-01
-1.640779525041580200e-01
6.316682696342468262e-01
4.761765897274017334e-01
3.363128602504730225e-01
6.148160099983215332e-01
-4.293491840362548828e-01
-1.006890654563903809e+00
4.164372384548187256e-01
4.759987294673919678e-01
2.056223601102828979e-01
-5.327413082122802734e-01
7.030092477798461914e-01
2.729012072086334229e-01
1.618871688842773438e-01
3.178033232688903809e-01
7.823203802108764648e-01
-3.607670962810516357e-01
-4.506439268589019775e-01
-3.200353682041168213e-01
-4.185211956501007080e-01
-9.747403264045715332e-01
4.358025491237640381e-01
-5.499306917190551758e-01
-7.593622803688049316e-01
-8.563081026077270508e-01
-6.307380199432373047e-01
3.984388113021850586e-01
-8.737601637840270996e-01
7.205270230770111084e-02
2.557067275047302246e-01
3.665809035301208496e-01
4.865805804729461670e-01
2.887148261070251465e-01
-5.413405895233154297e-01
-5.701020956039428711e-01
4.445814192295074463e-01
-4.916558265686035156e-01
-2.299856245517730713e-01
-5.668891668319702148e-01
1.385893076658248901e-01
3.583860099315643311e-01
4.081885516643524170e-01
1.791744828224182129e-01
-4.932965040206909180e-01
-4.731933772563934326e-01
2.136816978454589844e-01
-4.290020763874053955e-01
2.747731208801269531e-01
6.750849485397338867e-01
2.619377672672271729e-01
5.955962538719177246e-01
5.611654520034790039e-01
3.520086109638214111e-01
2.611113488674163818e-01
-4.965431690216064453e-01
-4.232361614704132080e-01
1.986320763826370239e-01
4.329363405704498291e-01
-5.460006594657897949e-01
3.199728429317474365e-01
-3.546653389930725098e-01
4.191744625568389893e-01
-4.660982489585876465e-01
-5.116950869560241699e-01
-1.202481165528297424e-01
-6.214762330055236816e-01
4.653176665306091309e-02
-6.101444959640502930e-01
6.067043542861938477e-01
2.475462853908538818e-01
2.419650107622146606e-01
-5.964267253875732422e-01
1.576129198074340820e-01
-5.081701874732971191e-01
4.044551849365234375e-01
5.275210738182067871e-01
-2.268737703561782837e-01
-2.771975994110107422e-01
-3.033102750778198242e-01
-1.852952390909194946e-01
-7.622855305671691895e-01
-6.780282258987426758e-01
-1.388942543417215347e-02
-3.682186305522918701e-01
7.769660651683807373e-02
3.024610579013824463e-01
-4.590831995010375977e-01
-4.116423130035400391e-01
1.869242489337921143e-01
-4.526030719280242920e-01
2.887298166751861572e-01
1.593338251113891602e-01
-4.416590929031372070e-01
-5.925064086914062500e-01
-2.870749235153198242e-01
-5.895782709121704102e-01
-3.051257133483886719e-01
4.629593491554260254e-01
-6.852587461471557617e-01
-2.530375719070434570e-01
3.962397873401641846e-01
-3.409557640552520752e-01
3.504528999328613281e-01
-5.553103685379028320e-01
-5.926561951637268066e-01
-6.118070483207702637e-01
4.134715199470520020e-01
6.214986443519592285e-01
-4.326014518737792969e-01
-4.477052390575408936e-01
-5.205979943275451660e-01
-1.002573609352111816e+00
